{"learner":{"attributes":{"best_iteration":"159","best_score":"6.0548588995217845"},"feature_names":[],"feature_types":[],"gradient_booster":{"model":{"gbtree_model_param":{"num_parallel_tree":"1","num_trees":"240"},"iteration_indptr":[0,1,2,3,4,5,6,7,8,9,10,11,12,13,14,15,16,17,18,19,20,21,22,23,24,25,26,27,28,29,30,31,32,33,34,35,36,37,38,39,40,41,42,43,44,45,46,47,48,49,50,51,52,53,54,55,56,57,58,59,60,61,62,63,64,65,66,67,68,69,70,71,72,73,74,75,76,77,78,79,80,81,82,83,84,85,86,87,88,89,90,91,92,93,94,95,96,97,98,99,100,101,102,103,104,105,106,107,108,109,110,111,112,113,114,115,116,117,118,119,120,121,122,123,124,125,126,127,128,129,130,131,132,133,134,135,136,137,138,139,140,141,142,143,144,145,146,147,148,149,150,151,152,153,154,155,156,157,158,159,160,161,162,163,164,165,166,167,168,169,170,171,172,173,174,175,176,177,178,179,180,181,182,183,184,185,186,187,188,189,190,191,192,193,194,195,196,197,198,199,200,201,202,203,204,205,206,207,208,209,210,211,212,213,214,215,216,217,218,219,220,221,222,223,224,225,226,227,228,229,230,231,232,233,234,235,236,237,238,239,240],"tree_info":[0,0,0,0,0,0,0,0,0,0,0,0,0,0,0,0,0,0,0,0,0,0,0,0,0,0,0,0,0,0,0,0,0,0,0,0,0,0,0,0,0,0,0,0,0,0,0,0,0,0,0,0,0,0,0,0,0,0,0,0,0,0,0,0,0,0,0,0,0,0,0,0,0,0,0,0,0,0,0,0,0,0,0,0,0,0,0,0,0,0,0,0,0,0,0,0,0,0,0,0,0,0,0,0,0,0,0,0,0,0,0,0,0,0,0,0,0,0,0,0,0,0,0,0,0,0,0,0,0,0,0,0,0,0,0,0,0,0,0,0,0,0,0,0,0,0,0,0,0,0,0,0,0,0,0,0,0,0,0,0,0,0,0,0,0,0,0,0,0,0,0,0,0,0,0,0,0,0,0,0,0,0,0,0,0,0,0,0,0,0,0,0,0,0,0,0,0,0,0,0,0,0,0,0,0,0,0,0,0,0,0,0,0,0,0,0,0,0,0,0,0,0,0,0,0,0,0,0,0,0,0,0,0,0,0,0,0,0,0,0],"trees":[{"base_weights":[-1.656417E-1,-4.7891097E0,2.8451483E0,-1.8151585E0,-9.626395E0,7.4701115E-2,5.438361E0,-3.8724837E0,1.1010102E0,-1.0397635E1,1.0036863E0,-6.136255E-1,1.4692306E1,2.1967306E1,4.677754E0,-5.127072E0,2.491345E0,-2.43996E0,3.9023287E0,-1.0599868E1,-1.8515122E-1,-3.2280493E-1,2.2406586E-1,-2.122992E0,2.949857E0,8.219701E-1,6.1565854E-2,1.7406586E-1,1.2055415E0,1.6831379E0,6.3817673E0,-5.43884E0,1.9802281E-1,2.6260975E-1,5.8570063E-1,-3.2209287E0,5.1417565E0,-1.8464914E-1,5.0014973E0,-5.3353244E-1,-1.2343415E-1,-5.765122E-2,4.4587802E-2,1.1891598E0,-4.9438767E0,9.422341E0,1.5265496E0,4.0198016E0,-8.4614605E-1,1.1377524E1,5.009159E0,-3.2559618E-1,-9.587156E-2,7.1922176E-2,-5.2651227E-2,-3.1124425E-1,-1.00424886E-1,-7.818415E-2,4.638159E-1,3.0914125E-1,3.3986059E-3,4.664834E-1,-3.9166734E-2,-1.6470502E-1,-3.3235237E-1,9.065843E-3,5.2774024E-1,-1.0574374E-1,1.6787027E-1,-1.8749464E-1,2.5716537E-1,-1.8250078E-1,7.059845E-2,6.309894E-1,-7.624553E-2,-8.997358E-2,2.7105716E-1],"categories":[],"categories_nodes":[],"categories_segments":[],"categories_sizes":[],"default_left":[0,0,0,0,0,0,0,0,0,0,0,0,0,0,0,0,0,0,0,0,0,0,0,0,0,0,0,0,0,0,0,0,0,0,0,0,0,0,0,0,0,0,0,0,0,0,0,0,0,0,0,0,0,0,0,0,0,0,0,0,0,0,0,0,0,0,0,0,0,0,0,0,0,0,0,0,0],"id":0,"left_children":[1,3,5,7,9,11,13,15,17,19,21,23,25,27,29,31,33,35,37,39,-1,41,-1,43,45,-1,-1,-1,-1,47,49,51,-1,-1,53,55,57,-1,59,-1,-1,-1,-1,61,63,65,67,69,71,73,75,-1,-1,-1,-1,-1,-1,-1,-1,-1,-1,-1,-1,-1,-1,-1,-1,-1,-1,-1,-1,-1,-1,-1,-1,-1,-1],"loss_changes":[8.365801E3,3.3919736E3,2.6147007E3,8.9219073E2,7.482871E2,1.7899342E3,2.2607852E3,7.073801E2,6.2452344E2,7.447363E1,3.373792E1,9.206247E2,1.6789893E2,2.3306396E2,9.128772E2,2.2836377E2,7.584175E1,1.8235161E2,3.1066895E2,2.027539E1,0E0,7.0783305E0,0E0,1.127063E3,4.554454E2,0E0,0E0,0E0,0E0,3.9937714E2,7.315879E2,2.5580615E2,0E0,0E0,1.5488827E1,8.219165E1,9.7677376E1,0E0,1.802511E2,0E0,0E0,0E0,0E0,9.065062E2,1.6074426E2,9.227234E1,2.937782E2,3.2481213E2,2.1409187E2,4.039214E2,2.6781958E2,0E0,0E0,0E0,0E0,0E0,0E0,0E0,0E0,0E0,0E0,0E0,0E0,0E0,0E0,0E0,0E0,0E0,0E0,0E0,0E0,0E0,0E0,0E0,0E0,0E0,0E0],"parents":[2147483647,0,0,1,1,2,2,3,3,4,4,5,5,6,6,7,7,8,8,9,9,10,10,11,11,12,12,13,13,14,14,15,15,16,16,17,17,18,18,19,19,21,21,23,23,24,24,29,29,30,30,31,31,34,34,35,35,36,36,38,38,43,43,44,44,45,45,46,46,47,47,48,48,49,49,50,50],"right_children":[2,4,6,8,10,12,14,16,18,20,22,24,26,28,30,32,34,36,38,40,-1,42,-1,44,46,-1,-1,-1,-1,48,50,52,-1,-1,54,56,58,-1,60,-1,-1,-1,-1,62,64,66,68,70,72,74,76,-1,-1,-1,-1,-1,-1,-1,-1,-1,-1,-1,-1,-1,-1,-1,-1,-1,-1,-1,-1,-1,-1,-1,-1,-1,-1],"split_conditions":[-1.054886E0,-1.2700995E0,8.638E1,8.654E1,1.279108E0,6.7942053E-1,5.533272E-1,-5.900368E-1,3.0858955E-1,1E-2,8.9342E1,1.96E0,8.462E1,8.6629E1,5.1967394E-1,-6.517472E-1,-6.710684E-1,3.6E-1,1.6043814E0,1.5E1,-1.8515122E-1,7.4507946E-1,2.2406586E-1,7.596797E-1,-8.2664937E-1,8.219701E-1,6.1565854E-2,1.7406586E-1,1.2055415E0,-5.7416713E-1,3.62E0,9.746692E-1,1.9802281E-1,2.6260975E-1,1.4063342E0,1.391241E0,9.8E1,-1.8464914E-1,-1.3611482E0,-5.3353244E-1,-1.2343415E-1,-5.765122E-2,4.4587802E-2,-1.3081584E0,7.1629864E-1,1.0935614E0,-1.3213451E0,-1.0704638E0,-2.2086439E-1,4.2687333E-1,-9.7487926E-1,-3.2559618E-1,-9.587156E-2,7.1922176E-2,-5.2651227E-2,-3.1124425E-1,-1.00424886E-1,-7.818415E-2,4.638159E-1,3.0914125E-1,3.3986059E-3,4.664834E-1,-3.9166734E-2,-1.6470502E-1,-3.3235237E-1,9.065843E-3,5.2774024E-1,-1.0574374E-1,1.6787027E-1,-1.8749464E-1,2.5716537E-1,-1.8250078E-1,7.059845E-2,6.309894E-1,-7.624553E-2,-8.997358E-2,2.7105716E-1],"split_indices":[664,766,0,0,90,546,427,542,461,18,0,3,0,0,557,97,43,12,111,5,0,26,0,362,691,0,0,0,0,679,2,741,0,0,150,112,0,0,453,0,0,0,0,95,533,49,531,299,709,24,277,0,0,0,0,0,0,0,0,0,0,0,0,0,0,0,0,0,0,0,0,0,0,0,0,0,0],"split_type":[0,0,0,0,0,0,0,0,0,0,0,0,0,0,0,0,0,0,0,0,0,0,0,0,0,0,0,0,0,0,0,0,0,0,0,0,0,0,0,0,0,0,0,0,0,0,0,0,0,0,0,0,0,0,0,0,0,0,0,0,0,0,0,0,0,0,0,0,0,0,0,0,0,0,0,0,0],"sum_hessian":[5.99E2,2.36E2,3.63E2,1.47E2,8.9E1,1.76E2,1.87E2,8.6E1,6.1E1,8.3E1,6E0,1.69E2,7E0,7E0,1.8E2,7.2E1,1.4E1,2.7E1,3.4E1,8E1,3E0,5E0,1E0,1.19E2,5E1,6E0,1E0,1E0,6E0,6.6E1,1.14E2,7E1,2E0,5E0,9E0,2.5E1,2E0,4E0,3E1,7.9E1,1E0,3E0,2E0,5.5E1,6.4E1,8E0,4.2E1,3.4E1,3.2E1,2.3E1,9.1E1,5.3E1,1.7E1,6E0,3E0,6E0,1.9E1,1E0,1E0,2.4E1,6E0,1E1,4.5E1,3.4E1,3E1,1E0,7E0,1.4E1,2.8E1,4E0,3E1,1.4E1,1.8E1,2.1E1,2E0,5E0,8.6E1],"tree_param":{"num_deleted":"0","num_feature":"791","num_nodes":"77","size_leaf_vector":"1"}},{"base_weights":[-1.11241825E-1,-4.234644E0,2.64566E0,-1.1933599E0,-9.290191E0,1.4746936E-1,4.968453E0,1.2846093E-1,-5.9237633E0,-9.914362E0,3.3035963E0,-4.8643813E-1,1.1823155E1,4.1707172E0,1.8591524E1,-1.5396646E0,4.175953E0,-8.302084E0,-3.734365E0,-5.186917E-1,-2.9192638E-1,2.0366573E-1,2.6511642E-1,-2.2802272E0,2.3359146E0,7.743329E-1,1.6860567E-1,3.9820683E-1,5.8681755E0,2.3060028E1,4.783373E-1,2.128143E0,-3.0176241E0,5.3431973E0,-1.2563403E0,-4.3234465E-1,-8.6869255E-2,-2.066925E0,-2.1724792E-1,4.4767786E-2,-2.9492855E-2,-3.669668E0,8.7385124E-1,-4.795562E0,3.4209564E0,2.9285517E0,-1.892377E0,1.2966005E1,4.902691E0,1.6971421E-1,1.2692262E0,8.224692E-2,-4.6371628E-2,-1.3474816E-1,2.504788E-1,-1.8131204E-1,4.5087095E-2,2.0605746E-1,5.1923996E-1,-1.3528733E-1,7.890585E-2,-1.1959612E-1,-2.9235363E-3,-2.2425258E-1,1.6560559E-1,1.17169194E-1,-1.9138348E-1,-9.993999E-2,-2.654547E-1,1.2140081E-1,5.0832635E-1,6.746105E-2,2.5515518E-1,7.207973E-2,-1.8157212E-1,6.8281734E-1,9.978943E-2,2.059752E-1,5.44508E-1],"categories":[],"categories_nodes":[],"categories_segments":[],"categories_sizes":[],"default_left":[0,0,0,0,0,0,0,0,0,0,0,0,0,0,0,0,0,0,0,0,0,0,0,0,0,0,0,0,0,0,0,0,0,0,0,0,0,0,0,0,0,0,0,0,0,0,0,0,0,0,0,0,0,0,0,0,0,0,0,0,0,0,0,0,0,0,0,0,0,0,0,0,0,0,0,0,0,0,0],"id":1,"left_children":[1,3,5,7,9,11,13,15,17,19,21,23,25,27,29,31,33,35,37,-1,-1,39,-1,41,43,-1,-1,45,47,49,51,53,55,57,59,-1,-1,61,-1,-1,-1,63,65,67,69,71,73,75,77,-1,-1,-1,-1,-1,-1,-1,-1,-1,-1,-1,-1,-1,-1,-1,-1,-1,-1,-1,-1,-1,-1,-1,-1,-1,-1,-1,-1,-1,-1],"loss_changes":[6.8091562E3,3.6789985E3,2.0824653E3,9.4492554E2,7.4021436E2,1.2935781E3,1.943835E3,8.098848E2,1.4083105E2,1.0048633E2,2.9899738E1,8.4573566E2,2.264209E2,1.1311143E3,7.983579E2,4.6719598E2,2.2864136E2,1.893042E1,1.0363739E1,0E0,0E0,2.1747472E0,0E0,4.5021204E2,5.193721E2,0E0,0E0,3.3011606E2,7.724785E2,2.795415E2,6.4454875E0,3.60937E2,1.4877881E2,1.3587415E2,3.3027946E1,0E0,0E0,4.4293346E0,0E0,0E0,0E0,4.1904608E2,2.3005891E2,2.314209E0,3.5709857E2,8.584184E1,1.7917491E2,7.876929E1,4.6627246E2,0E0,0E0,0E0,0E0,0E0,0E0,0E0,0E0,0E0,0E0,0E0,0E0,0E0,0E0,0E0,0E0,0E0,0E0,0E0,0E0,0E0,0E0,0E0,0E0,0E0,0E0,0E0,0E0,0E0,0E0],"parents":[2147483647,0,0,1,1,2,2,3,3,4,4,5,5,6,6,7,7,8,8,9,9,10,10,11,11,12,12,13,13,14,14,15,15,16,16,17,17,18,18,21,21,23,23,24,24,27,27,28,28,29,29,30,30,31,31,32,32,33,33,34,34,37,37,41,41,42,42,43,43,44,44,45,45,46,46,47,47,48,48],"right_children":[2,4,6,8,10,12,14,16,18,20,22,24,26,28,30,32,34,36,38,-1,-1,40,-1,42,44,-1,-1,46,48,50,52,54,56,58,60,-1,-1,62,-1,-1,-1,64,66,68,70,72,74,76,78,-1,-1,-1,-1,-1,-1,-1,-1,-1,-1,-1,-1,-1,-1,-1,-1,-1,-1,-1,-1,-1,-1,-1,-1,-1,-1,-1,-1,-1,-1],"split_conditions":[-1.054886E0,1.6326236E0,8.638E1,-1.1754967E0,-1.2921015E0,3.5E1,-1.1473888E0,6.764916E-1,1.1480857E0,1.51E0,8.9342E1,1.2169956E0,3.07725E-1,-9.961484E-1,1.2979051E0,-8.071826E-1,1.1384295E0,4.2795855E-1,3.6292866E-1,-5.186917E-1,-2.9192638E-1,8.16E1,2.6511642E-1,1.873E0,1.6944548E-2,7.743329E-1,1.6860567E-1,4.1260636E-1,1.3032458E0,8.6629E1,8.795E1,-1.3864245E0,1.4620461E0,2.4225126E-1,-1.44498E0,-4.3234465E-1,-8.6869255E-2,9.2E1,-2.1724792E-1,4.4767786E-2,-2.9492855E-2,-6.313661E-1,-4.3583965E-1,1.404715E0,-2.0018765E-1,-8.4589386E-1,-1.5364509E0,8.959E1,4.4E0,1.6971421E-1,1.2692262E0,8.224692E-2,-4.6371628E-2,-1.3474816E-1,2.504788E-1,-1.8131204E-1,4.5087095E-2,2.0605746E-1,5.1923996E-1,-1.3528733E-1,7.890585E-2,-1.1959612E-1,-2.9235363E-3,-2.2425258E-1,1.6560559E-1,1.17169194E-1,-1.9138348E-1,-9.993999E-2,-2.654547E-1,1.2140081E-1,5.0832635E-1,6.746105E-2,2.5515518E-1,7.207973E-2,-1.8157212E-1,6.8281734E-1,9.978943E-2,2.059752E-1,5.44508E-1],"split_indices":[664,401,0,425,249,7,633,70,732,4,0,628,30,158,27,93,50,24,540,0,0,0,0,3,368,0,0,712,319,0,0,352,500,46,79,0,0,0,0,0,0,545,468,82,667,426,339,0,4,0,0,0,0,0,0,0,0,0,0,0,0,0,0,0,0,0,0,0,0,0,0,0,0,0,0,0,0,0,0],"split_type":[0,0,0,0,0,0,0,0,0,0,0,0,0,0,0,0,0,0,0,0,0,0,0,0,0,0,0,0,0,0,0,0,0,0,0,0,0,0,0,0,0,0,0,0,0,0,0,0,0,0,0,0,0,0,0,0,0,0,0,0,0,0,0,0,0,0,0,0,0,0,0,0,0,0,0,0,0,0,0],"sum_hessian":[5.97E2,2.39E2,3.58E2,1.5E2,8.9E1,1.73E2,1.85E2,1.18E2,3.2E1,8.5E1,4E0,1.65E2,8E0,1.76E2,9E0,8.4E1,3.4E1,1.4E1,1.8E1,7.5E1,1E1,2E0,2E0,1.01E2,6.4E1,5E0,3E0,5.5E1,1.21E2,7E0,2E0,2.4E1,6E1,2.8E1,6E0,1.3E1,1E0,6E0,1.2E1,1E0,1E0,7E1,3.1E1,8E0,5.6E1,2.6E1,2.9E1,1.3E1,1.08E2,1E0,6E0,1E0,1E0,9E0,1.5E1,5.2E1,8E0,2.4E1,4E0,4E0,2E0,5E0,1E0,6.3E1,7E0,2.4E1,7E0,2E0,6E0,5E1,6E0,1.6E1,1E1,1E1,1.9E1,1.2E1,1E0,9.7E1,1.1E1],"tree_param":{"num_deleted":"0","num_feature":"791","num_nodes":"79","size_leaf_vector":"1"}},{"base_weights":[1.1244321E-1,-4.142644E0,2.8626585E0,-1.2227128E0,-8.886097E0,3.8169508E0,-3.7758906E0,7.209256E-3,-5.785559E0,-9.395297E0,1.5475204E0,4.490895E0,-3.5880365E0,-4.9144373E0,3.2695029E0,-1.0995519E0,4.530181E0,-8.269426E0,-3.7815678E0,-4.9153048E-1,-2.7865702E-1,1.11097805E-1,-2.8755546E-2,3.7304413E0,1.24329E1,-5.8459125E0,1.577261E0,-9.434787E-1,-5.5874453E0,4.2891545E0,-7.12102E-2,5.116744E0,-1.817945E0,2.2327068E0,4.7312957E-1,-4.378903E-1,-6.022184E-2,-3.9853206E0,-2.8504373E-3,5.403936E-1,5.295714E0,7.14572E0,1.1387473E0,-3.6079666E-1,-1.674878E0,-1.6614019E0,3.4734929E0,3.3327326E-2,-8.603991E-2,-6.4149847E0,-2.0960686E0,2.3454528E-1,5.7009984E-2,2.78156E-1,2.748394E-2,-2.96318E-2,-2.0818117E-1,1.8284756E-1,-1.6217483E-2,-3.293362E-2,-2.0711301E-1,1.21865906E-1,-9.770281E-2,-1.19884886E-1,2.9068607E-1,5.618717E-1,-4.4473227E-2,-2.203924E-2,-1.0908642E-1,-1.1328667E-1,3.7898065E-3,2.4978247E-1,7.317511E-2,-9.12102E-2,-3.2606956E-1,5.0148465E-2,-1.3410348E-1],"categories":[],"categories_nodes":[],"categories_segments":[],"categories_sizes":[],"default_left":[0,0,0,0,0,0,0,0,0,0,0,0,0,0,0,0,0,0,0,0,0,0,0,0,0,0,0,0,0,0,0,0,0,0,0,0,0,0,0,0,0,0,0,0,0,0,0,0,0,0,0,0,0,0,0,0,0,0,0,0,0,0,0,0,0,0,0,0,0,0,0,0,0,0,0,0,0],"id":2,"left_children":[1,3,5,7,9,11,13,15,17,19,21,23,25,27,29,31,33,35,37,-1,-1,-1,-1,39,41,43,45,47,49,51,-1,53,55,57,-1,-1,-1,59,-1,61,63,65,-1,-1,67,69,71,-1,-1,73,75,-1,-1,-1,-1,-1,-1,-1,-1,-1,-1,-1,-1,-1,-1,-1,-1,-1,-1,-1,-1,-1,-1,-1,-1,-1,-1],"loss_changes":[6.9747905E3,3.2301648E3,2.3077239E3,8.193857E2,4.8737842E2,1.5981167E3,3.850572E2,5.8565967E2,1.23035645E2,8.663867E1,8.435761E0,1.7111216E3,3.2411075E2,1.0162787E2,3.9610252E1,4.290819E2,2.3951083E2,3.4306824E1,1.4191681E1,0E0,0E0,0E0,0E0,1.3303479E3,1.204263E3,9.6487854E1,6.1042168E1,9.907519E0,8.478845E1,2.2420044E0,0E0,1.7328339E1,2.418378E2,6.3097977E1,0E0,0E0,0E0,6.6691284E0,0E0,4.258913E2,7.2729785E2,6.0179346E2,0E0,0E0,2.7913322E0,4.371107E0,1.1045975E1,0E0,0E0,1.2928467E0,1.721835E1,0E0,0E0,0E0,0E0,0E0,0E0,0E0,0E0,0E0,0E0,0E0,0E0,0E0,0E0,0E0,0E0,0E0,0E0,0E0,0E0,0E0,0E0,0E0,0E0,0E0,0E0],"parents":[2147483647,0,0,1,1,2,2,3,3,4,4,5,5,6,6,7,7,8,8,9,9,10,10,11,11,12,12,13,13,14,14,15,15,16,16,17,17,18,18,23,23,24,24,25,25,26,26,27,27,28,28,29,29,31,31,32,32,33,33,37,37,39,39,40,40,41,41,44,44,45,45,46,46,49,49,50,50],"right_children":[2,4,6,8,10,12,14,16,18,20,22,24,26,28,30,32,34,36,38,-1,-1,-1,-1,40,42,44,46,48,50,52,-1,54,56,58,-1,-1,-1,60,-1,62,64,66,-1,-1,68,70,72,-1,-1,74,76,-1,-1,-1,-1,-1,-1,-1,-1,-1,-1,-1,-1,-1,-1,-1,-1,-1,-1,-1,-1,-1,-1,-1,-1,-1,-1],"split_conditions":[-1.0547664E0,1.6326236E0,4.5E0,-1.1754967E0,-1.2907115E0,5.3E0,-6.324209E-1,7.04515E-1,-9.7007513E-1,1.51E0,2.2E-1,-1.1473888E0,6.294662E-1,6.0335237E-1,3.73E0,8.1305176E-1,4.601231E-1,1E0,9.2E1,-4.9153048E-1,-2.7865702E-1,1.11097805E-1,-2.8755546E-2,-9.962575E-1,-7.989088E-1,6.724589E-1,4.9E0,1.2738767E0,2.886996E-1,8.2818E1,-7.12102E-2,3.71E0,7.178684E-1,5.5858994E-1,4.7312957E-1,-4.378903E-1,-6.022184E-2,-3.6447167E-2,-2.8504373E-3,1.2001663E0,1.1336906E0,1.2652748E0,1.1387473E0,-3.6079666E-1,8.496516E-1,7.451686E-1,6.463E1,3.3327326E-2,-8.603991E-2,7.429E1,-7.210488E-1,2.3454528E-1,5.7009984E-2,2.78156E-1,2.748394E-2,-2.96318E-2,-2.0818117E-1,1.8284756E-1,-1.6217483E-2,-3.293362E-2,-2.0711301E-1,1.21865906E-1,-9.770281E-2,-1.19884886E-1,2.9068607E-1,5.618717E-1,-4.4473227E-2,-2.203924E-2,-1.0908642E-1,-1.1328667E-1,3.7898065E-3,2.4978247E-1,7.317511E-2,-9.12102E-2,-3.2606956E-1,5.0148465E-2,-1.3410348E-1],"split_indices":[664,401,4,425,249,5,545,550,370,4,4,633,306,257,5,244,55,11,0,0,0,0,0,158,93,546,1,96,376,0,0,1,533,86,0,0,0,32,0,668,50,342,0,0,25,26,0,0,0,0,23,0,0,0,0,0,0,0,0,0,0,0,0,0,0,0,0,0,0,0,0,0,0,0,0,0,0],"split_type":[0,0,0,0,0,0,0,0,0,0,0,0,0,0,0,0,0,0,0,0,0,0,0,0,0,0,0,0,0,0,0,0,0,0,0,0,0,0,0,0,0,0,0,0,0,0,0,0,0,0,0,0,0,0,0,0,0,0,0,0,0,0,0,0,0,0,0,0,0,0,0,0,0,0,0,0,0],"sum_hessian":[5.94E2,2.33E2,3.61E2,1.45E2,8.8E1,3.16E2,4.5E1,1.15E2,3E1,8.4E1,4E0,2.9E2,2.6E1,3.9E1,6E0,9.3E1,2.2E1,1.2E1,1.8E1,7.4E1,1E1,3E0,1E0,2.66E2,2.4E1,1.8E1,8E0,6E0,3.3E1,5E0,1E0,9E0,8.4E1,1.6E1,6E0,1.1E1,1E0,1.7E1,1E0,8.8E1,1.78E2,1.7E1,7E0,1.3E1,5E0,3E0,5E0,2E0,4E0,2.6E1,7E0,4E0,1E0,8E0,1E0,5.6E1,2.8E1,1E1,6E0,1E0,1.6E1,5E1,3.8E1,1.1E1,1.67E2,1.1E1,6E0,2E0,3E0,2E0,1E0,2E0,3E0,1E0,2.5E1,1E0,6E0],"tree_param":{"num_deleted":"0","num_feature":"791","num_nodes":"77","size_leaf_vector":"1"}},{"base_weights":[1.1968715E-2,-3.9579823E0,2.6195452E0,6.813241E-1,-6.5626974E0,3.4654045E0,-3.468746E0,2.6875827E0,-3.1590173E0,-3.2469614E0,-9.059587E0,-1.1123133E0,4.3517003E0,2.9525263E0,-4.323841E0,1.3266151E0,9.223662E0,-3.5244174E0,1.9507466E-1,3.804178E-1,-4.440151E0,-4.6148738E-1,-1.5681118E-1,2.4859823E-1,-5.89622E0,3.5252788E0,1.09833E1,1.6522431E-1,2.9818153E-2,-5.757263E0,-1.7242893E0,-1.773307E0,3.4523401E0,1.0066865E1,4.087117E-2,-2.4815543E0,-3.0410486E-1,-1.8136258E-1,2.6865234E0,-2.4296641E0,-6.211725E0,-2.6474008E-1,5.452202E-1,-3.3445475E-1,-1.2878971E0,2.9447088E0,5.357785E-1,1.9250496E1,5.887178E0,-6.26274E0,-1.1908561E-1,1.076679E0,-2.7476687E0,-1.2829062E-1,8.912407E-3,2.0792358E-1,-2.1444996E-1,1.1185765E-1,5.382967E-1,-7.687229E-2,-3.290854E-1,-5.4655313E-3,1.815307E-1,8.2051076E-2,-1.515986E-1,-2.243663E-1,-4.1560015E-1,-6.1047334E-2,2.8379953E-1,-1.7046142E-2,-7.9546146E-2,2.7337382E-2,2.1781877E-1,1.007255E0,2.5761148E-1,3.5618317E-1,-1.747064E-1,-3.25171E-1,-1.2853147E-1,8.622124E-2,-3.7857603E-2,-3.141178E-2,-1.5543659E-1],"categories":[],"categories_nodes":[],"categories_segments":[],"categories_sizes":[],"default_left":[0,0,0,0,0,0,0,0,0,0,0,0,0,0,0,0,0,0,0,0,0,0,0,0,0,0,0,0,0,0,0,0,0,0,0,0,0,0,0,0,0,0,0,0,0,0,0,0,0,0,0,0,0,0,0,0,0,0,0,0,0,0,0,0,0,0,0,0,0,0,0,0,0,0,0,0,0,0,0,0,0,0,0],"id":3,"left_children":[1,3,5,7,9,11,13,15,17,19,21,23,25,27,29,31,33,35,-1,37,39,-1,-1,41,43,45,47,-1,-1,49,51,53,55,57,-1,59,-1,-1,61,63,65,67,-1,-1,69,71,-1,73,75,77,-1,79,81,-1,-1,-1,-1,-1,-1,-1,-1,-1,-1,-1,-1,-1,-1,-1,-1,-1,-1,-1,-1,-1,-1,-1,-1,-1,-1,-1,-1,-1,-1],"loss_changes":[6.397522E3,2.9650688E3,1.9329099E3,6.9421E2,1.2703901E3,1.335606E3,2.653429E2,5.12592E2,9.372772E1,3.0033154E2,6.0759766E1,3.5303137E2,1.4684175E3,3.0049782E0,1.4284937E2,3.3560117E2,6.265265E1,6.492624E1,0E0,1.7610268E2,1.7011743E2,0E0,0E0,2.3809827E2,3.523105E1,9.9536475E2,1.1505881E3,0E0,0E0,2.9446838E1,4.8821606E1,3.2936317E1,1.818277E2,2.5176575E1,0E0,7.891374E1,0E0,0E0,3.2071106E1,6.872249E1,6.048767E1,2.4551384E2,0E0,0E0,3.184905E-1,7.7281104E2,0E0,3.494336E1,2.56888E2,2.831665E0,0E0,7.2449336E0,7.229973E0,0E0,0E0,0E0,0E0,0E0,0E0,0E0,0E0,0E0,0E0,0E0,0E0,0E0,0E0,0E0,0E0,0E0,0E0,0E0,0E0,0E0,0E0,0E0,0E0,0E0,0E0,0E0,0E0,0E0,0E0],"parents":[2147483647,0,0,1,1,2,2,3,3,4,4,5,5,6,6,7,7,8,8,9,9,10,10,11,11,12,12,13,13,14,14,15,15,16,16,17,17,19,19,20,20,23,23,24,24,25,25,26,26,29,29,30,30,31,31,32,32,33,33,35,35,38,38,39,39,40,40,41,41,44,44,45,45,47,47,48,48,49,49,51,51,52,52],"right_children":[2,4,6,8,10,12,14,16,18,20,22,24,26,28,30,32,34,36,-1,38,40,-1,-1,42,44,46,48,-1,-1,50,52,54,56,58,-1,60,-1,-1,62,64,66,68,-1,-1,70,72,-1,74,76,78,-1,80,82,-1,-1,-1,-1,-1,-1,-1,-1,-1,-1,-1,-1,-1,-1,-1,-1,-1,-1,-1,-1,-1,-1,-1,-1,-1,-1,-1,-1,-1,-1],"split_conditions":[-1.0549119E0,-3.6706931E-3,4.5E0,-3.6374815E-2,1.6326236E0,1.4866943E0,-2.9437757E-1,-8.823919E-1,4.2E0,-4.043996E-1,1E-2,2.3181865E-2,-1.0473756E-1,3.73E0,-1.142959E0,-1.0932178E0,6.33E0,-6.1638963E-1,1.9507466E-1,2.92E0,-1.1768054E0,-4.6148738E-1,-1.5681118E-1,9.648E1,4.201648E-1,4.4E0,-1.1640829E0,1.6522431E-1,2.9818153E-2,-9.304163E-1,1.4710022E0,-4.251148E-1,1.84E0,-1.1501825E0,4.087117E-2,2.7E-2,-3.0410486E-1,-1.8136258E-1,-5.8666233E-2,1.2755305E0,-7.8426963E-1,-6.7153025E-1,5.452202E-1,-3.3445475E-1,8.816E1,-5.996723E-1,5.357785E-1,2.6E-2,3E0,7.8E0,-1.1908561E-1,-7.1702313E-1,-8.478761E-1,-1.2829062E-1,8.912407E-3,2.0792358E-1,-2.1444996E-1,1.1185765E-1,5.382967E-1,-7.687229E-2,-3.290854E-1,-5.4655313E-3,1.815307E-1,8.2051076E-2,-1.515986E-1,-2.243663E-1,-4.1560015E-1,-6.1047334E-2,2.8379953E-1,-1.7046142E-2,-7.9546146E-2,2.7337382E-2,2.1781877E-1,1.007255E0,2.5761148E-1,3.5618317E-1,-1.747064E-1,-3.25171E-1,-1.2853147E-1,8.622124E-2,-3.7857603E-2,-3.141178E-2,-1.5543659E-1],"split_indices":[664,320,4,160,401,408,767,178,4,240,18,387,650,5,161,137,2,127,0,2,425,0,0,0,24,4,89,0,0,631,351,779,14,28,0,11,0,0,37,576,372,211,0,0,0,563,0,9,12,4,0,23,76,0,0,0,0,0,0,0,0,0,0,0,0,0,0,0,0,0,0,0,0,0,0,0,0,0,0,0,0,0,0],"split_type":[0,0,0,0,0,0,0,0,0,0,0,0,0,0,0,0,0,0,0,0,0,0,0,0,0,0,0,0,0,0,0,0,0,0,0,0,0,0,0,0,0,0,0,0,0,0,0,0,0,0,0,0,0,0,0,0,0,0,0,0,0,0,0,0,0,0,0,0,0,0,0,0,0,0,0,0,0,0,0,0,0,0,0],"sum_hessian":[6.16E2,2.44E2,3.72E2,8.8E1,1.56E2,3.27E2,4.5E1,5.8E1,3E1,6.8E1,8.8E1,5.3E1,2.74E2,5E0,4E1,4.9E1,9E0,2.9E1,1E0,1.7E1,5.1E1,8.5E1,3E0,4.2E1,1.1E1,2.45E2,2.9E1,4E0,1E0,2.5E1,1.5E1,2E1,2.9E1,8E0,1E0,2.2E1,7E0,6E0,1.1E1,2.5E1,2.6E1,4.1E1,1E0,9E0,2E0,2.28E2,1.7E1,1E1,1.9E1,2.1E1,4E0,4E0,1.1E1,1.4E1,6E0,2.7E1,2E0,1E0,7E0,1.9E1,3E0,3E0,8E0,3E0,2.2E1,1.6E1,1E1,3.6E1,5E0,1E0,1E0,8.5E1,1.43E2,9E0,1E0,1.7E1,2E0,1.9E1,2E0,3E0,1E0,2E0,9E0],"tree_param":{"num_deleted":"0","num_feature":"791","num_nodes":"83","size_leaf_vector":"1"}},{"base_weights":[5.2726876E-2,-3.5773427E0,2.3813088E0,-1.1263006E0,-7.9759684E0,3.2185721E0,-3.4589458E0,7.016641E-1,-3.8500814E0,1.8720986E0,-8.485405E0,3.6702052E-1,4.6558504E0,3.3289025E0,-4.3462825E0,3.0290506E0,-1.4500513E0,-1.5598418E0,-5.572271E0,1.9517592E-1,3.8836408E-1,-4.4515467E-1,-2.6708862E-1,-1.1860734E0,3.3409374E0,1.51877515E-2,5.7759233E0,5.368455E-2,2.0940427E-1,-2.4123483E0,-5.9947524E0,1.5595859E0,9.630377E0,-2.0981476E0,4.672825E0,3.1036258E0,-2.9727705E0,-4.1463557E-1,-4.459077E0,-2.4829412E-2,4.2443883E-2,-3.2716766E-1,-3.2822317E-1,4.638153E0,-4.350571E0,-5.4021397E0,1.8205032E0,1.695399E1,5.2757897E0,6.931986E-2,-3.4096367E0,-6.981781E-2,-3.1923872E-1,-7.8955136E-2,1.7281418E-1,1.0906122E-1,5.1914686E-1,-1.3089472E-1,1.9418655E-1,2.7212688E-1,3.984938E-2,1.8310705E-3,2.1615517E-1,-1.8273437E-1,1.2821333E-1,-1.01478934E-1,-2.5282866E-1,-9.7198956E-2,6.751966E-2,1.2230722E-1,4.135161E-1,-2.3850487E-1,-5.6323506E-2,-4.464841E-2,-2.88188E-1,-1.9457828E-1,1.1572792E-1,9.816455E-1,3.418897E-1,1.954993E-1,4.4610497E-1,8.856963E-2,-8.2504146E-2,-5.353495E-2,-1.9525732E-1],"categories":[],"categories_nodes":[],"categories_segments":[],"categories_sizes":[],"default_left":[0,0,0,0,0,0,0,0,0,0,0,0,0,0,0,0,0,0,0,0,0,0,0,0,0,0,0,0,0,0,0,0,0,0,0,0,0,0,0,0,0,0,0,0,0,0,0,0,0,0,0,0,0,0,0,0,0,0,0,0,0,0,0,0,0,0,0,0,0,0,0,0,0,0,0,0,0,0,0,0,0,0,0,0,0],"id":4,"left_children":[1,3,5,7,9,11,13,15,17,19,21,23,25,27,29,31,33,35,37,-1,39,-1,-1,41,43,45,47,-1,-1,49,51,53,55,57,59,61,63,-1,65,-1,-1,67,-1,69,71,73,75,77,79,81,83,-1,-1,-1,-1,-1,-1,-1,-1,-1,-1,-1,-1,-1,-1,-1,-1,-1,-1,-1,-1,-1,-1,-1,-1,-1,-1,-1,-1,-1,-1,-1,-1,-1,-1],"loss_changes":[5.1478906E3,2.5569458E3,1.8252605E3,7.6946356E2,4.4232812E2,1.3302949E3,2.9755444E2,4.701245E2,2.3585022E2,1.3554451E1,5.8799316E1,5.120276E2,1.1226543E3,7.12912E0,1.1943591E2,4.2149933E2,2.042467E2,1.9372247E2,6.901538E1,0E0,2.0516725E0,0E0,0E0,3.35078E2,3.9932523E2,4.3037396E2,8.8330566E2,0E0,0E0,5.2210068E1,3.0541016E1,2.3167725E2,2.2200012E1,1.5007501E2,1.0578758E1,2.6022682E1,9.243919E1,0E0,2.8930908E1,0E0,0E0,1.762123E2,0E0,2.4250726E2,2.7422028E0,1.2789856E1,1.0213575E2,5.545764E1,8.017788E2,2.3408785E1,1.3203262E1,0E0,0E0,0E0,0E0,0E0,0E0,0E0,0E0,0E0,0E0,0E0,0E0,0E0,0E0,0E0,0E0,0E0,0E0,0E0,0E0,0E0,0E0,0E0,0E0,0E0,0E0,0E0,0E0,0E0,0E0,0E0,0E0,0E0,0E0],"parents":[2147483647,0,0,1,1,2,2,3,3,4,4,5,5,6,6,7,7,8,8,9,9,10,10,11,11,12,12,13,13,14,14,15,15,16,16,17,17,18,18,20,20,23,23,24,24,25,25,26,26,29,29,30,30,31,31,32,32,33,33,34,34,35,35,36,36,38,38,41,41,43,43,44,44,45,45,46,46,47,47,48,48,49,49,50,50],"right_children":[2,4,6,8,10,12,14,16,18,20,22,24,26,28,30,32,34,36,38,-1,40,-1,-1,42,44,46,48,-1,-1,50,52,54,56,58,60,62,64,-1,66,-1,-1,68,-1,70,72,74,76,78,80,82,84,-1,-1,-1,-1,-1,-1,-1,-1,-1,-1,-1,-1,-1,-1,-1,-1,-1,-1,-1,-1,-1,-1,-1,-1,-1,-1,-1,-1,-1,-1,-1,-1,-1,-1],"split_conditions":[-1.054886E0,-1.2700353E0,4.5E0,-2.526704E-3,-1.152548E0,-9.363883E-1,8.713274E-1,9.615372E-1,6.048498E-1,1E0,1.51E0,-1.0645198E0,6.041107E-1,5.03E0,-1.1807927E0,-8.8336796E-1,-1.3243191E0,8.9608425E-1,-9.479285E-1,1.9517592E-1,1.3E-1,-4.4515467E-1,-2.6708862E-1,9.791E0,1.5093595E0,-1.3846854E0,1.4504625E0,5.368455E-2,2.0940427E-1,4.362191E-1,-8.3885705E-1,1.4851834E0,-1.1501825E0,3.6E-1,1.3E-1,1.4297162E0,-1.3589983E0,-4.1463557E-1,-2.4230355E-1,-2.4829412E-2,4.2443883E-2,-1.2049087E-1,-3.2822317E-1,-3.935215E-1,4.17E0,8.3679986E-1,1.1943188E0,6.32E0,4.419355E-2,1.3116904E-1,-7.7775395E-1,-6.981781E-2,-3.1923872E-1,-7.8955136E-2,1.7281418E-1,1.0906122E-1,5.1914686E-1,-1.3089472E-1,1.9418655E-1,2.7212688E-1,3.984938E-2,1.8310705E-3,2.1615517E-1,-1.8273437E-1,1.2821333E-1,-1.01478934E-1,-2.5282866E-1,-9.7198956E-2,6.751966E-2,1.2230722E-1,4.135161E-1,-2.3850487E-1,-5.6323506E-2,-4.464841E-2,-2.88188E-1,-1.9457828E-1,1.1572792E-1,9.816455E-1,3.418897E-1,1.954993E-1,4.4610497E-1,8.856963E-2,-8.2504146E-2,-5.353495E-2,-1.9525732E-1],"split_indices":[664,766,4,320,28,456,102,346,318,2,4,299,257,2,754,178,564,751,707,0,1,0,0,5,722,556,242,0,0,685,386,166,28,12,1,45,418,0,570,0,0,504,0,310,2,25,199,6,645,42,388,0,0,0,0,0,0,0,0,0,0,0,0,0,0,0,0,0,0,0,0,0,0,0,0,0,0,0,0,0,0,0,0,0,0],"split_type":[0,0,0,0,0,0,0,0,0,0,0,0,0,0,0,0,0,0,0,0,0,0,0,0,0,0,0,0,0,0,0,0,0,0,0,0,0,0,0,0,0,0,0,0,0,0,0,0,0,0,0,0,0,0,0,0,0,0,0,0,0,0,0,0,0,0,0,0,0,0,0,0,0,0,0,0,0,0,0,0,0,0,0,0,0],"sum_hessian":[6.07E2,2.37E2,3.7E2,1.53E2,8.4E1,3.24E2,4.6E1,9.2E1,6.1E1,4E0,8E1,1.09E2,2.15E2,5E0,4.1E1,4.4E1,4.8E1,2.7E1,3.4E1,1E0,3E0,6.9E1,1.1E1,7.2E1,3.7E1,4.2E1,1.73E2,2E0,3E0,2E1,2.1E1,3.7E1,7E0,4.4E1,4E0,6E0,2.1E1,8E0,2.6E1,1E0,2E0,6.3E1,9E0,3.2E1,5E0,1E1,3.2E1,6E0,1.67E2,6E0,1.4E1,2E0,1.9E1,1.4E1,2.3E1,1E0,6E0,4.1E1,3E0,3E0,1E0,2E0,4E0,1.9E1,2E0,6E0,2E1,3.2E1,3.1E1,2.1E1,1.1E1,4E0,1E0,1E0,9E0,2E0,3E1,4E0,2E0,1.23E2,4.4E1,3E0,3E0,3E0,1.1E1],"tree_param":{"num_deleted":"0","num_feature":"791","num_nodes":"85","size_leaf_vector":"1"}},{"base_weights":[-1.0184709E-2,-3.5279715E0,2.3510973E0,-1.0381601E0,-7.6573515E0,4.393954E-1,4.82513E0,-1.889657E0,3.6528506E0,8.868616E-1,-8.158592E0,-2.4560839E-1,7.2302547E0,1.0349311E0,4.17535E0,2.2535937E0,-2.9370675E0,8.976109E0,9.329143E-1,-4.646925E-2,3.0129032E0,-4.23844E-1,-2.4300443E-1,-1.5514008E0,2.2114198E0,-1.0339369E-1,1.0622969E1,5.489254E0,-2.8381306E-1,-1.8619239E0,4.4147925E0,-4.8785725E0,-1.5652936E0,5.568099E-1,8.319473E-2,-2.9737902E0,1.9824933E-1,3.5671234E-2,1.9029652E-1,-4.0369673E0,1.8258953E-1,6.6808355E-1,1.276538E0,-1.3518101E-1,1.2613407E-1,6.8391097E-1,2.3894031E-1,1.344369E1,4.6361527E0,-1.1762002E0,4.962256E-1,-1.6646584E-2,-1.4128818E-1,3.7687287E-1,1.7766842E-1,6.1651308E-2,-2.7685094E-1,-1.2699537E-1,3.285607E-2,-1.7802384E-1,-4.0457703E-2,1.6202144E-1,-2.3626326E-1,-1.4620134E-1,6.544742E-2,1.3177796E-1,-2.0243306E-1,7.0836025E-1,1.5521358E-1,1.8323396E-1,4.838985E-1,-1.1513771E-1,1.3864721E-1],"categories":[],"categories_nodes":[],"categories_segments":[],"categories_sizes":[],"default_left":[0,0,0,0,0,0,0,0,0,0,0,0,0,0,0,0,0,0,0,0,0,0,0,0,0,0,0,0,0,0,0,0,0,0,0,0,0,0,0,0,0,0,0,0,0,0,0,0,0,0,0,0,0,0,0,0,0,0,0,0,0,0,0,0,0,0,0,0,0,0,0,0,0],"id":5,"left_children":[1,3,5,7,9,11,13,15,17,19,21,23,25,-1,27,29,31,33,35,-1,37,-1,-1,39,41,43,45,47,49,51,53,55,57,-1,-1,59,-1,-1,-1,61,63,-1,65,-1,-1,-1,-1,67,69,71,-1,-1,-1,-1,-1,-1,-1,-1,-1,-1,-1,-1,-1,-1,-1,-1,-1,-1,-1,-1,-1,-1,-1],"loss_changes":[5.0669453E3,2.510988E3,1.7241886E3,6.2203735E2,4.0124463E2,9.6469104E2,1.5535454E3,5.751177E2,3.3912024E2,2.5968641E1,5.0140625E1,6.098125E2,4.7383673E2,0E0,9.038303E2,2.483702E2,2.7201062E2,1.0783081E2,2.1316302E2,0E0,2.7554016E0,0E0,0E0,5.3517065E2,6.709383E2,5.46191E1,1.667544E2,7.451997E2,3.3962524E2,1.3796246E1,2.163559E1,1.7986633E2,1.3812677E2,0E0,0E0,7.2787247E0,0E0,0E0,0E0,2.707718E2,2.627656E2,0E0,4.593681E2,0E0,0E0,0E0,0E0,3.8309204E1,4.9841455E2,1.576488E2,0E0,0E0,0E0,0E0,0E0,0E0,0E0,0E0,0E0,0E0,0E0,0E0,0E0,0E0,0E0,0E0,0E0,0E0,0E0,0E0,0E0,0E0,0E0],"parents":[2147483647,0,0,1,1,2,2,3,3,4,4,5,5,6,6,7,7,8,8,9,9,10,10,11,11,12,12,14,14,15,15,16,16,17,17,18,18,20,20,23,23,24,24,25,25,26,26,27,27,28,28,29,29,30,30,31,31,32,32,35,35,39,39,40,40,42,42,47,47,48,48,49,49],"right_children":[2,4,6,8,10,12,14,16,18,20,22,24,26,-1,28,30,32,34,36,-1,38,-1,-1,40,42,44,46,48,50,52,54,56,58,-1,-1,60,-1,-1,-1,62,64,-1,66,-1,-1,-1,-1,68,70,72,-1,-1,-1,-1,-1,-1,-1,-1,-1,-1,-1,-1,-1,-1,-1,-1,-1,-1,-1,-1,-1,-1,-1],"split_conditions":[-1.0547664E0,-1.2700353E0,8.674E1,7.3439515E-1,-1.1526862E0,2.62E1,5.533272E-1,1.4782151E0,-8.9310044E-1,7.4507946E-1,1.51E0,7.145223E-1,-6.638622E-1,1.0349311E0,-1.328075E0,-1.307068E0,-6.154997E-1,6.2E-2,-5.6714723E-3,-4.646925E-2,8.463E1,-4.23844E-1,-2.4300443E-1,1.6049253E0,-1.3193268E0,6.1E1,1.16134E0,4.899262E-1,9.698E1,5.154584E-1,1E0,1.7004068E-1,-1.2557377E0,5.568099E-1,8.319473E-2,2.1E-1,1.9824933E-1,3.5671234E-2,1.9029652E-1,1.302204E-1,4.8001644E-1,6.6808355E-1,3E0,-1.3518101E-1,1.2613407E-1,6.8391097E-1,2.3894031E-1,8.959E1,4.27E0,9.436561E-1,4.962256E-1,-1.6646584E-2,-1.4128818E-1,3.7687287E-1,1.7766842E-1,6.1651308E-2,-2.7685094E-1,-1.2699537E-1,3.285607E-2,-1.7802384E-1,-4.0457703E-2,1.6202144E-1,-2.3626326E-1,-1.4620134E-1,6.544742E-2,1.3177796E-1,-2.0243306E-1,7.0836025E-1,1.5521358E-1,1.8323396E-1,4.838985E-1,-1.1513771E-1,1.3864721E-1],"split_indices":[664,766,0,782,28,7,427,706,271,26,4,333,43,0,558,95,391,9,181,0,0,0,0,111,666,0,614,603,0,62,2,634,338,0,0,12,0,0,0,443,682,0,6,0,0,0,0,0,4,673,0,0,0,0,0,0,0,0,0,0,0,0,0,0,0,0,0,0,0,0,0,0,0],"split_type":[0,0,0,0,0,0,0,0,0,0,0,0,0,0,0,0,0,0,0,0,0,0,0,0,0,0,0,0,0,0,0,0,0,0,0,0,0,0,0,0,0,0,0,0,0,0,0,0,0,0,0,0,0,0,0,0,0,0,0,0,0,0,0,0,0,0,0,0,0,0,0,0,0],"sum_hessian":[6.08E2,2.44E2,3.64E2,1.53E2,9.1E1,2.06E2,1.58E2,1.3E2,2.3E1,5E0,8.6E1,1.88E2,1.8E1,5E0,1.53E2,2.6E1,1.04E2,7E0,1.6E1,3E0,2E0,7.7E1,9E0,1.23E2,6.5E1,6E0,1.2E1,1.18E2,3.5E1,9E0,1.7E1,4.2E1,6.2E1,5E0,2E0,7E0,9E0,1E0,1E0,5E1,7.3E1,4E0,6.1E1,3E0,3E0,7E0,5E0,1E1,1.08E2,3.3E1,2E0,4E0,5E0,2E0,1.5E1,4E0,3.8E1,4.3E1,1.9E1,5E0,2E0,4E0,4.6E1,1.9E1,5.4E1,4.9E1,1.2E1,9E0,1E0,9.2E1,1.6E1,2.6E1,7E0],"tree_param":{"num_deleted":"0","num_feature":"791","num_nodes":"73","size_leaf_vector":"1"}},{"base_weights":[1.91728E-1,-3.1790524E0,2.3934598E0,-1.027772E0,-7.2164297E0,3.1387048E0,-3.141418E0,-1.1241935E-1,-5.0210643E0,-7.732889E0,8.724353E-1,8.538433E0,2.450811E0,-4.0603075E0,2.4268837E0,3.2809687E0,-1.2311132E0,-1.10843E0,-6.92196E0,-4.0232545E-1,-2.5170687E-1,-4.4726636E-2,2.9375808E0,-3.1751025E-1,1.4591009E1,-1.98539E-1,3.5963967E0,-1.9189323E0,-5.05719E0,3.2233696E0,-5.8800794E-2,-2.220643E0,4.342708E0,-1.8491511E0,6.1074657E0,-2.2489445E0,2.574179E-1,-1.04826465E-1,-3.6708224E-1,3.4779456E-2,1.8553911E-1,-4.5934534E0,5.8363385E0,1.5554025E1,-1.4080785E-1,9.191066E-1,-4.156254E0,4.097059E0,-2.2107916E0,-1.5214603E-1,8.68721E-2,-4.391929E-2,-5.3688245E0,1.7401184E-1,4.847584E-2,-2.5031567E-2,-1.8868889E-1,1.7164563E-1,3.0940413E-1,-1.3181394E-1,2.618433E-2,4.4812474E-1,5.0590683E-2,-1.3186824E-1,-2.3175431E-2,-2.9961368E-1,-9.98089E-2,3.8927558E-1,1.21404044E-1,8.102239E-1,6.3623786E-2,2.2464441E-1,-2.8523607E-2,-2.431484E-1,-8.483797E-2,2.3044236E-1,-2.417928E-2,-2.6791263E-1,-3.4403367E-4,4.2854976E-2,-4.845276E-2,-2.860524E-1,-1.0887223E-1],"categories":[],"categories_nodes":[],"categories_segments":[],"categories_sizes":[],"default_left":[0,0,0,0,0,0,0,0,0,0,0,0,0,0,0,0,0,0,0,0,0,0,0,0,0,0,0,0,0,0,0,0,0,0,0,0,0,0,0,0,0,0,0,0,0,0,0,0,0,0,0,0,0,0,0,0,0,0,0,0,0,0,0,0,0,0,0,0,0,0,0,0,0,0,0,0,0,0,0,0,0,0,0],"id":6,"left_children":[1,3,5,7,9,11,13,15,17,19,21,23,25,27,29,31,33,35,37,-1,-1,-1,39,41,43,45,47,49,51,53,-1,55,57,59,61,63,-1,-1,-1,-1,-1,65,67,69,-1,71,73,75,77,-1,79,-1,81,-1,-1,-1,-1,-1,-1,-1,-1,-1,-1,-1,-1,-1,-1,-1,-1,-1,-1,-1,-1,-1,-1,-1,-1,-1,-1,-1,-1,-1,-1],"loss_changes":[4.601551E3,2.1205386E3,1.5566748E3,5.879341E2,3.6183984E2,1.2085535E3,2.4010327E2,5.0513266E2,2.154527E2,2.7203613E1,2.4522038E1,1.9878792E3,8.9605615E2,7.354895E1,2.3878345E1,2.0240576E2,4.6484558E2,9.00739E1,2.5111206E1,0E0,0E0,0E0,2.6193504E0,4.4782504E2,4.1259668E2,4.0191907E2,6.0799E2,3.1827354E1,2.9142761E1,9.949875E-2,0E0,1.4139187E1,2.576648E1,1.7507913E2,1.07317474E2,5.712555E0,0E0,0E0,0E0,0E0,0E0,2.4369568E1,2.7599136E1,1.7445947E2,0E0,3.805265E2,2.6511902E1,4.4764966E2,1.1788743E2,0E0,5.7104015E0,0E0,1.4520752E1,0E0,0E0,0E0,0E0,0E0,0E0,0E0,0E0,0E0,0E0,0E0,0E0,0E0,0E0,0E0,0E0,0E0,0E0,0E0,0E0,0E0,0E0,0E0,0E0,0E0,0E0,0E0,0E0,0E0,0E0],"parents":[2147483647,0,0,1,1,2,2,3,3,4,4,5,5,6,6,7,7,8,8,9,9,10,10,11,11,12,12,13,13,14,14,15,15,16,16,17,17,18,18,22,22,23,23,24,24,25,25,26,26,27,27,28,28,29,29,31,31,32,32,33,33,34,34,35,35,41,41,42,42,43,43,45,45,46,46,47,47,48,48,50,50,52,52],"right_children":[2,4,6,8,10,12,14,16,18,20,22,24,26,28,30,32,34,36,38,-1,-1,-1,40,42,44,46,48,50,52,54,-1,56,58,60,62,64,-1,-1,-1,-1,-1,66,68,70,-1,72,74,76,78,-1,80,-1,82,-1,-1,-1,-1,-1,-1,-1,-1,-1,-1,-1,-1,-1,-1,-1,-1,-1,-1,-1,-1,-1,-1,-1,-1,-1,-1,-1,-1,-1,-1],"split_conditions":[-1.0545506E0,-1.2700353E0,4.5E0,7.6E-1,1.279108E0,1.3022274E0,-6.3335484E-1,1.478382E0,-1.0915084E0,1.51E0,7.4507946E-1,1.4071438E-2,1.0354264E0,-4.5409152E-1,3.73E0,-5.120331E-1,1.8384817E-1,-7.19993E-1,-1.0421124E0,-4.0232545E-1,-2.5170687E-1,-4.4726636E-2,8.463E1,-1.4431857E0,1.68E0,1.3881847E-1,4.03E0,2.6670066E-1,-4.935366E-1,8.2818E1,-5.8800794E-2,1.02E0,-7.211856E-1,1.2051584E0,1.95E0,1.298471E0,2.574179E-1,-1.04826465E-1,-3.6708224E-1,3.4779456E-2,1.8553911E-1,4.610816E-1,1.2988517E0,1.182E1,-1.4080785E-1,-4.6821058E-1,8.638E1,2E-1,6.25E1,-1.5214603E-1,-6.960651E-1,-4.391929E-2,-1.270337E0,1.7401184E-1,4.847584E-2,-2.5031567E-2,-1.8868889E-1,1.7164563E-1,3.0940413E-1,-1.3181394E-1,2.618433E-2,4.4812474E-1,5.0590683E-2,-1.3186824E-1,-2.3175431E-2,-2.9961368E-1,-9.98089E-2,3.8927558E-1,1.21404044E-1,8.102239E-1,6.3623786E-2,2.2464441E-1,-2.8523607E-2,-2.431484E-1,-8.483797E-2,2.3044236E-1,-2.417928E-2,-2.6791263E-1,-3.4403367E-4,4.2854976E-2,-4.845276E-2,-2.860524E-1,-1.0887223E-1],"split_indices":[664,766,4,6,90,319,545,706,134,4,26,387,490,698,5,142,146,23,789,0,0,0,0,275,3,443,5,227,459,0,0,9,608,159,5,27,0,0,0,0,0,55,27,6,0,515,0,12,0,0,129,0,115,0,0,0,0,0,0,0,0,0,0,0,0,0,0,0,0,0,0,0,0,0,0,0,0,0,0,0,0,0,0],"split_type":[0,0,0,0,0,0,0,0,0,0,0,0,0,0,0,0,0,0,0,0,0,0,0,0,0,0,0,0,0,0,0,0,0,0,0,0,0,0,0,0,0,0,0,0,0,0,0,0,0,0,0,0,0,0,0,0,0,0,0,0,0,0,0,0,0,0,0,0,0,0,0,0,0,0,0,0,0,0,0,0,0,0,0],"sum_hessian":[6.18E2,2.44E2,3.74E2,1.6E2,8.4E1,3.3E2,4.4E1,1.31E2,2.9E1,7.9E1,5E0,3.6E1,2.94E2,3.8E1,6E0,3.2E1,9.9E1,1E1,1.9E1,6.9E1,1E1,3E0,2E0,1.5E1,2.1E1,8.9E1,2.05E2,1.3E1,2.5E1,5E0,1E0,5E0,2.7E1,9.2E1,7E0,9E0,1E0,2E0,1.7E1,1E0,1E0,9E0,6E0,2E1,1E0,7E1,1.9E1,1.89E2,1.6E1,8E0,5E0,2E0,2.3E1,4E0,1E0,3E0,2E0,2E1,7E0,6.9E1,2.3E1,4E0,3E0,7E0,2E0,5E0,4E0,3E0,3E0,1.9E1,1E0,2E1,5E1,1.4E1,5E0,1.7E2,1.9E1,6E0,1E1,3E0,2E0,2E1,3E0],"tree_param":{"num_deleted":"0","num_feature":"791","num_nodes":"83","size_leaf_vector":"1"}},{"base_weights":[1.8981632E-2,-4.422681E0,1.5351313E0,-7.863548E-1,-6.943752E0,-5.9842986E-1,3.6806748E0,6.2491446E0,-1.7432107E0,-7.343946E0,-1.0351151E0,2.8286867E0,-1.7705313E0,3.1381333E0,1.5194267E1,7.695942E0,-9.6960925E-2,-3.3891332E0,7.29727E-1,-7.4914494E0,-1.2236325E-1,-1.502403E-1,1.2963706E-1,5.0875956E-1,7.0024233E0,-3.008293E0,7.141776E-1,6.286024E-1,4.193269E0,1.8895187E1,2.6039314E-1,3.5508513E-2,4.370938E-1,-5.5136003E0,-1.3099191E0,-6.519325E-1,3.0552098E-1,-7.574207E0,-1.3799235E-1,2.9497163E0,-2.5028965E0,2.007225E0,1.1361038E1,-4.1157584E0,1.2534772E-1,-1.3894626E-1,8.131076E0,-3.9947018E-1,5.288218E0,5.180735E0,2.6665616E-1,1.3003461E-1,1.0425723E0,6.5389775E-2,-4.586029E-2,-3.1895286E-1,-5.5305053E-2,1.2629108E-1,-1.0934921E-1,-7.915662E-2,4.2602167E-1,-3.80693E-1,-1.100502E-1,3.007371E-1,7.122051E-2,-2.4171166E-1,-7.7201887E-3,1.4586739E-1,-6.9610916E-2,2.8973952E-1,6.856962E-1,-2.1757343E-1,1.8887354E-1,-1.1742059E-1,1.8656002E-1,-1.3262066E-1,4.1566726E-2,4.9543086E-1,-1.891582E-2,-7.911082E-2,1.1686935E-1,3.0907473E-1,2.7394487E-2,2.1106635E-1,4.819851E-1,1.483142E-1,-1.309182E-1],"categories":[],"categories_nodes":[],"categories_segments":[],"categories_sizes":[],"default_left":[0,0,0,0,0,0,0,0,0,0,0,0,0,0,0,0,0,0,0,0,0,0,0,0,0,0,0,0,0,0,0,0,0,0,0,0,0,0,0,0,0,0,0,0,0,0,0,0,0,0,0,0,0,0,0,0,0,0,0,0,0,0,0,0,0,0,0,0,0,0,0,0,0,0,0,0,0,0,0,0,0,0,0,0,0,0,0],"id":7,"left_children":[1,3,5,7,9,11,13,15,17,19,21,23,25,27,29,31,-1,33,35,37,-1,-1,-1,39,41,43,45,47,49,51,53,-1,-1,55,57,59,-1,61,-1,63,65,67,69,71,73,75,77,79,81,83,85,-1,-1,-1,-1,-1,-1,-1,-1,-1,-1,-1,-1,-1,-1,-1,-1,-1,-1,-1,-1,-1,-1,-1,-1,-1,-1,-1,-1,-1,-1,-1,-1,-1,-1,-1,-1],"loss_changes":[4.128135E3,1.4246594E3,2.0941877E3,4.4847092E2,2.099414E2,9.2890173E2,1.3765442E3,1.0969937E2,2.3854843E2,4.3782715E1,5.7810974E1,5.677206E2,5.3113055E2,5.772534E2,5.477705E2,4.4938354E1,0E0,1.473804E2,1.8240642E2,1.159668E1,0E0,0E0,0E0,2.9408444E2,4.3441077E2,3.9961182E2,3.6812665E2,3.1828043E2,5.957378E2,2.007815E2,4.8997774E0,0E0,0E0,5.779065E1,6.9443634E1,1.8431511E2,0E0,5E-1,0E0,9.4284805E1,9.780587E1,3.8094597E1,6.459485E1,1.7458118E2,2.8528278E2,1.3145978E2,9.450342E1,1.8173369E2,4.74263E1,4.8549756E2,2.5699817E2,0E0,0E0,0E0,0E0,0E0,0E0,0E0,0E0,0E0,0E0,0E0,0E0,0E0,0E0,0E0,0E0,0E0,0E0,0E0,0E0,0E0,0E0,0E0,0E0,0E0,0E0,0E0,0E0,0E0,0E0,0E0,0E0,0E0,0E0,0E0,0E0],"parents":[2147483647,0,0,1,1,2,2,3,3,4,4,5,5,6,6,7,7,8,8,9,9,10,10,11,11,12,12,13,13,14,14,15,15,17,17,18,18,19,19,23,23,24,24,25,25,26,26,27,27,28,28,29,29,30,30,33,33,34,34,35,35,37,37,39,39,40,40,41,41,42,42,43,43,44,44,45,45,46,46,47,47,48,48,49,49,50,50],"right_children":[2,4,6,8,10,12,14,16,18,20,22,24,26,28,30,32,-1,34,36,38,-1,-1,-1,40,42,44,46,48,50,52,54,-1,-1,56,58,60,-1,62,-1,64,66,68,70,72,74,76,78,80,82,84,86,-1,-1,-1,-1,-1,-1,-1,-1,-1,-1,-1,-1,-1,-1,-1,-1,-1,-1,-1,-1,-1,-1,-1,-1,-1,-1,-1,-1,-1,-1,-1,-1,-1,-1,-1,-1],"split_conditions":[6.529669E-1,-1.2715316E0,8.654E1,1.840703E-1,6.9374853E-1,-1.2724686E0,-1.1473888E0,9.03E1,1.129707E0,1E-2,8.8E-2,-5.216875E-1,1.3E0,-9.9633926E-1,1.2979051E0,8.16E1,-9.6960925E-2,8.638E1,1.5932673E0,5E-3,-1.2236325E-1,-1.502403E-1,1.2963706E-1,-4.3865773E-3,-9.4800764E-1,-1.5315382E0,-7.1715015E-1,4.932962E-3,1.4889866E0,8.6629E1,8.795E1,3.5508513E-2,4.370938E-1,3.0237186E-1,2.6255697E-1,9.8E1,3.0552098E-1,5.02E0,-1.3799235E-1,-3.8371244E-3,8.98717E-1,7.522061E-1,-8.65991E-1,9.8E0,-4.9443772E-1,1.0982391E0,8.5529315E-1,-2.0959362E-1,1.1239309E0,3.9E0,-1.223048E0,1.3003461E-1,1.0425723E0,6.5389775E-2,-4.586029E-2,-3.1895286E-1,-5.5305053E-2,1.2629108E-1,-1.0934921E-1,-7.915662E-2,4.2602167E-1,-3.80693E-1,-1.100502E-1,3.007371E-1,7.122051E-2,-2.4171166E-1,-7.7201887E-3,1.4586739E-1,-6.9610916E-2,2.8973952E-1,6.856962E-1,-2.1757343E-1,1.8887354E-1,-1.1742059E-1,1.8656002E-1,-1.3262066E-1,4.1566726E-2,4.9543086E-1,-1.891582E-2,-7.911082E-2,1.1686935E-1,3.0907473E-1,2.7394487E-2,2.1106635E-1,4.819851E-1,1.483142E-1,-1.309182E-1],"split_indices":[145,766,0,44,536,175,633,0,344,18,12,435,3,158,27,0,0,0,607,13,0,0,0,234,584,339,464,60,166,0,0,0,0,30,81,0,0,1,0,320,751,26,141,4,658,365,25,171,36,4,663,0,0,0,0,0,0,0,0,0,0,0,0,0,0,0,0,0,0,0,0,0,0,0,0,0,0,0,0,0,0,0,0,0,0,0,0],"split_type":[0,0,0,0,0,0,0,0,0,0,0,0,0,0,0,0,0,0,0,0,0,0,0,0,0,0,0,0,0,0,0,0,0,0,0,0,0,0,0,0,0,0,0,0,0,0,0,0,0,0,0,0,0,0,0,0,0,0,0,0,0,0,0,0,0,0,0,0,0,0,0,0,0,0,0,0,0,0,0,0,0,0,0,0,0,0,0],"sum_hessian":[6.11E2,1.55E2,4.56E2,6.4E1,9.1E1,2.29E2,2.27E2,7E0,5.7E1,8.5E1,6E0,5.8E1,1.71E2,2.18E2,9E0,6E0,1E0,3.4E1,2.3E1,8.2E1,3E0,4E0,2E0,3.8E1,2E1,1.14E2,5.7E1,6.5E1,1.53E2,7E0,2E0,1E0,5E0,1.6E1,1.8E1,1.9E1,4E0,8E1,2E0,2.1E1,1.7E1,1E1,1E1,8.4E1,3E1,5.2E1,5E0,5.4E1,1.1E1,1.22E2,3.1E1,1E0,6E0,1E0,1E0,1.3E1,3E0,3E0,1.5E1,1.8E1,1E0,7.9E1,1E0,6E0,1.5E1,8E0,9E0,8E0,2E0,4E0,6E0,8.2E1,2E0,1.8E1,1.2E1,1.4E1,3.8E1,4E0,1E0,3.8E1,1.6E1,9E0,2E0,1.02E2,2E1,1.6E1,1.5E1],"tree_param":{"num_deleted":"0","num_feature":"791","num_nodes":"87","size_leaf_vector":"1"}},{"base_weights":[1.0689259E-1,-4.2755075E0,1.6522325E0,1.4392264E-1,-5.982515E0,-3.57102E-1,3.6275837E0,7.6620755E0,-9.873984E-1,-7.0122485E0,-2.0361733E0,9.9485475E-1,-3.2062733E0,1.5396263E1,3.0114586E0,3.462081E-2,4.458762E-1,1.6672708E0,-3.2351854E0,-7.1457515E0,-1.1777463E-1,9.419801E-1,-3.7702587E0,3.5444376E0,-7.531561E-1,-5.3148837E0,-1.1797563E0,2.265384E0,1.8062527E1,6.43633E-1,4.0264587E0,2.639483E0,-2.1988447E-1,-2.9537812E-1,-2.1016886E0,-3.594235E-1,-8.679926E-2,-1.24482565E-1,2.1110945E0,-4.15855E0,-1.5657482E0,2.3328602E0,1.1430977E1,-2.1747959E0,3.8044777E0,-6.5488863E0,-3.4402006E0,1.7532401E-1,-1.6816188E0,-4.4713784E-2,2.146176E-1,1.2678376E-1,9.8432124E-1,-9.944593E-1,3.7493908E0,5.042883E0,8.904144E-2,3.6914444E-1,2.3911695E-3,-1.2418916E-1,1.0029566E-1,1.21192135E-1,-1.9536018E-3,-2.2028828E-1,-2.979895E-2,8.174863E-2,-1.588823E-1,1.14169065E-2,2.177033E-1,6.093711E-1,1.533964E-1,2.0650769E-2,-1.8108235E-1,5.45878E-2,4.2076355E-1,-1.3798536E-1,-3.4082946E-1,-7.470732E-2,-1.9821866E-1,-1.2953776E-1,2.6873743E-2,9.3610644E-2,-1.0033752E-1,3.5340033E-2,2.827428E-1,4.3017253E-1,2.0076643E-1,-2.844593E-2,5.1214504E-1],"categories":[],"categories_nodes":[],"categories_segments":[],"categories_sizes":[],"default_left":[0,0,0,0,0,0,0,0,0,0,0,0,0,0,0,0,0,0,0,0,0,0,0,0,0,0,0,0,0,0,0,0,0,0,0,0,0,0,0,0,0,0,0,0,0,0,0,0,0,0,0,0,0,0,0,0,0,0,0,0,0,0,0,0,0,0,0,0,0,0,0,0,0,0,0,0,0,0,0,0,0,0,0,0,0,0,0,0,0],"id":8,"left_children":[1,3,5,7,9,11,13,15,17,19,21,23,25,27,29,-1,-1,31,33,35,-1,37,39,41,43,45,47,49,51,53,55,57,-1,-1,59,-1,-1,-1,61,63,65,67,69,71,73,75,77,-1,79,-1,-1,-1,-1,81,83,85,87,-1,-1,-1,-1,-1,-1,-1,-1,-1,-1,-1,-1,-1,-1,-1,-1,-1,-1,-1,-1,-1,-1,-1,-1,-1,-1,-1,-1,-1,-1,-1,-1],"loss_changes":[4.104304E3,1.1928132E3,1.7794708E3,3.9031052E2,4.4898096E2,8.62176E2,1.5923562E3,4.6325684E1,2.4407916E2,3.9120605E1,1.326608E2,6.800877E2,3.0139545E2,3.4419604E2,5.165305E2,0E0,0E0,1.2363976E2,5.422502E1,7.626465E0,0E0,4.537558E1,7.1846313E0,5.657525E2,5.978915E2,5.8438354E1,9.526674E1,2.3052132E1,1.7700757E2,3.395048E2,6.038657E2,2.086329E2,0E0,0E0,3.1663635E1,0E0,0E0,0E0,5.474392E0,8.823685E0,2.5832302E1,2.3295776E2,1.3219482E1,2.6358826E2,2.659842E2,1.475708E0,1.0397736E1,0E0,7.200354E1,0E0,0E0,0E0,0E0,1.3144095E2,1.2934674E2,4.0449585E2,2.1961404E2,0E0,0E0,0E0,0E0,0E0,0E0,0E0,0E0,0E0,0E0,0E0,0E0,0E0,0E0,0E0,0E0,0E0,0E0,0E0,0E0,0E0,0E0,0E0,0E0,0E0,0E0,0E0,0E0,0E0,0E0,0E0,0E0],"parents":[2147483647,0,0,1,1,2,2,3,3,4,4,5,5,6,6,7,7,8,8,9,9,10,10,11,11,12,12,13,13,14,14,17,17,18,18,19,19,21,21,22,22,23,23,24,24,25,25,26,26,27,27,28,28,29,29,30,30,31,31,34,34,38,38,39,39,40,40,41,41,42,42,43,43,44,44,45,45,46,46,48,48,53,53,54,54,55,55,56,56],"right_children":[2,4,6,8,10,12,14,16,18,20,22,24,26,28,30,-1,-1,32,34,36,-1,38,40,42,44,46,48,50,52,54,56,58,-1,-1,60,-1,-1,-1,62,64,66,68,70,72,74,76,78,-1,80,-1,-1,-1,-1,82,84,86,88,-1,-1,-1,-1,-1,-1,-1,-1,-1,-1,-1,-1,-1,-1,-1,-1,-1,-1,-1,-1,-1,-1,-1,-1,-1,-1,-1,-1,-1,-1,-1,-1],"split_conditions":[6.529669E-1,8.581459E-1,8.654E1,1.848542E-1,-9.298541E-1,2.18E0,9.489269E-1,8.16E1,4E0,1E-2,-5.3482825E-1,1.4785072E0,9.851268E-1,1.2127712E0,-9.962575E-1,3.462081E-2,4.458762E-1,1.6E-2,4.3826815E-1,5E-3,-1.1777463E-1,6.4603E1,2E-2,-7.1365356E-1,-5.618741E-1,-4.2931223E-1,2.4195138E-1,8.816E1,8.6629E1,1.5103673E0,1.4885154E0,-8.840275E-1,-2.1988447E-1,-2.9537812E-1,8E-3,-3.594235E-1,-8.679926E-2,-1.24482565E-1,1.2E1,3.2E-1,8.674E1,-4.9081776E-1,7.25E1,-3.2403454E-1,-1.2953043E0,3.1338128E-1,-1.2965641E0,1.7532401E-1,8.388E1,-4.4713784E-2,2.146176E-1,1.2678376E-1,9.8432124E-1,-2.8532377E-1,-7.838687E-1,-3.6159503E-1,9.698E1,3.6914444E-1,2.3911695E-3,-1.2418916E-1,1.0029566E-1,1.21192135E-1,-1.9536018E-3,-2.2028828E-1,-2.979895E-2,8.174863E-2,-1.588823E-1,1.14169065E-2,2.177033E-1,6.093711E-1,1.533964E-1,2.0650769E-2,-1.8108235E-1,5.45878E-2,4.2076355E-1,-1.3798536E-1,-3.4082946E-1,-7.470732E-2,-1.9821866E-1,-1.2953776E-1,2.6873743E-2,9.3610644E-2,-1.0033752E-1,3.5340033E-2,2.827428E-1,4.3017253E-1,2.0076643E-1,-2.844593E-2,5.1214504E-1],"split_indices":[145,600,0,44,241,6,346,0,2,18,313,706,235,31,158,0,0,13,644,13,0,0,14,363,589,779,222,0,0,394,166,65,0,0,15,0,0,0,1,12,0,601,0,156,100,270,249,0,0,0,0,0,0,705,695,477,0,0,0,0,0,0,0,0,0,0,0,0,0,0,0,0,0,0,0,0,0,0,0,0,0,0,0,0,0,0,0,0,0],"split_type":[0,0,0,0,0,0,0,0,0,0,0,0,0,0,0,0,0,0,0,0,0,0,0,0,0,0,0,0,0,0,0,0,0,0,0,0,0,0,0,0,0,0,0,0,0,0,0,0,0,0,0,0,0,0,0,0,0,0,0,0,0,0,0,0,0,0,0,0,0,0,0,0,0,0,0,0,0,0,0,0,0,0,0,0,0,0,0,0,0],"sum_hessian":[6.04E2,1.57E2,4.47E2,4.4E1,1.13E2,2.22E2,2.25E2,5E0,3.9E1,8.9E1,2.4E1,1.51E2,7.1E1,1E1,2.15E2,1E0,4E0,1.8E1,2.1E1,8.6E1,3E0,9E0,1.5E1,6.1E1,9E1,3.4E1,3.7E1,2E0,8E0,6.5E1,1.5E2,1.6E1,2E0,5E0,1.6E1,8.5E1,1E0,2E0,7E0,1.2E1,3E0,5.4E1,7E0,6.9E1,2.1E1,1.9E1,1.5E1,3E0,3.4E1,1E0,1E0,1E0,7E0,4.3E1,2.2E1,1.19E2,3.1E1,5E0,1.1E1,1.5E1,1E0,6E0,1E0,1.1E1,1E0,1E0,2E0,2.7E1,2.7E1,6E0,1E0,2.5E1,4.4E1,1.4E1,7E0,2E0,1.7E1,4E0,1.1E1,2.4E1,1E1,1.1E1,3.2E1,9E0,1.3E1,2.5E1,9.4E1,3E1,1E0],"tree_param":{"num_deleted":"0","num_feature":"791","num_nodes":"89","size_leaf_vector":"1"}},{"base_weights":[7.25238E-2,-2.8103693E0,1.97567E0,-7.2048086E-1,-6.324558E0,1.5681294E-1,4.270997E0,5.9174293E-1,-2.613701E0,-6.660901E0,6.5819186E-1,1.6602575E0,-2.6617072E0,8.669335E-1,3.6492782E0,2.5421844E0,-1.0921403E0,-4.4566268E-1,-4.167127E0,-6.7939997E0,-1.1335807E-1,-4.4318177E-2,1.7091034E-1,1.140386E0,6.23707E-1,-3.2756686E0,3.4196067E0,4.910637E0,5.3077824E-2,1.3251946E0,8.4378195E0,-2.6441996E0,1.2905556E0,2.4921422E0,-1.8137985E0,1.3658458E0,-4.711514E0,-3.418042E-1,-8.462926E-2,1.5820903E-1,4.2085457E0,-9.330977E-1,-4.021547E0,1.861301E-1,4.004085E-2,4.12013E0,1.1938099E1,2.0160425E0,-4.329926E0,-6.8170354E-2,1.2058554E-1,4.635633E-1,8.592844E-2,-6.814103E-2,-2.0056443E-1,1.2588228E-1,-1.447122E-1,-4.7842853E-2,1.8071322E-1,-1.4619018E-1,3.8966865E-3,1.372872E-1,-6.934623E-2,-3.4005356E-1,-1.6787979E-1,8.809957E-2,-1.1056626E-1,3.9565465E-1,1.033831E-1,-1.427547E-1,5.2829287E-3,-2.193368E-1,3.4732819E-3,-4.4526663E-2,2.487315E-1,7.2678095E-1,2.956976E-1,2.9885635E-1,1.1121641E-2,-2.4214439E-1,4.564035E-2],"categories":[],"categories_nodes":[],"categories_segments":[],"categories_sizes":[],"default_left":[0,0,0,0,0,0,0,0,0,0,0,0,0,0,0,0,0,0,0,0,0,0,0,0,0,0,0,0,0,0,0,0,0,0,0,0,0,0,0,0,0,0,0,0,0,0,0,0,0,0,0,0,0,0,0,0,0,0,0,0,0,0,0,0,0,0,0,0,0,0,0,0,0,0,0,0,0,0,0,0,0],"id":9,"left_children":[1,3,5,7,9,11,13,15,17,19,21,23,25,-1,27,29,31,33,35,37,-1,-1,-1,39,-1,41,43,45,47,49,51,53,55,57,59,61,63,-1,-1,65,67,69,71,-1,-1,73,75,77,79,-1,-1,-1,-1,-1,-1,-1,-1,-1,-1,-1,-1,-1,-1,-1,-1,-1,-1,-1,-1,-1,-1,-1,-1,-1,-1,-1,-1,-1,-1,-1,-1],"loss_changes":[3.2974927E3,1.750722E3,1.5106339E3,3.7668027E2,2.1340942E2,8.6462933E2,1.2366333E3,2.9836484E2,2.069519E2,3.430493E1,2.4344753E1,7.334778E2,2.762936E2,0E0,6.982986E2,2.9016513E2,1.8461867E2,1.1304179E2,1.14869995E2,6.0339355E0,0E0,0E0,0E0,3.8505908E2,0E0,1.0982025E2,2.5732498E0,5.841128E2,3.6148026E2,1.0845168E2,2.326767E1,4.7086105E1,1.0998919E2,3.8290123E1,4.012468E1,1.9002312E1,7.052472E1,0E0,0E0,3.7631763E2,2.2949951E2,3.4241924E1,7.3510376E1,0E0,0E0,4.497174E2,8.616333E1,2.0470502E2,3.938182E1,0E0,0E0,0E0,0E0,0E0,0E0,0E0,0E0,0E0,0E0,0E0,0E0,0E0,0E0,0E0,0E0,0E0,0E0,0E0,0E0,0E0,0E0,0E0,0E0,0E0,0E0,0E0,0E0,0E0,0E0,0E0,0E0],"parents":[2147483647,0,0,1,1,2,2,3,3,4,4,5,5,6,6,7,7,8,8,9,9,10,10,11,11,12,12,14,14,15,15,16,16,17,17,18,18,19,19,23,23,25,25,26,26,27,27,28,28,29,29,30,30,31,31,32,32,33,33,34,34,35,35,36,36,39,39,40,40,41,41,42,42,45,45,46,46,47,47,48,48],"right_children":[2,4,6,8,10,12,14,16,18,20,22,24,26,-1,28,30,32,34,36,38,-1,-1,-1,40,-1,42,44,46,48,50,52,54,56,58,60,62,64,-1,-1,66,68,70,72,-1,-1,74,76,78,80,-1,-1,-1,-1,-1,-1,-1,-1,-1,-1,-1,-1,-1,-1,-1,-1,-1,-1,-1,-1,-1,-1,-1,-1,-1,-1,-1,-1,-1,-1,-1,-1],"split_conditions":[-1.0547369E0,-1.2700353E0,8.674E1,-2.526704E-3,-1.1420013E0,2E0,5.533272E-1,9.615372E-1,1.4553581E0,1E-2,8.9342E1,4.7923478E-1,-6.324209E-1,8.669335E-1,1.85E-1,-8.823919E-1,1.4322526E0,1.1327648E0,2.8385296E-1,5E-3,-1.1335807E-1,-4.4318177E-2,1.7091034E-1,1.3602291E0,6.23707E-1,-1.8635455E-1,8.2818E1,-9.507669E-1,-5.6118125E-1,6.08E0,3.050862E-1,-6.2850213E-1,1.6E-2,1E0,-9.316568E-1,2E-2,8.899292E-1,-3.418042E-1,-8.462926E-2,-1.295492E0,5.280652E-1,1.0291451E0,-8.8030326E-1,1.861301E-1,4.004085E-2,1.3725144E0,1.2425733E0,-1.3626363E0,9.663E1,-6.8170354E-2,1.2058554E-1,4.635633E-1,8.592844E-2,-6.814103E-2,-2.0056443E-1,1.2588228E-1,-1.447122E-1,-4.7842853E-2,1.8071322E-1,-1.4619018E-1,3.8966865E-3,1.372872E-1,-6.934623E-2,-3.4005356E-1,-1.6787979E-1,8.809957E-2,-1.1056626E-1,3.9565465E-1,1.033831E-1,-1.427547E-1,5.2829287E-3,-2.193368E-1,3.4732819E-3,-4.4526663E-2,2.487315E-1,7.2678095E-1,2.956976E-1,2.9885635E-1,1.1121641E-2,-2.4214439E-1,4.564035E-2],"split_indices":[664,766,0,320,56,4,427,346,652,18,0,762,545,0,9,178,63,149,190,13,0,0,0,382,0,278,0,152,256,2,30,735,13,2,456,9,174,0,0,665,103,303,65,0,0,397,58,597,0,0,0,0,0,0,0,0,0,0,0,0,0,0,0,0,0,0,0,0,0,0,0,0,0,0,0,0,0,0,0,0,0],"split_type":[0,0,0,0,0,0,0,0,0,0,0,0,0,0,0,0,0,0,0,0,0,0,0,0,0,0,0,0,0,0,0,0,0,0,0,0,0,0,0,0,0,0,0,0,0,0,0,0,0,0,0,0,0,0,0,0,0,0,0,0,0,0,0,0,0,0,0,0,0,0,0,0,0,0,0,0,0,0,0,0,0],"sum_hessian":[5.99E2,2.38E2,3.61E2,1.5E2,8.8E1,2.02E2,1.59E2,8.9E1,6.1E1,8.4E1,4E0,1.32E2,7E1,6E0,1.53E2,4.1E1,4.8E1,2.6E1,3.5E1,8.1E1,3E0,3E0,1E0,1.27E2,5E0,6.4E1,6E0,1.13E2,4E1,3.5E1,6E0,2.9E1,1.9E1,8E0,1.8E1,3E0,3.2E1,8E1,1E0,9.7E1,3E1,1.6E1,4.8E1,5E0,1E0,1.03E2,1E1,2.8E1,1.2E1,1E1,2.5E1,5E0,1E0,1.6E1,1.3E1,1.5E1,4E0,2E0,6E0,1.1E1,7E0,2E0,1E0,1.1E1,2.1E1,5.8E1,3.9E1,1E1,2E1,5E0,1.1E1,4.4E1,4E0,1.5E1,8.8E1,6E0,4E0,8E0,2E1,1.1E1,1E0],"tree_param":{"num_deleted":"0","num_feature":"791","num_nodes":"81","size_leaf_vector":"1"}},{"base_weights":[6.366367E-2,-3.7320566E0,1.4323335E0,-3.2863298E-1,-5.9289303E0,-3.8965207E-1,3.1465158E0,5.7808447E0,-1.1656535E0,-7.535635E-1,-6.3145175E0,-1.2891362E0,3.952328E0,2.6247282E0,1.343853E1,7.2008524E0,-1.0398028E-1,4.1632986E-1,-3.1287224E0,-2.186176E0,1.1814248E-1,-6.429292E0,-1.0910713E-1,-1.6156206E0,5.2024093E0,9.559175E0,2.8336862E-1,1.6090052E-1,3.681879E0,1.6361889E1,1.8893974E-1,3.0608226E-2,4.09847E-1,-1.0127769E0,5.0088854E0,-4.1359854E0,-7.6656044E-1,-1.3083762E-1,-8.3236693E-4,-3.244383E-1,-1.280728E-1,-2.7157667E0,4.3328688E-1,7.028239E-1,3.6675325E-1,1.1483783E1,1.7066012E-1,-2.8461328E0,2.722022E0,-1.0503631E0,3.1204512E0,1.5361695E0,5.080792E0,1.2141168E-1,8.900034E-1,5.665324E-2,-4.248276E-2,2.4333596E-3,-2.7402875E-1,2.8627953E-1,-2.0124913E-4,-2.3692326E-1,2.279501E-2,-6.134201E-2,7.289193E-2,-1.5988062E-1,1.6305284E-1,-2.3375073E-1,5.3204365E-2,-2.4017572E-2,6.286664E-2,6.420226E-1,1.792923E-1,-2.0091799E-1,-5.997753E-2,2.5505638E-2,1.5240821E-1,-9.070595E-2,7.278638E-2,-1.0051762E-1,2.0720716E-1,1.0321411E-1,-3.3847815E-1,4.0832075E-1,1.8904504E-1],"categories":[],"categories_nodes":[],"categories_segments":[],"categories_sizes":[],"default_left":[0,0,0,0,0,0,0,0,0,0,0,0,0,0,0,0,0,0,0,0,0,0,0,0,0,0,0,0,0,0,0,0,0,0,0,0,0,0,0,0,0,0,0,0,0,0,0,0,0,0,0,0,0,0,0,0,0,0,0,0,0,0,0,0,0,0,0,0,0,0,0,0,0,0,0,0,0,0,0,0,0,0,0,0,0],"id":10,"left_children":[1,3,5,7,9,11,13,15,17,19,21,23,25,27,29,31,-1,33,35,37,-1,39,-1,41,43,45,47,49,51,53,55,-1,-1,57,59,61,63,-1,-1,-1,-1,65,67,69,-1,71,-1,73,75,77,79,81,83,-1,-1,-1,-1,-1,-1,-1,-1,-1,-1,-1,-1,-1,-1,-1,-1,-1,-1,-1,-1,-1,-1,-1,-1,-1,-1,-1,-1,-1,-1,-1,-1],"loss_changes":[3.1951296E3,1.2167852E3,1.4129196E3,3.391327E2,1.9280151E2,8.6431433E2,1.2159951E3,1.0427011E2,1.8142404E2,4.0882507E1,2.9605225E1,3.962532E2,7.790003E2,5.8024194E2,4.2297522E2,4.0922485E1,0E0,2.2166019E2,5.8691833E1,5.561323E0,0E0,3.852539E0,0E0,3.9564374E2,8.1209335E1,1.3823242E2,1.9090971E2,2.4704372E2,4.604541E2,1.371289E2,3.9044046E0,0E0,0E0,1.23567E2,2.8765274E1,5.195755E1,1.1003145E1,0E0,0E0,0E0,0E0,3.38737E2,2.0475839E2,3.2282865E0,0E0,7.1819824E1,0E0,1.6411613E1,8.544655E0,9.6428894E1,1.1337846E2,2.9031512E2,3.4615527E2,0E0,0E0,0E0,0E0,0E0,0E0,0E0,0E0,0E0,0E0,0E0,0E0,0E0,0E0,0E0,0E0,0E0,0E0,0E0,0E0,0E0,0E0,0E0,0E0,0E0,0E0,0E0,0E0,0E0,0E0,0E0,0E0],"parents":[2147483647,0,0,1,1,2,2,3,3,4,4,5,5,6,6,7,7,8,8,9,9,10,10,11,11,12,12,13,13,14,14,15,15,17,17,18,18,19,19,21,21,23,23,24,24,25,25,26,26,27,27,28,28,29,29,30,30,33,33,34,34,35,35,36,36,41,41,42,42,43,43,45,45,47,47,48,48,49,49,50,50,51,51,52,52],"right_children":[2,4,6,8,10,12,14,16,18,20,22,24,26,28,30,32,-1,34,36,38,-1,40,-1,42,44,46,48,50,52,54,56,-1,-1,58,60,62,64,-1,-1,-1,-1,66,68,70,-1,72,-1,74,76,78,80,82,84,-1,-1,-1,-1,-1,-1,-1,-1,-1,-1,-1,-1,-1,-1,-1,-1,-1,-1,-1,-1,-1,-1,-1,-1,-1,-1,-1,-1,-1,-1,-1,-1],"split_conditions":[6.529669E-1,-1.2715316E0,8.654E1,1.848542E-1,-1.1558764E0,2.42E1,-1.1473888E0,9.03E1,1.2412302E0,8.8E-2,1E-2,1.2675896E0,1.3242345E0,-9.962575E-1,1.2979051E0,8.16E1,-1.0398028E-1,-2.0703377E-1,-2.932676E-1,8.436804E-1,1.1814248E-1,5E-3,-1.0910713E-1,1.5E0,-1.3990186E0,8.5288703E-1,-4.9156967E-1,1.5103673E0,-1.2228233E0,8.6629E1,8.795E1,3.0608226E-2,4.09847E-1,3.62E0,1.3E-1,2E-2,9.22E1,-1.3083762E-1,-8.3236693E-4,-3.244383E-1,-1.280728E-1,1.1132834E0,7.7622026E-1,8.044E1,3.6675325E-1,2E-2,1.7066012E-1,-1.6755937E-1,-1.0678515E0,6.4775324E-1,9.38576E-1,2.3181865E-2,1.5422314E0,1.2141168E-1,8.900034E-1,5.665324E-2,-4.248276E-2,2.4333596E-3,-2.7402875E-1,2.8627953E-1,-2.0124913E-4,-2.3692326E-1,2.279501E-2,-6.134201E-2,7.289193E-2,-1.5988062E-1,1.6305284E-1,-2.3375073E-1,5.3204365E-2,-2.4017572E-2,6.286664E-2,6.420226E-1,1.792923E-1,-2.0091799E-1,-5.997753E-2,2.5505638E-2,1.5240821E-1,-9.070595E-2,7.278638E-2,-1.0051762E-1,2.0720716E-1,1.0321411E-1,-3.3847815E-1,4.0832075E-1,1.8904504E-1],"split_indices":[145,766,0,44,730,7,633,0,58,12,18,395,472,158,27,0,0,309,407,25,0,13,0,3,154,25,658,394,520,0,0,0,0,2,12,14,0,0,0,0,0,483,638,0,0,9,0,226,48,743,147,387,680,0,0,0,0,0,0,0,0,0,0,0,0,0,0,0,0,0,0,0,0,0,0,0,0,0,0,0,0,0,0,0,0],"split_type":[0,0,0,0,0,0,0,0,0,0,0,0,0,0,0,0,0,0,0,0,0,0,0,0,0,0,0,0,0,0,0,0,0,0,0,0,0,0,0,0,0,0,0,0,0,0,0,0,0,0,0,0,0,0,0,0,0,0,0,0,0,0,0,0,0,0,0,0,0,0,0,0,0,0,0,0,0,0,0,0,0,0,0,0,0],"sum_hessian":[6.13E2,1.62E2,4.51E2,6.4E1,9.8E1,2.19E2,2.32E2,7E0,5.7E1,7E0,9.1E1,1.82E2,3.7E1,2.22E2,1E1,6E0,1E0,3.2E1,2.5E1,5E0,2E0,8.8E1,3E0,1.74E2,8E0,1.4E1,2.3E1,6.7E1,1.55E2,8E0,2E0,1E0,5E0,2.5E1,7E0,1.7E1,8E0,4E0,1E0,8.6E1,2E0,1.13E2,6.1E1,3E0,5E0,1E1,4E0,1E1,1.3E1,4.8E1,1.9E1,6.2E1,9.3E1,1E0,7E0,1E0,1E0,2.1E1,4E0,6E0,1E0,1.5E1,2E0,7E0,1E0,1.05E2,8E0,6E0,5.5E1,1E0,2E0,8E0,2E0,5E0,5E0,2E0,1.1E1,3.7E1,1.1E1,3E0,1.6E1,5.9E1,3E0,2.6E1,6.7E1],"tree_param":{"num_deleted":"0","num_feature":"791","num_nodes":"85","size_leaf_vector":"1"}},{"base_weights":[1.679816E-2,-4.0436473E0,1.0767528E0,-5.7920074E0,-8.455935E-1,1.7913222E0,-2.9477305E0,-5.9824433E0,-1.2231101E-1,4.620964E0,-1.6444373E0,-2.8052692E0,2.4783337E0,-3.4284165E0,4.179145E0,-3.113966E-1,-3.4902022E0,2.908991E-1,7.423099E-2,-2.176021E0,1.7305409E0,-5.7285137E0,-5.459182E-1,3.8691087E0,7.262939E-1,2.4720397E0,-3.8358207E0,2.9590395E-1,1.1324459E-1,-4.166944E-2,-1.8590651E-1,-2.586199E0,1.6494082E0,5.7129965E0,-2.0781234E-1,-1.2079874E0,-3.0507585E-1,1.1969322E-1,-1.2033327E0,2.6648796E0,7.2406454E0,3.6676311E0,-1.16576746E-1,6.323745E-2,1.8253008E-1,-5.0083613E0,-2.0435112E0,-1.6200122E-1,1.0587597E-2,1.4441815E-1,-5.1686395E-2,4.029346E-1,1.1224337E-1,-6.7494633E-3,-8.38496E-2,-2.1520313E-3,-1.27671E-1,1.5872139E-1,-9.9840224E-2,2.6622415E-1,6.21608E-1,9.5367104E-2,3.6674336E-1,-6.657597E-2,7.048717E-2,-1.7879513E-1,-3.283761E-1,-1.9542234E-1,-7.2100274E-2],"categories":[],"categories_nodes":[],"categories_segments":[],"categories_sizes":[],"default_left":[0,0,0,0,0,0,0,0,0,0,0,0,0,0,0,0,0,0,0,0,0,0,0,0,0,0,0,0,0,0,0,0,0,0,0,0,0,0,0,0,0,0,0,0,0,0,0,0,0,0,0,0,0,0,0,0,0,0,0,0,0,0,0,0,0,0,0,0,0],"id":11,"left_children":[1,3,5,7,9,11,13,15,-1,17,19,21,23,25,27,-1,29,-1,-1,31,33,35,37,39,41,43,45,-1,-1,-1,-1,47,49,51,-1,53,-1,-1,55,57,59,61,63,-1,-1,65,67,-1,-1,-1,-1,-1,-1,-1,-1,-1,-1,-1,-1,-1,-1,-1,-1,-1,-1,-1,-1,-1,-1],"loss_changes":[2.5780793E3,6.8842957E2,1.3712725E3,3.6338623E1,2.0411057E2,1.2827487E3,2.6098474E2,2.414917E1,0E0,1.3888062E1,7.552903E1,3.4691837E2,8.5490576E2,1.729455E2,3.2399826E0,0E0,2.3514175E0,0E0,0E0,5.9184433E1,1.6440785E2,3.1411377E1,6.2792942E1,7.764846E2,3.8965677E2,2.4972382E0,1.2426483E2,0E0,0E0,0E0,0E0,5.9225967E1,1.6282917E1,1.4450012E1,0E0,1.2833467E0,0E0,0E0,4.0618984E1,3.5314026E2,4.4114233E2,2.119487E2,2.2996721E2,0E0,0E0,6.138568E1,2.4651772E1,0E0,0E0,0E0,0E0,0E0,0E0,0E0,0E0,0E0,0E0,0E0,0E0,0E0,0E0,0E0,0E0,0E0,0E0,0E0,0E0,0E0,0E0],"parents":[2147483647,0,0,1,1,2,2,3,3,4,4,5,5,6,6,7,7,9,9,10,10,11,11,12,12,13,13,14,14,16,16,19,19,20,20,21,21,22,22,23,23,24,24,25,25,26,26,31,31,32,32,33,33,35,35,38,38,39,39,40,40,41,41,42,42,45,45,46,46],"right_children":[2,4,6,8,10,12,14,16,-1,18,20,22,24,26,28,-1,30,-1,-1,32,34,36,38,40,42,44,46,-1,-1,-1,-1,48,50,52,-1,54,-1,-1,56,58,60,62,64,-1,-1,66,68,-1,-1,-1,-1,-1,-1,-1,-1,-1,-1,-1,-1,-1,-1,-1,-1,-1,-1,-1,-1,-1,-1],"split_conditions":[1.1976218E0,6.1774504E-1,4.5E0,7.6E-1,4.332325E-1,1.129174E0,-2.67133E-1,-1.3539359E-1,-1.2231101E-1,3.94E0,3.028156E-1,1.4276509E0,2.6545855E-1,8.7070245E-1,-7.3195815E-1,-3.113966E-1,4.1571108E-1,2.908991E-1,7.423099E-2,6E0,1.6E-2,2.4041848E-1,3.8311118E-1,-3.5932675E-1,-1.2411525E0,5.03E0,-1.1433562E0,2.9590395E-1,1.1324459E-1,-4.166944E-2,-1.8590651E-1,3.82E0,5.3E0,1.3E-1,-2.0781234E-1,5.02E0,-3.0507585E-1,1.1969322E-1,1.3142631E0,5.6297106E-1,-1.0491737E0,-5.491514E-1,-1.571793E-1,6.323745E-2,1.8253008E-1,-3.4911636E-1,-6.949844E-1,-1.6200122E-1,1.0587597E-2,1.4441815E-1,-5.1686395E-2,4.029346E-1,1.1224337E-1,-6.7494633E-3,-8.38496E-2,-2.1520313E-3,-1.27671E-1,1.5872139E-1,-9.9840224E-2,2.6622415E-1,6.21608E-1,9.5367104E-2,3.6674336E-1,-6.657597E-2,7.048717E-2,-1.7879513E-1,-3.283761E-1,-1.9542234E-1,-7.2100274E-2],"split_indices":[159,753,4,6,77,113,572,237,0,1,30,508,227,102,23,0,24,0,0,3,13,222,198,105,68,2,161,0,0,0,0,4,5,1,0,1,0,0,305,786,664,53,168,0,0,535,486,0,0,0,0,0,0,0,0,0,0,0,0,0,0,0,0,0,0,0,0,0,0],"split_type":[0,0,0,0,0,0,0,0,0,0,0,0,0,0,0,0,0,0,0,0,0,0,0,0,0,0,0,0,0,0,0,0,0,0,0,0,0,0,0,0,0,0,0,0,0,0,0,0,0,0,0,0,0,0,0,0,0,0,0,0,0,0,0,0,0,0,0,0,0],"sum_hessian":[5.97E2,1.23E2,4.74E2,7.9E1,4.4E1,4.03E2,7.1E1,7.4E1,5E0,5E0,3.9E1,5.2E1,3.51E2,6.7E1,4E0,6.6E1,8E0,3E0,2E0,3.4E1,5E0,2.2E1,3E1,1.95E2,1.56E2,4E0,6.3E1,1E0,3E0,1E0,7E0,3.1E1,3E0,3E0,2E0,2E0,2E1,5E0,2.5E1,1.45E2,5E1,3.4E1,1.22E2,3E0,1E0,3.7E1,2.6E1,2.5E1,6E0,2E0,1E0,1E0,2E0,1E0,1E0,1.4E1,1.1E1,1.31E2,1.4E1,3.8E1,1.2E1,2.4E1,1E1,6.8E1,5.4E1,2.1E1,1.6E1,5E0,2.1E1],"tree_param":{"num_deleted":"0","num_feature":"791","num_nodes":"69","size_leaf_vector":"1"}},{"base_weights":[-3.6289927E-2,-3.5796201E0,1.2139103E0,-1.3377707E-1,-5.050719E0,1.9929826E0,-2.7834578E0,4.2359047E0,-1.8778275E0,-5.6672363E0,-1.5847824E0,4.186028E0,9.103629E-1,-1.5078558E0,-4.6668587E0,6.1689754E0,6.3031393E-1,2.7235433E-1,-2.486825E0,-5.766874E0,-1.0042896E-1,-2.2281961E0,2.3383132E-1,1.1154527E1,2.8851948E0,1.4200504E0,-3.9696002E0,2.3684175E0,-2.1649342E0,-3.0618677E-1,-2.8988585E0,3.5334918E-1,1.6398595E-1,-1.0963193E-1,8.167161E-2,-2.8061016E0,1.9325073E-1,-7.197135E-2,-5.848868E0,-2.6302028E0,1.050977E-1,1.4070206E1,2.4921873E0,4.0629318E-1,3.6958928E0,1.0743645E0,3.7764326E-1,-5.7042637E0,-1.4009742E0,1.4134543E-1,-9.563184E-3,6.508086E-1,-2.4176574E0,-1.9282086E-2,-1.6279213E-1,-4.7110062E-2,-1.805251E-1,-2.9406595E-1,-7.564073E-2,-9.338813E-2,-1.9670092E-1,3.7166253E-1,7.990832E-1,-4.9103167E-2,1.6917251E-1,-6.702561E-2,9.465525E-2,1.4498298E-1,3.116573E-1,-1.2783724E-2,1.3022327E-1,-2.962229E-1,-7.104354E-2,-1.1176651E-1,2.3659563E-3,6.468725E-2,2.6240348E-4,-1.7401062E-1,-7.9164736E-2],"categories":[],"categories_nodes":[],"categories_segments":[],"categories_sizes":[],"default_left":[0,0,0,0,0,0,0,0,0,0,0,0,0,0,0,0,0,0,0,0,0,0,0,0,0,0,0,0,0,0,0,0,0,0,0,0,0,0,0,0,0,0,0,0,0,0,0,0,0,0,0,0,0,0,0,0,0,0,0,0,0,0,0,0,0,0,0,0,0,0,0,0,0,0,0,0,0,0,0],"id":12,"left_children":[1,3,5,7,9,11,13,15,17,19,21,23,25,27,29,31,33,-1,35,37,-1,39,-1,41,43,45,47,49,51,-1,53,-1,-1,-1,-1,55,-1,-1,57,59,-1,61,63,65,67,69,-1,71,73,-1,-1,75,77,-1,-1,-1,-1,-1,-1,-1,-1,-1,-1,-1,-1,-1,-1,-1,-1,-1,-1,-1,-1,-1,-1,-1,-1,-1,-1],"loss_changes":[2.6666987E3,7.951848E2,1.3913835E3,3.7375967E2,2.2606787E2,8.8177844E2,1.6834332E2,9.368968E1,1.6967583E2,2.2318848E1,8.293663E1,1.0827942E3,6.2993835E2,1.1974316E2,5.694519E1,1.7349243E-1,2.057206E1,0E0,7.7769424E1,2.3514893E1,0E0,3.5121284E1,0E0,4.448098E2,2.0951062E2,4.7525168E2,9.894534E1,8.755817E0,2.9325989E1,0E0,1.2202072E1,0E0,0E0,0E0,0E0,4.4576492E1,0E0,0E0,3.4851074E0,8.557495E0,0E0,5.8811768E1,2.1901585E1,7.266135E1,1.4152539E2,4.422813E2,0E0,4.7865906E0,1.3398088E1,0E0,0E0,1.6534281E0,2.6405838E1,0E0,0E0,0E0,0E0,0E0,0E0,0E0,0E0,0E0,0E0,0E0,0E0,0E0,0E0,0E0,0E0,0E0,0E0,0E0,0E0,0E0,0E0,0E0,0E0,0E0,0E0],"parents":[2147483647,0,0,1,1,2,2,3,3,4,4,5,5,6,6,7,7,8,8,9,9,10,10,11,11,12,12,13,13,14,14,15,15,16,16,18,18,19,19,21,21,23,23,24,24,25,25,26,26,27,27,28,28,30,30,35,35,38,38,39,39,41,41,42,42,43,43,44,44,45,45,47,47,48,48,51,51,52,52],"right_children":[2,4,6,8,10,12,14,16,18,20,22,24,26,28,30,32,34,-1,36,38,-1,40,-1,42,44,46,48,50,52,-1,54,-1,-1,-1,-1,56,-1,-1,58,60,-1,62,64,66,68,70,-1,72,74,-1,-1,76,78,-1,-1,-1,-1,-1,-1,-1,-1,-1,-1,-1,-1,-1,-1,-1,-1,-1,-1,-1,-1,-1,-1,-1,-1,-1,-1],"split_conditions":[6.529669E-1,1.3030488E0,4.5E0,-4.2287236E-1,3.8156313E-1,-2.9611185E-1,-6.0317993E-1,1.3E0,-5.759221E-1,1E-2,-7.1280265E-1,-7.5550115E-1,4.5E0,2.7546656E-1,-5.976523E-1,8.45107E-1,6.19E1,2.7235433E-1,4.2E0,1.652222E0,-1.0042896E-1,8E-3,2.3383132E-1,1.0433909E0,6.439417E-2,4.27E0,1.1167195E0,5E0,1.5881555E0,-3.0618677E-1,-6.784576E-1,3.5334918E-1,1.6398595E-1,-1.0963193E-1,8.167161E-2,1.1715432E0,1.9325073E-1,-7.197135E-2,9.75E1,3.11E0,1.050977E-1,8.397805E-1,-7.25062E-1,-1.3566427E0,-3.593715E-1,-9.946216E-1,3.7764326E-1,3.001E1,1.7E-1,1.4134543E-1,-9.563184E-3,8.5232574E-1,8.891469E-1,-1.9282086E-2,-1.6279213E-1,-4.7110062E-2,-1.805251E-1,-2.9406595E-1,-7.564073E-2,-9.338813E-2,-1.9670092E-1,3.7166253E-1,7.990832E-1,-4.9103167E-2,1.6917251E-1,-6.702561E-2,9.465525E-2,1.4498298E-1,3.116573E-1,-1.2783724E-2,1.3022327E-1,-2.962229E-1,-7.104354E-2,-1.1176651E-1,2.3659563E-3,6.468725E-2,2.6240348E-4,-1.7401062E-1,-7.9164736E-2],"split_indices":[145,640,4,410,266,300,771,3,256,18,23,457,5,81,563,25,0,0,4,280,0,15,0,220,35,4,626,1,122,0,163,0,0,0,0,718,0,0,0,9,0,25,23,148,105,158,0,5,12,0,0,25,174,0,0,0,0,0,0,0,0,0,0,0,0,0,0,0,0,0,0,0,0,0,0,0,0,0,0],"split_type":[0,0,0,0,0,0,0,0,0,0,0,0,0,0,0,0,0,0,0,0,0,0,0,0,0,0,0,0,0,0,0,0,0,0,0,0,0,0,0,0,0,0,0,0,0,0,0,0,0,0,0,0,0,0,0,0,0,0,0,0,0,0,0,0,0,0,0,0,0,0,0,0,0,0,0,0,0,0,0],"sum_hessian":[6E2,1.56E2,4.44E2,4.7E1,1.09E2,3.72E2,7.2E1,1.3E1,3.4E1,9.2E1,1.7E1,1.22E2,2.5E2,4.4E1,2.8E1,8E0,5E0,2E0,3.2E1,8.9E1,3E0,1.6E1,1E0,1.8E1,1.04E2,2.27E2,2.3E1,6E0,3.8E1,1.4E1,1.4E1,5E0,3E0,1E0,4E0,3.1E1,1E0,2E0,8.7E1,1.5E1,1E0,1.3E1,5E0,2.6E1,7.8E1,2.16E2,1.1E1,1.3E1,1E1,5E0,1E0,3E0,3.5E1,2E0,1.2E1,1E1,2.1E1,8.6E1,1E0,1.1E1,4E0,4E0,9E0,1E0,4E0,1.2E1,1.4E1,6.1E1,1.7E1,1.16E2,1E2,1.2E1,1E0,6E0,4E0,1E0,2E0,1.4E1,2.1E1],"tree_param":{"num_deleted":"0","num_feature":"791","num_nodes":"79","size_leaf_vector":"1"}},{"base_weights":[-6.27006E-2,-2.517165E0,1.5096529E0,-9.6236986E-1,-4.957197E0,1.0752955E-1,3.4538398E0,-1.8488648E0,1.3530164E0,-5.4637713E0,1.9746026E0,-2.2858678E-1,8.875128E0,2.7264597E0,1.3728206E1,-2.6238616E0,1.061943E0,-2.0601401E0,2.6731784E0,-2.8498724E-1,-3.3367047E0,6.8236274E-1,1.7350674E-1,4.670694E-1,-2.571664E0,5.331897E-1,2.3394177E0,3.8214917E0,-1.1389982E0,8.6901504E-1,1.9524945E-1,-2.8444448E0,4.2800336E0,2.9682035E0,-3.7192526E0,1.1142676E-1,-2.6526139E0,2.9217043E0,-5.374546E-1,-1.1338921E-1,-2.0829263E-1,5.3182542E-2,-2.106974E-2,2.515056E-2,5.530205E0,-3.0140998E0,1.8361018E0,1.4034295E-1,3.5113383E-2,4.936997E-1,3.2715483E0,-2.3287349E0,2.8700213E0,-8.125011E-2,-2.0421171E-1,-7.374971E-2,3.9475223E-1,2.7815482E-1,2.9773442E-2,-6.4741425E-2,-2.6069316E-1,-1.6244522E-1,-6.4364225E-2,2.7058876E-1,1.2610076E-1,-1.1518002E-4,-4.0193915E-2,-8.555462E-2,6.864982E-2,4.1150522E-1,1.0201379E-1,-1.8252249E-1,1.5289105E-2,1.0777589E-1,1.3960934E-2,3.3665556E-1,1.11559905E-1,-1.4932808E-1,1.8550612E-1,3.1435397E-2,1.7561707E-1],"categories":[],"categories_nodes":[],"categories_segments":[],"categories_sizes":[],"default_left":[0,0,0,0,0,0,0,0,0,0,0,0,0,0,0,0,0,0,0,0,0,0,0,0,0,0,0,0,0,0,0,0,0,0,0,0,0,0,0,0,0,0,0,0,0,0,0,0,0,0,0,0,0,0,0,0,0,0,0,0,0,0,0,0,0,0,0,0,0,0,0,0,0,0,0,0,0,0,0,0,0],"id":13,"left_children":[1,3,5,7,9,11,13,15,17,19,21,23,25,27,29,31,33,35,37,-1,39,41,-1,43,45,-1,47,49,51,-1,-1,53,55,57,59,-1,61,63,65,-1,-1,-1,-1,67,69,71,73,-1,-1,-1,75,77,79,-1,-1,-1,-1,-1,-1,-1,-1,-1,-1,-1,-1,-1,-1,-1,-1,-1,-1,-1,-1,-1,-1,-1,-1,-1,-1,-1,-1],"loss_changes":[2.3425273E3,8.94348E2,1.00824475E3,3.0217798E2,3.3384424E2,6.385663E2,1.1209431E3,2.419082E2,1.9024982E2,2.4147705E1,1.1160215E1,3.4186618E2,6.8574585E1,6.223413E2,2.9088342E2,1.4009656E2,2.2066618E2,3.640257E1,2.5508041E1,0E0,3.0197906E-1,2.5524652E0,0E0,3.6233508E2,9.914151E1,0E0,3.246479E-1,3.4714966E2,1.6408289E2,0E0,0E0,1.1733502E2,7.405861E1,1.0135623E2,1.861393E1,0E0,4.773201E0,1.4218552E1,4.2587888E-1,0E0,0E0,0E0,0E0,3.533775E2,1.0570026E2,9.407095E1,1.8846054E0,0E0,0E0,0E0,3.6670825E2,1.1436606E2,9.308884E0,0E0,0E0,0E0,0E0,0E0,0E0,0E0,0E0,0E0,0E0,0E0,0E0,0E0,0E0,0E0,0E0,0E0,0E0,0E0,0E0,0E0,0E0,0E0,0E0,0E0,0E0,0E0,0E0],"parents":[2147483647,0,0,1,1,2,2,3,3,4,4,5,5,6,6,7,7,8,8,9,9,10,10,11,11,12,12,13,13,14,14,15,15,16,16,17,17,18,18,20,20,21,21,23,23,24,24,26,26,27,27,28,28,31,31,32,32,33,33,34,34,36,36,37,37,38,38,43,43,44,44,45,45,46,46,50,50,51,51,52,52],"right_children":[2,4,6,8,10,12,14,16,18,20,22,24,26,28,30,32,34,36,38,-1,40,42,-1,44,46,-1,48,50,52,-1,-1,54,56,58,60,-1,62,64,66,-1,-1,-1,-1,68,70,72,74,-1,-1,-1,76,78,80,-1,-1,-1,-1,-1,-1,-1,-1,-1,-1,-1,-1,-1,-1,-1,-1,-1,-1,-1,-1,-1,-1,-1,-1,-1,-1,-1,-1],"split_conditions":[-1.0547369E0,1.6326236E0,8.674E1,6.13E0,-1.2907115E0,6.7942053E-1,1.091498E0,5.698672E-1,-6.737298E-3,1.51E0,8.9342E1,1.3021927E0,1.3002695E0,-1.3277706E0,2.6E-2,3.9E-2,4.998E0,7.394545E-1,-7.6612025E-1,-2.8498724E-1,8.19325E-1,8.58E1,1.7350674E-1,2.5E1,5.799858E-1,5.331897E-1,6.355E1,4.899262E-1,9.436561E-1,8.6901504E-1,1.9524945E-1,-1.089847E0,9.8E1,-7.865906E-1,5.11E0,1.1142676E-1,-5.3916734E-1,-7.270976E-1,8.133E1,-1.1338921E-1,-2.0829263E-1,5.3182542E-2,-2.106974E-2,-1.0091994E-2,-1.4591038E0,1.0169758E0,8.564E1,1.4034295E-1,3.5113383E-2,4.936997E-1,8.74E1,6.7784905E-1,1.3030738E0,-8.125011E-2,-2.0421171E-1,-7.374971E-2,3.9475223E-1,2.7815482E-1,2.9773442E-2,-6.4741425E-2,-2.6069316E-1,-1.6244522E-1,-6.4364225E-2,2.7058876E-1,1.2610076E-1,-1.1518002E-4,-4.0193915E-2,-8.555462E-2,6.864982E-2,4.1150522E-1,1.0201379E-1,-1.8252249E-1,1.5289105E-2,1.0777589E-1,1.3960934E-2,3.3665556E-1,1.11559905E-1,-1.4932808E-1,1.8550612E-1,3.1435397E-2,1.7561707E-1],"split_indices":[664,401,0,2,249,546,529,340,181,4,0,431,27,558,9,15,5,26,475,0,25,0,0,7,239,0,0,603,673,0,0,134,0,301,2,0,313,464,0,0,0,0,0,126,131,575,0,0,0,0,0,546,27,0,0,0,0,0,0,0,0,0,0,0,0,0,0,0,0,0,0,0,0,0,0,0,0,0,0,0,0],"split_type":[0,0,0,0,0,0,0,0,0,0,0,0,0,0,0,0,0,0,0,0,0,0,0,0,0,0,0,0,0,0,0,0,0,0,0,0,0,0,0,0,0,0,0,0,0,0,0,0,0,0,0,0,0,0,0,0,0,0,0,0,0,0,0,0,0,0,0,0,0,0,0,0,0,0,0,0,0,0,0,0,0],"sum_hessian":[6.05E2,2.36E2,3.69E2,1.45E2,9.1E1,2.15E2,1.54E2,1.05E2,4E1,8.5E1,6E0,2.08E2,7E0,1.45E2,9E0,8.3E1,2.2E1,1.1E1,2.9E1,7.5E1,1E1,4E0,2E0,1.61E2,4.7E1,5E0,2E0,1.13E2,3.2E1,6E0,3E0,8.1E1,2E0,1.6E1,6E0,1E0,1E1,2.7E1,2E0,6E0,4E0,3E0,1E0,1.49E2,1.2E1,4.3E1,4E0,1E0,1E0,8E0,1.05E2,2.5E1,7E0,4.2E1,3.9E1,1E0,1E0,7E0,9E0,3E0,3E0,6E0,4E0,2E0,2.5E1,1E0,1E0,6.5E1,8.4E1,6E0,6E0,3.6E1,7E0,3E0,1E0,2.3E1,8.2E1,2.3E1,2E0,2E0,5E0],"tree_param":{"num_deleted":"0","num_feature":"791","num_nodes":"81","size_leaf_vector":"1"}},{"base_weights":[4.3081217E-2,-3.0141473E0,1.1729795E0,-3.0003878E-1,-4.953719E0,-3.8845128E-1,2.7432735E0,5.2125645E0,-1.2138053E0,-5.2174582E0,-1.7201273E-1,-6.74004E-1,8.478383E0,1.3172765E1,2.3386762E0,3.9683053E-1,-8.576573E-1,-2.983108E0,3.2420313E-1,-2.6488113E-1,-1.0847589E-1,-1.8815287E0,1.0823398E-1,3.2903904E-1,-2.6433766E0,5.273059E-1,2.2060308E0,1.04568124E-1,7.228528E-1,1.6671407E0,5.4879494E0,-1.0389024E-1,7.0069626E-2,-3.4931307E0,6.162224E-2,-6.892915E-1,4.187082E0,-4.1611195E-3,-1.2266117E-1,-8.297184E-2,7.3435955E0,-6.008495E0,-1.8141259E0,1.3683438E-1,2.8617932E-2,2.1832724E0,-1.5582713E0,5.205674E-1,7.066016E0,-2.1645384E-1,-9.449491E-2,8.974355E-2,-4.1020382E-2,3.6224734E-2,-1.5825887E-1,2.3604114E-1,2.4615884E-2,4.716848E-2,-1.0341891E-1,5.031722E-1,-2.719833E-2,-3.117915E-1,-7.632845E-2,3.6355026E-2,-1.2322903E-1,4.7931075E-1,9.3420066E-2,-2.0737842E-1,7.962156E-2,8.406547E-2,-4.882182E-2,4.302523E-1,2.6869643E-1],"categories":[],"categories_nodes":[],"categories_segments":[],"categories_sizes":[],"default_left":[0,0,0,0,0,0,0,0,0,0,0,0,0,0,0,0,0,0,0,0,0,0,0,0,0,0,0,0,0,0,0,0,0,0,0,0,0,0,0,0,0,0,0,0,0,0,0,0,0,0,0,0,0,0,0,0,0,0,0,0,0,0,0,0,0,0,0,0,0,0,0,0,0],"id":14,"left_children":[1,3,5,7,9,11,13,15,17,19,21,23,25,27,29,-1,31,33,35,-1,-1,37,-1,39,41,-1,43,-1,-1,45,47,-1,-1,49,51,53,55,-1,-1,57,59,61,63,-1,-1,65,67,69,71,-1,-1,-1,-1,-1,-1,-1,-1,-1,-1,-1,-1,-1,-1,-1,-1,-1,-1,-1,-1,-1,-1,-1,-1],"loss_changes":[2.086513E3,8.565797E2,1.0823557E3,3.538961E2,1.18909424E2,5.678071E2,8.975365E2,1.721625E2,1.6423929E2,1.0496826E1,2.8040585E1,4.2754868E2,6.752185E1,8.361902E1,4.4131372E2,0E0,1.3937315E1,4.3695923E1,1.3208134E2,0E0,0E0,3.908164E0,0E0,4.1677988E2,1.9280832E2,0E0,1.0343914E0,0E0,0E0,2.980607E2,2.863595E2,0E0,0E0,2.3983704E1,9.116411E0,9.680323E1,1.1480202E1,0E0,0E0,2.811168E2,1.7709796E2,4.7451477E0,1.0096915E2,0E0,0E0,3.3872797E2,2.1055734E2,1.9018044E1,2.667395E1,0E0,0E0,0E0,0E0,0E0,0E0,0E0,0E0,0E0,0E0,0E0,0E0,0E0,0E0,0E0,0E0,0E0,0E0,0E0,0E0,0E0,0E0,0E0,0E0],"parents":[2147483647,0,0,1,1,2,2,3,3,4,4,5,5,6,6,7,7,8,8,9,9,10,10,11,11,12,12,13,13,14,14,16,16,17,17,18,18,21,21,23,23,24,24,26,26,29,29,30,30,33,33,34,34,35,35,36,36,39,39,40,40,41,41,42,42,45,45,46,46,47,47,48,48],"right_children":[2,4,6,8,10,12,14,16,18,20,22,24,26,28,30,-1,32,34,36,-1,-1,38,-1,40,42,-1,44,-1,-1,46,48,-1,-1,50,52,54,56,-1,-1,58,60,62,64,-1,-1,66,68,70,72,-1,-1,-1,-1,-1,-1,-1,-1,-1,-1,-1,-1,-1,-1,-1,-1,-1,-1,-1,-1,-1,-1,-1,-1],"split_conditions":[6.529669E-1,-1.2715316E0,8.654E1,9.900198E-1,-1.1411883E0,6.7942053E-1,5.533272E-1,-3.7206646E-2,9.408958E-1,5E-3,8.8E-2,2.18E0,2E-2,8.6629E1,3.71E0,3.9683053E-1,8.745E1,2E-2,-2.689831E-1,-2.6488113E-1,-1.0847589E-1,6.96E1,1.0823398E-1,1.1654823E0,-7.2399426E-1,5.273059E-1,6.355E1,1.04568124E-1,7.228528E-1,1.02E0,8.647721E-1,-1.0389024E-1,7.0069626E-2,1.3983935E0,7.46408E-1,3.62E0,6.08E0,-4.1611195E-3,-1.2266117E-1,-1.0679675E0,-3.7956856E-2,7.511674E-1,4.834011E-1,1.3683438E-1,2.8617932E-2,-7.608272E-1,6.615819E-1,1.2038444E0,1.1379714E0,-2.1645384E-1,-9.449491E-2,8.974355E-2,-4.1020382E-2,3.6224734E-2,-1.5825887E-1,2.3604114E-1,2.4615884E-2,4.716848E-2,-1.0341891E-1,5.031722E-1,-2.719833E-2,-3.117915E-1,-7.632845E-2,3.6355026E-2,-1.2322903E-1,4.7931075E-1,9.3420066E-2,-2.0737842E-1,7.962156E-2,8.406547E-2,-4.882182E-2,4.302523E-1,2.6869643E-1],"split_indices":[145,766,0,750,56,546,427,32,98,13,12,6,9,0,1,0,0,14,215,0,0,0,0,732,464,0,0,0,0,9,106,0,0,780,26,2,2,0,0,469,32,26,207,0,0,574,145,31,50,0,0,0,0,0,0,0,0,0,0,0,0,0,0,0,0,0,0,0,0,0,0,0,0],"split_type":[0,0,0,0,0,0,0,0,0,0,0,0,0,0,0,0,0,0,0,0,0,0,0,0,0,0,0,0,0,0,0,0,0,0,0,0,0,0,0,0,0,0,0,0,0,0,0,0,0,0,0,0,0,0,0,0,0,0,0,0,0,0,0,0,0,0,0,0,0,0,0,0,0],"sum_hessian":[6.02E2,1.62E2,4.4E2,6.8E1,9.4E1,2.21E2,2.19E2,9E0,5.9E1,8.9E1,5E0,2.15E2,6E0,7E0,2.12E2,6E0,3E0,2.7E1,3.2E1,8.6E1,3E0,3E0,2E0,1.43E2,7.2E1,4E0,2E0,1E0,6E0,1.76E2,3.6E1,2E0,1E0,2.3E1,4E0,2.6E1,6E0,1E0,2E0,1.36E2,7E0,1.3E1,5.9E1,1E0,1E0,1.52E2,2.4E1,9E0,2.7E1,1.4E1,9E0,1E0,3E0,1.7E1,9E0,5E0,1E0,9E1,4.6E1,5E0,2E0,1.2E1,1E0,1.2E1,4.7E1,5E0,1.47E2,1.3E1,1.1E1,5E0,4E0,1.2E1,1.5E1],"tree_param":{"num_deleted":"0","num_feature":"791","num_nodes":"73","size_leaf_vector":"1"}},{"base_weights":[2.942258E-2,-2.9985511E0,1.1098242E0,-4.5997307E-1,-4.694918E0,-4.0352064E-1,2.585445E0,2.0675786E0,-1.6854433E0,-4.9536657E0,-6.6049796E-1,4.6966643E0,-9.515625E-1,2.1809862E0,1.1265437E1,-1.2220389E0,4.0346484E0,-2.203424E0,2.8990867E0,-5.061821E0,-1.2889159E-1,-1.334291E0,8.455651E-2,8.233909E0,-3.7141952E-1,-2.031138E0,7.1286833E-1,8.390209E-1,3.527524E0,1.4144865E1,-1.6818397E-1,-1.0708189E-1,-4.052998E-1,6.2120514E0,9.6980983E-1,-2.8987916E0,1.5881889E0,3.8397783E-1,-2.1591985E-1,-2.544219E-1,-6.998517E-2,-4.0570977E-3,-1.5686924E0,2.4675286E-1,5.6300294E-1,1.5971682E0,-1.8617967E-1,5.1480546E0,-2.3760455E0,1.5180207E0,-1.6598537E0,1.2736797E0,-2.8892758E0,2.7046857E0,7.0950613E0,1.01953916E-1,7.791483E-1,2.3479749E-2,-3.6093544E-2,-3.76068E-2,3.322203E-2,6.831789E-2,3.3545497E-1,6.897102E-2,-3.719635E-2,-1.8467063E-1,-6.3496985E-2,1.5700205E-1,-7.638138E-2,-7.5151995E-2,9.1136E-2,-9.528846E-2,-5.509627E-3,1.17348514E-1,-9.24457E-3,4.7779638E-1,2.7756823E-2,-4.1056084E-3,-1.5571448E-1,3.665177E-2,2.7240714E-1,1.684728E-1,-1.039896E-1,-7.8451574E-2,8.93873E-2,9.5113374E-2,-1.748902E-1,1.6994934E-1,-8.6129E-2,6.7328505E-2,3.663371E-1],"categories":[],"categories_nodes":[],"categories_segments":[],"categories_sizes":[],"default_left":[0,0,0,0,0,0,0,0,0,0,0,0,0,0,0,0,0,0,0,0,0,0,0,0,0,0,0,0,0,0,0,0,0,0,0,0,0,0,0,0,0,0,0,0,0,0,0,0,0,0,0,0,0,0,0,0,0,0,0,0,0,0,0,0,0,0,0,0,0,0,0,0,0,0,0,0,0,0,0,0,0,0,0,0,0,0,0,0,0,0,0],"id":15,"left_children":[1,3,5,7,9,11,13,15,17,19,21,23,25,27,29,31,33,35,37,39,-1,41,-1,43,45,47,49,51,53,55,57,-1,59,61,63,65,67,-1,69,-1,-1,-1,71,-1,-1,73,-1,75,77,79,81,83,85,87,89,-1,-1,-1,-1,-1,-1,-1,-1,-1,-1,-1,-1,-1,-1,-1,-1,-1,-1,-1,-1,-1,-1,-1,-1,-1,-1,-1,-1,-1,-1,-1,-1,-1,-1,-1,-1],"loss_changes":[2.015256E3,6.954708E2,1.01488116E3,2.079158E2,9.798584E1,6.3337E2,7.828906E2,1.4729047E2,1.1324931E2,1.0334717E1,1.3348034E1,3.974533E2,3.6801117E2,3.9638892E2,3.316018E2,5.8916464E0,8.740292E1,1.1270297E2,7.6114136E1,1.260498E0,0E0,1.6351538E0,0E0,7.420758E1,7.193769E1,3.1927573E2,1.5726233E2,1.8518015E2,3.037157E2,1.0749988E2,1.3983765E0,0E0,2.7258983E0,1.0101288E1,5.9399414E0,4.061078E1,3.8643818E1,0E0,1.32355175E1,0E0,0E0,0E0,2.2481298E0,0E0,0E0,9.787277E0,0E0,1.1616513E2,2.0126868E2,1.8419669E2,5.135976E1,1.5040059E2,4.164324E1,2.8557574E2,1.6770264E1,0E0,0E0,0E0,0E0,0E0,0E0,0E0,0E0,0E0,0E0,0E0,0E0,0E0,0E0,0E0,0E0,0E0,0E0,0E0,0E0,0E0,0E0,0E0,0E0,0E0,0E0,0E0,0E0,0E0,0E0,0E0,0E0,0E0,0E0,0E0,0E0],"parents":[2147483647,0,0,1,1,2,2,3,3,4,4,5,5,6,6,7,7,8,8,9,9,10,10,11,11,12,12,13,13,14,14,15,15,16,16,17,17,18,18,19,19,21,21,23,23,24,24,25,25,26,26,27,27,28,28,29,29,30,30,32,32,33,33,34,34,35,35,36,36,38,38,42,42,45,45,47,47,48,48,49,49,50,50,51,51,52,52,53,53,54,54],"right_children":[2,4,6,8,10,12,14,16,18,20,22,24,26,28,30,32,34,36,38,40,-1,42,-1,44,46,48,50,52,54,56,58,-1,60,62,64,66,68,-1,70,-1,-1,-1,72,-1,-1,74,-1,76,78,80,82,84,86,88,90,-1,-1,-1,-1,-1,-1,-1,-1,-1,-1,-1,-1,-1,-1,-1,-1,-1,-1,-1,-1,-1,-1,-1,-1,-1,-1,-1,-1,-1,-1,-1,-1,-1,-1,-1,-1],"split_conditions":[6.529669E-1,-1.2715316E0,8.651E1,-8.87992E-3,-1.1899235E0,-7.9966766E-1,-1.1473888E0,-3.5941532E-1,9.892E1,5E-3,8.154E1,-1.3034185E0,1.5E0,-1.2228233E0,1.2979051E0,1.1130873E0,2.11E0,-2.0359828E-1,9.9E1,1E-2,-1.2889159E-1,-7.172595E-1,8.455651E-2,3.0977598E-1,2.04E0,-2.9978797E-1,-2.2466865E-1,-9.470706E-1,3.71E0,8.6629E1,8.795E1,-1.0708189E-1,8.955E1,7.500328E-1,8.16E1,2.03E0,3.01E0,3.8397783E-1,9.953E1,-2.544219E-1,-6.998517E-2,-4.0570977E-3,8.136E1,2.4675286E-1,5.6300294E-1,1.2118243E0,-1.8617967E-1,1.12E-1,-7.7884525E-1,2.4187642E-1,6.3E1,5.1942617E-1,8.73E1,4.7923478E-1,7.0626986E-1,1.01953916E-1,7.791483E-1,2.3479749E-2,-3.6093544E-2,-3.76068E-2,3.322203E-2,6.831789E-2,3.3545497E-1,6.897102E-2,-3.719635E-2,-1.8467063E-1,-6.3496985E-2,1.5700205E-1,-7.638138E-2,-7.5151995E-2,9.1136E-2,-9.528846E-2,-5.509627E-3,1.17348514E-1,-9.24457E-3,4.7779638E-1,2.7756823E-2,-4.1056084E-3,-1.5571448E-1,3.665177E-2,2.7240714E-1,1.684728E-1,-1.039896E-1,-7.8451574E-2,8.93873E-2,9.5113374E-2,-1.748902E-1,1.6994934E-1,-8.6129E-2,6.7328505E-2,3.663371E-1],"split_indices":[145,766,0,320,39,549,633,94,0,13,0,438,3,520,27,36,5,309,0,18,0,23,0,285,3,767,530,398,1,0,0,0,0,26,0,1,2,0,0,0,0,0,0,0,0,31,0,12,167,261,0,103,0,762,33,0,0,0,0,0,0,0,0,0,0,0,0,0,0,0,0,0,0,0,0,0,0,0,0,0,0,0,0,0,0,0,0,0,0,0,0],"split_type":[0,0,0,0,0,0,0,0,0,0,0,0,0,0,0,0,0,0,0,0,0,0,0,0,0,0,0,0,0,0,0,0,0,0,0,0,0,0,0,0,0,0,0,0,0,0,0,0,0,0,0,0,0,0,0,0,0,0,0,0,0,0,0,0,0,0,0,0,0,0,0,0,0,0,0,0,0,0,0,0,0,0,0,0,0,0,0,0,0,0,0],"sum_hessian":[6.14E2,1.61E2,4.53E2,6.5E1,9.6E1,2.24E2,2.29E2,2.1E1,4.4E1,9E1,6E0,2.1E1,2.03E2,2.2E2,9E0,8E0,1.3E1,4E1,4E0,8.5E1,5E0,5E0,1E0,1.2E1,9E0,1.23E2,8E1,1.11E2,1.09E2,7E0,2E0,3E0,5E0,7E0,6E0,3.4E1,6E0,1E0,3E0,8.4E1,1E0,1E0,4E0,7E0,5E0,6E0,3E0,5E0,1.18E2,6E1,2E1,1E2,1.1E1,9E1,1.9E1,1E0,6E0,1E0,1E0,4E0,1E0,1E0,6E0,5E0,1E0,2.2E1,1.2E1,4E0,2E0,2E0,1E0,3E0,1E0,4E0,2E0,2E0,3E0,2.9E1,8.9E1,5.1E1,9E0,1E0,1.9E1,1.5E1,8.5E1,1E0,1E1,7.8E1,1.2E1,1E0,1.8E1],"tree_param":{"num_deleted":"0","num_feature":"791","num_nodes":"91","size_leaf_vector":"1"}},{"base_weights":[7.64472E-2,-2.8052726E0,1.1120967E0,2.0545676E-1,-4.185938E0,1.3445839E-3,2.6944454E0,5.5773964E0,-6.5383947E-1,-4.691714E0,-4.9101806E-1,4.6172E0,-3.8818473E-1,2.2617993E0,7.3960525E-1,3.255116E-1,1.081769E-1,-2.031019E0,2.144109E0,-1.5397767E0,-4.778703E0,-1.8681877E0,2.5906667E-1,7.8558497E0,5.9296453E-1,-1.33238E0,1.2256503E0,1.2276087E0,4.256788E0,-3.8143146E0,-4.4295105E-1,2.9719648E0,-1.07898496E-1,-1.2671918E-1,-3.6344656E-1,-4.967209E0,-3.6659608E0,-2.2937772E0,-4.4356406E-1,2.4174368E-1,5.2570236E-1,2.2021785E0,-2.3714008E0,-2.8712342E0,-5.5579174E-2,7.1923003E0,7.0135516E-1,3.6007245E0,-1.17704175E-1,4.6620307E0,-2.4308772E-1,-2.1955799E-1,9.211671E-2,-1.0460178E-1,6.276751E-2,2.3868673E-1,8.203818E-2,-2.4705982E-2,-2.5525093E-3,-2.4987356E-1,-6.819482E-2,-1.9690014E-1,-8.986615E-2,-3.9253537E-2,-1.3063417E-1,1.6186318E-3,-4.6784353E-2,1.264544E-1,6.0180663E-3,-1.4514494E-1,-1.9422675E-2,-1.6378205E-1,1.4397071E-1,-1.0451422E-1,4.03763E-2,4.3590018E-1,-4.9047973E-2,7.0786044E-2,-7.9198234E-2,6.5076924E-3,2.2716498E-1,-2.7877843E-2,3.9145353E-1,1.4514372E-1,3.7697473E-1],"categories":[],"categories_nodes":[],"categories_segments":[],"categories_sizes":[],"default_left":[0,0,0,0,0,0,0,0,0,0,0,0,0,0,0,0,0,0,0,0,0,0,0,0,0,0,0,0,0,0,0,0,0,0,0,0,0,0,0,0,0,0,0,0,0,0,0,0,0,0,0,0,0,0,0,0,0,0,0,0,0,0,0,0,0,0,0,0,0,0,0,0,0,0,0,0,0,0,0,0,0,0,0,0,0],"id":16,"left_children":[1,3,5,7,9,11,13,15,17,19,21,23,25,27,-1,-1,-1,29,31,33,35,37,-1,39,41,43,45,47,49,51,53,55,-1,-1,57,59,61,63,65,-1,-1,67,69,71,73,75,77,79,81,83,-1,-1,-1,-1,-1,-1,-1,-1,-1,-1,-1,-1,-1,-1,-1,-1,-1,-1,-1,-1,-1,-1,-1,-1,-1,-1,-1,-1,-1,-1,-1,-1,-1,-1,-1],"loss_changes":[1.7609615E3,6.493224E2,7.627935E2,2.344511E2,1.976582E2,4.6208313E2,9.0342993E2,8.206863E0,1.7389893E2,1.8415283E1,1.1904475E2,2.5600354E2,3.627678E2,3.537708E2,0E0,0E0,0E0,8.327028E1,5.9835945E1,3.758831E0,8.7841797E-1,6.2582207E0,0E0,3.7499756E1,5.2925224E1,2.94562E2,2.7024475E2,3.7076343E2,2.4068384E2,5.377211E1,5.023716E1,2.334816E1,0E0,0E0,9.724051E-2,1.3621826E0,1.5640564E0,2.2790794E0,9.6716815E-1,0E0,0E0,4.459553E0,3.088089E0,1.675727E2,1.4744962E2,9.584177E1,1.3611188E2,1.3680212E2,2.6652094E2,2.6664258E2,0E0,0E0,0E0,0E0,0E0,0E0,0E0,0E0,0E0,0E0,0E0,0E0,0E0,0E0,0E0,0E0,0E0,0E0,0E0,0E0,0E0,0E0,0E0,0E0,0E0,0E0,0E0,0E0,0E0,0E0,0E0,0E0,0E0,0E0,0E0],"parents":[2147483647,0,0,1,1,2,2,3,3,4,4,5,5,6,6,7,7,8,8,9,9,10,10,11,11,12,12,13,13,17,17,18,18,19,19,20,20,21,21,23,23,24,24,25,25,26,26,27,27,28,28,29,29,30,30,31,31,34,34,35,35,36,36,37,37,38,38,41,41,42,42,43,43,44,44,45,45,46,46,47,47,48,48,49,49],"right_children":[2,4,6,8,10,12,14,16,18,20,22,24,26,28,-1,-1,-1,30,32,34,36,38,-1,40,42,44,46,48,50,52,54,56,-1,-1,58,60,62,64,66,-1,-1,68,70,72,74,76,78,80,82,84,-1,-1,-1,-1,-1,-1,-1,-1,-1,-1,-1,-1,-1,-1,-1,-1,-1,-1,-1,-1,-1,-1,-1,-1,-1,-1,-1,-1,-1,-1,-1,-1,-1,-1,-1],"split_conditions":[6.529669E-1,1.3030488E0,8.72E1,3.611295E-2,-1.5462656E0,-7.9966766E-1,5.339567E-1,1.403E0,3.06E0,9.416676E-1,8.674E1,8.567724E-1,-5.618741E-1,3.0552348E-2,7.3960525E-1,3.255116E-1,1.081769E-1,-9.550694E-1,1.6E1,8.024E1,1.012766E0,5.1E0,2.5906667E-1,4.8307732E-1,-1.1522355E0,8.073E1,7.7922696E-1,3.8570392E-1,3E0,2E-2,8.984E1,1.3E0,-1.07898496E-1,-1.2671918E-1,8.095E1,9.75E1,7.6E-1,-1.2984582E0,-1.149949E0,2.4174368E-1,5.2570236E-1,-1.2056917E0,6.95E1,-5.383125E-2,-7.984729E-4,3.8E0,3.5E0,-2.164702E-1,9.9778E1,-1.2340912E0,-2.4308772E-1,-2.1955799E-1,9.211671E-2,-1.0460178E-1,6.276751E-2,2.3868673E-1,8.203818E-2,-2.4705982E-2,-2.5525093E-3,-2.4987356E-1,-6.819482E-2,-1.9690014E-1,-8.986615E-2,-3.9253537E-2,-1.3063417E-1,1.6186318E-3,-4.6784353E-2,1.264544E-1,6.0180663E-3,-1.4514494E-1,-1.9422675E-2,-1.6378205E-1,1.4397071E-1,-1.0451422E-1,4.03763E-2,4.3590018E-1,-4.9047973E-2,7.0786044E-2,-7.9198234E-2,6.5076924E-3,2.2716498E-1,-2.7877843E-2,3.9145353E-1,1.4514372E-1,3.7697473E-1],"split_indices":[145,640,0,645,187,549,390,1,1,61,0,292,589,639,0,0,0,212,7,0,216,1,0,130,28,0,505,559,12,14,0,3,0,0,0,0,6,118,28,0,0,39,0,692,60,2,1,539,0,717,0,0,0,0,0,0,0,0,0,0,0,0,0,0,0,0,0,0,0,0,0,0,0,0,0,0,0,0,0,0,0,0,0,0,0],"split_type":[0,0,0,0,0,0,0,0,0,0,0,0,0,0,0,0,0,0,0,0,0,0,0,0,0,0,0,0,0,0,0,0,0,0,0,0,0,0,0,0,0,0,0,0,0,0,0,0,0,0,0,0,0,0,0,0,0,0,0,0,0,0,0,0,0,0,0,0,0,0,0,0,0,0,0,0,0,0,0,0,0,0,0,0,0],"sum_hessian":[5.88E2,1.55E2,4.33E2,4.9E1,1.06E2,2.55E2,1.78E2,6E0,4.3E1,9.3E1,1.3E1,1.9E1,2.36E2,1.73E2,5E0,4E0,2E0,2.9E1,1.4E1,3E0,9E1,1.1E1,2E0,1E1,9E0,1.49E2,8.7E1,1.15E2,5.8E1,1.3E1,1.6E1,1.2E1,2E0,1E0,2E0,7.4E1,1.6E1,8E0,3E0,6E0,4E0,6E0,3E0,6.7E1,8.2E1,6E0,8.1E1,4.1E1,7.4E1,5.6E1,2E0,1.2E1,1E0,8E0,8E0,4E0,8E0,1E0,1E0,7.3E1,1E0,1.3E1,3E0,2E0,6E0,2E0,1E0,5E0,1E0,2E0,1E0,6.3E1,4E0,2.4E1,5.8E1,5E0,1E0,6.2E1,1.9E1,9E0,3.2E1,7.1E1,3E0,3.6E1,2E1],"tree_param":{"num_deleted":"0","num_feature":"791","num_nodes":"85","size_leaf_vector":"1"}},{"base_weights":[-8.788604E-2,-2.0748382E0,1.2556531E0,-3.5178342E0,1.2629975E-1,-2.8517934E-2,3.0108771E0,-3.9705691E0,1.3845946E0,3.426167E0,-5.765008E-1,2.1572676E0,-9.62933E-1,2.0513372E0,7.508246E0,1.8323985E0,-4.211563E0,3.9017954E0,-6.763804E-1,1.7646217E0,3.089115E-1,-1.2202258E0,2.0746636E0,-6.5115577E-1,4.0724497E0,-1.7484195E0,1.9820309E0,-4.8251E-1,3.0420835E0,7.0165426E-1,5.6840444E0,2.754547E0,-6.945862E-2,-4.4251833E0,-1.9814479E0,4.8672758E-2,2.5613007E-1,2.4810965E-1,-1.1499502E-1,2.0363042E0,-3.059714E-2,-4.261566E0,-6.5533966E-1,1.3392472E-1,1.1360209E0,-2.7879782E0,6.441019E-1,5.960538E0,1.2218007E0,6.464166E-2,-2.7924361E0,5.3302603E0,1.3381395E-1,1.5846677E0,-3.4822032E0,4.027732E-1,2.3147178E0,3.167533E-1,-5.5078E-1,1.5836592E-1,2.7586555E-2,-2.2832051E-1,-1.4103416E-1,-1.1119093E-1,-2.1613639E-2,3.6046617E-2,-8.426738E-3,1.1056242E-1,4.163518E-2,-6.960764E-2,-2.4024501E-1,-4.5446992E-2,2.063955E-1,-3.2172203E-3,6.5834686E-2,-1.6004087E-1,-3.788739E-2,6.2037777E-2,-1.9275557E-2,3.8142818E-1,6.482013E-2,1.2893166E-1,-4.455372E-2,9.254452E-2,-5.3121377E-2,-1.8519716E-1,-5.9761524E-2,4.1980916E-1,1.5655084E-1,8.731968E-2,-4.9644034E-2,1.375552E-1,1.9168945E-2,-2.770715E-1,-1.6858434E-2,9.465362E-2,4.130392E-1,-3.881979E-2,-2.4887086E-3],"categories":[],"categories_nodes":[],"categories_segments":[],"categories_sizes":[],"default_left":[0,0,0,0,0,0,0,0,0,0,0,0,0,0,0,0,0,0,0,0,0,0,0,0,0,0,0,0,0,0,0,0,0,0,0,0,0,0,0,0,0,0,0,0,0,0,0,0,0,0,0,0,0,0,0,0,0,0,0,0,0,0,0,0,0,0,0,0,0,0,0,0,0,0,0,0,0,0,0,0,0,0,0,0,0,0,0,0,0,0,0,0,0,0,0,0,0,0,0],"id":17,"left_children":[1,3,5,7,9,11,13,15,17,19,21,23,25,27,29,31,33,35,37,39,-1,41,43,45,47,49,51,53,55,-1,57,59,-1,61,63,-1,-1,65,-1,67,-1,69,71,-1,73,75,77,79,81,83,85,87,89,91,93,-1,95,-1,97,-1,-1,-1,-1,-1,-1,-1,-1,-1,-1,-1,-1,-1,-1,-1,-1,-1,-1,-1,-1,-1,-1,-1,-1,-1,-1,-1,-1,-1,-1,-1,-1,-1,-1,-1,-1,-1,-1,-1,-1],"loss_changes":[1.5883168E3,7.6274036E2,8.002586E2,3.2732532E2,2.2461345E2,4.2281808E2,6.3190857E2,1.9371484E2,7.0081635E1,6.683325E1,1.3906122E2,3.3612762E2,3.388837E2,3.1526782E2,2.2970374E2,2.1651144E1,5.2210938E1,1.646299E1,1.25780525E1,8.994148E0,0E0,1.0887794E2,6.0256805E0,7.375687E1,1.918617E2,2.1786008E2,1.9112265E2,2.2875049E2,3.0954443E2,0E0,9.278735E1,2.7987862E0,0E0,1.3404785E1,3.919876E0,0E0,0E0,1.3034958E0,0E0,4.7488022E-1,0E0,8.901352E0,7.168187E1,0E0,1.8197088E0,5.956169E0,1.0921804E1,1.61268E2,4.8166832E1,8.853514E1,1.0185101E2,4.7881226E1,3.988854E1,2.9772282E1,9.527672E1,0E0,1.8493225E2,0E0,3.0046004E-1,0E0,0E0,0E0,0E0,0E0,0E0,0E0,0E0,0E0,0E0,0E0,0E0,0E0,0E0,0E0,0E0,0E0,0E0,0E0,0E0,0E0,0E0,0E0,0E0,0E0,0E0,0E0,0E0,0E0,0E0,0E0,0E0,0E0,0E0,0E0,0E0,0E0,0E0,0E0,0E0],"parents":[2147483647,0,0,1,1,2,2,3,3,4,4,5,5,6,6,7,7,8,8,9,9,10,10,11,11,12,12,13,13,14,14,15,15,16,16,17,17,18,18,19,19,21,21,22,22,23,23,24,24,25,25,26,26,27,27,28,28,30,30,31,31,33,33,34,34,37,37,39,39,41,41,42,42,44,44,45,45,46,46,47,47,48,48,49,49,50,50,51,51,52,52,53,53,54,54,56,56,58,58],"right_children":[2,4,6,8,10,12,14,16,18,20,22,24,26,28,30,32,34,36,38,40,-1,42,44,46,48,50,52,54,56,-1,58,60,-1,62,64,-1,-1,66,-1,68,-1,70,72,-1,74,76,78,80,82,84,86,88,90,92,94,-1,96,-1,98,-1,-1,-1,-1,-1,-1,-1,-1,-1,-1,-1,-1,-1,-1,-1,-1,-1,-1,-1,-1,-1,-1,-1,-1,-1,-1,-1,-1,-1,-1,-1,-1,-1,-1,-1,-1,-1,-1,-1,-1],"split_conditions":[-1.0545506E0,6.4585733E-1,8.674E1,-6.2804186E-1,9.245352E-1,-2.9659903E-1,3.71E0,-1.2358038E0,1E-3,2.4225126E-1,6.4E0,7.4468327E-1,7.16063E-1,-4.7326547E-1,1.1339139E0,-7.101749E-1,5.728733E-1,8.16E1,3.03E0,-1.4014864E0,3.089115E-1,1.1473067E0,1.042765E0,2.3447518E-1,-1.3427019E0,-1.3769424E0,-3.525246E-1,4.128561E-1,1.3022274E0,7.0165426E-1,9E0,7.5199264E-1,-6.945862E-2,4.8907173E-1,1.6E-1,4.8672758E-2,2.5613007E-1,-1.1969869E0,-1.1499502E-1,1.3E-1,-3.059714E-2,-5.771246E-2,3.6E-1,1.3392472E-1,-7.246232E-1,8.2233E1,-5.556525E-2,-1.4591038E0,1.3926102E0,-6.7670816E-1,6.7620486E-1,8.044E1,-1.2993708E0,-1.2119213E0,-1.7102127E0,4.027732E-1,9.94E1,3.167533E-1,-7.3195815E-1,1.5836592E-1,2.7586555E-2,-2.2832051E-1,-1.4103416E-1,-1.1119093E-1,-2.1613639E-2,3.6046617E-2,-8.426738E-3,1.1056242E-1,4.163518E-2,-6.960764E-2,-2.4024501E-1,-4.5446992E-2,2.063955E-1,-3.2172203E-3,6.5834686E-2,-1.6004087E-1,-3.788739E-2,6.2037777E-2,-1.9275557E-2,3.8142818E-1,6.482013E-2,1.2893166E-1,-4.455372E-2,9.254452E-2,-5.3121377E-2,-1.8519716E-1,-5.9761524E-2,4.1980916E-1,1.5655084E-1,8.731968E-2,-4.9644034E-2,1.375552E-1,1.9168945E-2,-2.770715E-1,-1.6858434E-2,9.465362E-2,4.130392E-1,-3.881979E-2,-2.4887086E-3],"split_indices":[664,288,0,632,201,300,1,279,14,46,2,337,333,755,50,23,239,0,2,29,0,732,616,613,328,225,535,712,319,0,1,26,0,139,12,0,0,39,0,1,0,37,12,0,23,0,37,131,41,99,70,0,100,455,165,0,0,0,23,0,0,0,0,0,0,0,0,0,0,0,0,0,0,0,0,0,0,0,0,0,0,0,0,0,0,0,0,0,0,0,0,0,0,0,0,0,0,0,0],"split_type":[0,0,0,0,0,0,0,0,0,0,0,0,0,0,0,0,0,0,0,0,0,0,0,0,0,0,0,0,0,0,0,0,0,0,0,0,0,0,0,0,0,0,0,0,0,0,0,0,0,0,0,0,0,0,0,0,0,0,0,0,0,0,0,0,0,0,0,0,0,0,0,0,0,0,0,0,0,0,0,0,0,0,0,0,0,0,0,0,0,0,0,0,0,0,0,0,0,0,0],"sum_hessian":[5.93E2,2.39E2,3.54E2,1.44E2,9.5E1,2.05E2,1.49E2,1.32E2,1.2E1,1.6E1,7.9E1,6.1E1,1.44E2,1.24E2,2.5E1,5E0,1.27E2,5E0,7E0,1.1E1,5E0,6.4E1,1.5E1,2.5E1,3.6E1,1.14E2,3E1,3.5E1,8.9E1,4E0,2.1E1,4E0,1E0,1.15E2,1.2E1,2E0,3E0,5E0,2E0,1E1,1E0,9E0,5.5E1,8E0,7E0,9E0,1.6E1,2.1E1,1.5E1,4.2E1,7.2E1,1E1,2E1,2.1E1,1.4E1,1E1,7.9E1,1.9E1,2E0,3E0,1E0,1.04E2,1.1E1,1E1,2E0,2E0,3E0,8E0,2E0,2E0,7E0,5.3E1,2E0,1E0,6E0,7E0,2E0,1E1,6E0,1.5E1,6E0,9E0,6E0,1.6E1,2.6E1,4.5E1,2.7E1,3E0,7E0,8E0,1.2E1,1E1,1.1E1,8E0,6E0,7.5E1,4E0,1E0,1E0],"tree_param":{"num_deleted":"0","num_feature":"791","num_nodes":"99","size_leaf_vector":"1"}},{"base_weights":[6.646594E-2,-2.5420709E0,1.0386963E0,-3.8839555E-1,-3.9811494E0,-1.1443939E-1,2.6195247E0,5.031657E0,-9.9407256E-1,-4.274284E0,-5.4231334E-1,-1.9174203E0,6.975378E-1,9.792621E0,2.0340538E0,1.9008446E-2,2.871772E-1,-1.8277235E0,1.3201637E0,-2.1622871E-1,-6.704118E-2,-1.5793216E0,1.0290718E-1,-2.6356938E0,7.42965E-1,5.3456182E0,2.1147127E-1,2.953303E0,6.6320485E-1,5.6279902E0,1.484089E0,-1.2320272E0,-4.5032783E0,-6.3327E-1,2.503502E-1,-1.8467966E0,6.3822273E-4,-1.0070325E0,-3.7969594E0,1.6338793E0,-1.9001882E0,2.1929529E0,7.904326E0,1.9459068E0,-6.3421327E-1,-5.08831E-1,2.4057889E-1,3.0462483E-1,1.3686346E-1,-9.358642E-1,2.2037044E0,-1.2001536E-1,2.105297E-2,-2.599336E-1,9.111941E-3,-1.3487314E-1,1.3980462E-1,-1.090884E-1,-4.298508E-3,9.632122E-2,-7.881048E-2,-1.0847276E-1,-2.4040048E-1,1.0890178E-1,2.7266597E-2,-1.5325122E-1,-4.213616E-2,1.7397337E-1,2.3392392E-2,4.2348918E-1,8.4516525E-2,3.951225E-1,6.556671E-2,-5.7910762E-5,-1.351886E-1,-3.130436E-4,-3.7849285E-2,-2.649479E-1,-3.060267E-3,1.3150929E-1,-9.0913445E-2],"categories":[],"categories_nodes":[],"categories_segments":[],"categories_sizes":[],"default_left":[0,0,0,0,0,0,0,0,0,0,0,0,0,0,0,0,0,0,0,0,0,0,0,0,0,0,0,0,0,0,0,0,0,0,0,0,0,0,0,0,0,0,0,0,0,0,0,0,0,0,0,0,0,0,0,0,0,0,0,0,0,0,0,0,0,0,0,0,0,0,0,0,0,0,0,0,0,0,0,0,0],"id":18,"left_children":[1,3,5,7,9,11,13,15,17,19,21,23,25,27,29,-1,-1,31,33,-1,-1,35,-1,37,39,41,43,45,-1,47,49,51,53,55,-1,57,-1,59,61,63,65,67,69,71,73,75,-1,-1,-1,77,79,-1,-1,-1,-1,-1,-1,-1,-1,-1,-1,-1,-1,-1,-1,-1,-1,-1,-1,-1,-1,-1,-1,-1,-1,-1,-1,-1,-1,-1,-1],"loss_changes":[1.5598049E3,5.160381E2,8.1696326E2,2.2823233E2,9.848633E1,3.8197208E2,7.73813E2,2.0995834E1,1.2202734E2,7.7735596E0,2.752073E1,1.5673987E2,4.055393E2,2.932224E2,3.3951843E2,0E0,0E0,6.776747E1,1.2560476E2,0E0,0E0,3.0044765E0,0E0,1.1722003E2,4.5491497E1,1.19800934E2,2.4178691E2,4.1049862E1,0E0,1.4206604E1,2.7024344E2,7.633014E1,2.7013626E1,9.248873E1,0E0,3.3513908E0,0E0,4.978683E1,5.045233E1,7.1050034E0,3.575901E0,1.8346489E1,1.7307007E1,1.9374959E2,1.4542291E2,3.6940604E-1,0E0,0E0,0E0,1.3705954E2,2.0890265E2,0E0,0E0,0E0,0E0,0E0,0E0,0E0,0E0,0E0,0E0,0E0,0E0,0E0,0E0,0E0,0E0,0E0,0E0,0E0,0E0,0E0,0E0,0E0,0E0,0E0,0E0,0E0,0E0,0E0,0E0],"parents":[2147483647,0,0,1,1,2,2,3,3,4,4,5,5,6,6,7,7,8,8,9,9,10,10,11,11,12,12,13,13,14,14,17,17,18,18,21,21,23,23,24,24,25,25,26,26,27,27,29,29,30,30,31,31,32,32,33,33,35,35,37,37,38,38,39,39,40,40,41,41,42,42,43,43,44,44,45,45,49,49,50,50],"right_children":[2,4,6,8,10,12,14,16,18,20,22,24,26,28,30,-1,-1,32,34,-1,-1,36,-1,38,40,42,44,46,-1,48,50,52,54,56,-1,58,-1,60,62,64,66,68,70,72,74,76,-1,-1,-1,78,80,-1,-1,-1,-1,-1,-1,-1,-1,-1,-1,-1,-1,-1,-1,-1,-1,-1,-1,-1,-1,-1,-1,-1,-1,-1,-1,-1,-1,-1,-1],"split_conditions":[6.529669E-1,-1.2715316E0,8.72E1,1.840703E-1,-1.2642235E0,5.662729E-1,-1.0561408E0,8.16E1,3.561441E-1,1E-2,9.6E-3,5.41E0,-7.9966766E-1,1.6377807E0,8.74E1,1.9008446E-2,2.871772E-1,2.7E-2,9.418125E-1,-2.1622871E-1,-6.704118E-2,7.451686E-1,1.0290718E-1,1.2843288E0,1.1378419E0,-1.1389067E0,-2.4636856E-1,8.816E1,6.6320485E-1,1.0408025E0,-6.737341E-1,1.006507E0,1E0,9.8E1,2.503502E-1,5.1E0,6.3822273E-4,1.4784459E0,-7.746884E-1,7.1248025E-1,1.3E-1,1.2988517E0,7.25E1,7.791085E-1,-3.9761102E-1,8.745E1,2.4057889E-1,3.0462483E-1,1.3686346E-1,5.2303815E-1,-1.3814335E0,-1.2001536E-1,2.105297E-2,-2.599336E-1,9.111941E-3,-1.3487314E-1,1.3980462E-1,-1.090884E-1,-4.298508E-3,9.632122E-2,-7.881048E-2,-1.0847276E-1,-2.4040048E-1,1.0890178E-1,2.7266597E-2,-1.5325122E-1,-4.213616E-2,1.7397337E-1,2.3392392E-2,4.2348918E-1,8.4516525E-2,3.951225E-1,6.556671E-2,-5.7910762E-5,-1.351886E-1,-3.130436E-4,-3.7849285E-2,-2.649479E-1,-3.060267E-3,1.3150929E-1,-9.0913445E-2],"split_indices":[145,766,0,44,766,340,341,0,273,18,13,2,549,401,0,0,0,11,147,0,0,26,0,228,50,161,570,0,0,623,474,269,11,0,0,1,0,706,509,333,1,27,0,505,310,0,0,0,0,251,143,0,0,0,0,0,0,0,0,0,0,0,0,0,0,0,0,0,0,0,0,0,0,0,0,0,0,0,0,0,0],"split_type":[0,0,0,0,0,0,0,0,0,0,0,0,0,0,0,0,0,0,0,0,0,0,0,0,0,0,0,0,0,0,0,0,0,0,0,0,0,0,0,0,0,0,0,0,0,0,0,0,0,0,0,0,0,0,0,0,0,0,0,0,0,0,0,0,0,0,0,0,0,0,0,0,0,0,0,0,0,0,0,0,0],"sum_hessian":[6.13E2,1.66E2,4.47E2,6.7E1,9.9E1,2.59E2,1.88E2,6E0,6.1E1,9.1E1,8E0,8E1,1.79E2,1.3E1,1.75E2,1E0,5E0,4.5E1,1.6E1,8.9E1,2E0,6E0,2E0,6.3E1,1.7E1,1.6E1,1.63E2,5E0,8E0,2.2E1,1.53E2,3.8E1,7E0,1.1E1,5E0,5E0,1E0,2.7E1,3.6E1,1.3E1,4E0,8E0,8E0,5.3E1,1.1E2,2E0,3E0,1.8E1,4E0,3.5E1,1.18E2,2.2E1,1.6E1,6E0,1E0,7E0,4E0,4E0,1E0,4E0,2.3E1,1.5E1,2.1E1,8E0,5E0,1E0,3E0,4E0,4E0,7E0,1E0,4E0,4.9E1,8.5E1,2.5E1,1E0,1E0,5E0,3E1,1.07E2,1.1E1],"tree_param":{"num_deleted":"0","num_feature":"791","num_nodes":"81","size_leaf_vector":"1"}},{"base_weights":[5.231802E-2,-1.9116337E0,1.3379651E0,1.5265815E-1,-3.025198E0,2.1930172E-1,2.8137686E0,-3.044015E-1,5.2238E0,-3.7576754E0,-4.274118E-1,-2.502953E-1,4.3905087E0,2.37088E0,1.0710851E1,-1.249683E0,1.5274149E0,2.869964E-1,5.3175833E-2,-1.5108738E0,-4.0401692E0,-1.8595498E0,1.6060754E0,-1.6370184E0,5.5587435E-1,7.310935E0,-1.2690512E0,3.7541178E-1,3.5011942E0,1.3065001E1,1.21613316E-1,-4.078769E0,-6.426045E-1,-7.590499E-2,2.2885818E0,-2.0710702E0,1.420268E0,-4.318531E0,-2.9655368E0,5.14884E-2,-3.2971191E0,2.174915E0,-6.971276E-2,-2.7350812E0,1.7237838E-1,2.7636635E-1,6.8733835E0,8.612032E0,1.9051852E0,-1.7860435E-1,8.2718754E-1,5.2260786E-1,-2.0205328E-1,3.7329555E0,-2.4252355E-1,1.4123261E1,1.9434248E-1,-2.3248501E-1,-6.935041E-2,-5.054146E-2,1.2158572E-1,2.2365163E-1,9.2324264E-2,-1.2039168E-1,-7.295704E-3,5.8882235E-4,1.0593128E-1,-5.8378674E-2,-2.1715085E-1,-1.6840343E-1,-7.2465144E-2,-6.0804464E-2,5.4961085E-2,-1.755859E-1,-2.3413325E-2,4.7501605E-2,1.4108565E-1,7.736539E-2,-1.5474716E-1,6.7087375E-2,-8.252495E-2,-9.549808E-2,4.3698445E-2,4.578869E-1,1.1489506E-1,4.5344612E-1,1.01078175E-1,2.5961494E-2,1.0970469E-1,7.79391E-2,-9.006802E-3,-1.6110502E-1,3.8022537E-2,2.5756174E-1,1.0528263E-1,7.800752E-1,2.0525733E-1],"categories":[],"categories_nodes":[],"categories_segments":[],"categories_sizes":[],"default_left":[0,0,0,0,0,0,0,0,0,0,0,0,0,0,0,0,0,0,0,0,0,0,0,0,0,0,0,0,0,0,0,0,0,0,0,0,0,0,0,0,0,0,0,0,0,0,0,0,0,0,0,0,0,0,0,0,0,0,0,0,0,0,0,0,0,0,0,0,0,0,0,0,0,0,0,0,0,0,0,0,0,0,0,0,0,0,0,0,0,0,0,0,0,0,0,0,0],"id":19,"left_children":[1,3,5,7,9,11,13,15,17,19,21,23,25,27,29,31,33,-1,-1,35,37,39,41,43,45,47,49,51,53,55,-1,57,59,-1,61,63,65,67,69,71,73,75,-1,77,79,81,83,85,87,-1,89,-1,91,93,-1,95,-1,-1,-1,-1,-1,-1,-1,-1,-1,-1,-1,-1,-1,-1,-1,-1,-1,-1,-1,-1,-1,-1,-1,-1,-1,-1,-1,-1,-1,-1,-1,-1,-1,-1,-1,-1,-1,-1,-1,-1,-1],"loss_changes":[1.5124772E3,5.452587E2,5.970187E2,1.9628653E2,2.914281E2,4.0656772E2,5.202202E2,1.369722E2,8.926147E0,7.006079E1,1.0491478E2,2.0996364E2,3.5637283E2,3.3475604E2,1.2413464E2,8.66878E1,6.6064224E1,0E0,0E0,2.7571697E1,1.8901733E1,5.786199E1,2.8632996E1,1.3756282E2,2.0822995E2,8.206006E1,4.1576485E1,3.2215515E2,2.0198792E2,3.3823242E0,0E0,7.3821106E0,5.2267815E1,0E0,1.2986855E1,8.076855E0,2.925943E0,1.2558594E0,1.0376953E1,1.4617585E1,5.6404114E0,7.618557E0,0E0,7.105475E1,5.9768192E1,1.519231E2,3.1216537E1,1.4789001E1,4.624176E-1,0E0,3.9655542E0,0E0,1.5651105E2,2.0379443E2,0E0,9.999573E0,0E0,0E0,0E0,0E0,0E0,0E0,0E0,0E0,0E0,0E0,0E0,0E0,0E0,0E0,0E0,0E0,0E0,0E0,0E0,0E0,0E0,0E0,0E0,0E0,0E0,0E0,0E0,0E0,0E0,0E0,0E0,0E0,0E0,0E0,0E0,0E0,0E0,0E0,0E0,0E0,0E0],"parents":[2147483647,0,0,1,1,2,2,3,3,4,4,5,5,6,6,7,7,8,8,9,9,10,10,11,11,12,12,13,13,14,14,15,15,16,16,19,19,20,20,21,21,22,22,23,23,24,24,25,25,26,26,27,27,28,28,29,29,31,31,32,32,34,34,35,35,36,36,37,37,38,38,39,39,40,40,41,41,43,43,44,44,45,45,46,46,47,47,48,48,50,50,52,52,53,53,55,55],"right_children":[2,4,6,8,10,12,14,16,18,20,22,24,26,28,30,32,34,-1,-1,36,38,40,42,44,46,48,50,52,54,56,-1,58,60,-1,62,64,66,68,70,72,74,76,-1,78,80,82,84,86,88,-1,90,-1,92,94,-1,96,-1,-1,-1,-1,-1,-1,-1,-1,-1,-1,-1,-1,-1,-1,-1,-1,-1,-1,-1,-1,-1,-1,-1,-1,-1,-1,-1,-1,-1,-1,-1,-1,-1,-1,-1,-1,-1,-1,-1,-1,-1],"split_conditions":[-1.054886E0,-3.7535378E-3,8.674E1,1.4126816E0,-3.7089747E-1,2.5E1,2.86E0,6.13E0,4.275765E-1,6.329356E-1,8.349169E-1,8.9929366E-1,-9.354425E-2,-9.961484E-1,2E-2,-8.9676726E-1,1.284684E0,2.869964E-1,5.3175833E-2,9.406405E-1,-5.8779585E-1,1.3449321E0,1.3413961E0,6.9730216E-1,3.629848E-3,-1.4591038E0,1.2951548E0,-1.4867698E0,3E0,1.8E-2,1.21613316E-1,5.87E0,1.5141152E0,-7.590499E-2,9.565396E-1,3E-1,8.595E1,1.2878414E0,7.8E-1,6.555E1,9.9047E1,-3.6896724E-1,-6.971276E-2,-1.2059251E0,1.4715453E0,5.501167E-1,7.1E-2,2E-2,2.97E1,-1.7860435E-1,7.355715E-1,5.2260786E-1,-2.6859647E-1,2.5495939E-2,-2.4252355E-1,9.03E1,1.9434248E-1,-2.3248501E-1,-6.935041E-2,-5.054146E-2,1.2158572E-1,2.2365163E-1,9.2324264E-2,-1.2039168E-1,-7.295704E-3,5.8882235E-4,1.0593128E-1,-5.8378674E-2,-2.1715085E-1,-1.6840343E-1,-7.2465144E-2,-6.0804464E-2,5.4961085E-2,-1.755859E-1,-2.3413325E-2,4.7501605E-2,1.4108565E-1,7.736539E-2,-1.5474716E-1,6.7087375E-2,-8.252495E-2,-9.549808E-2,4.3698445E-2,4.578869E-1,1.1489506E-1,4.5344612E-1,1.01078175E-1,2.5961494E-2,1.0970469E-1,7.79391E-2,-9.006802E-3,-1.6110502E-1,3.8022537E-2,2.5756174E-1,1.0528263E-1,7.800752E-1,2.0525733E-1],"split_indices":[664,320,0,82,740,7,6,2,24,416,434,399,383,158,9,178,228,0,0,98,752,294,311,360,320,131,27,330,12,12,0,2,384,0,428,9,0,27,4,0,0,523,0,39,351,489,12,9,7,0,26,0,215,289,0,0,0,0,0,0,0,0,0,0,0,0,0,0,0,0,0,0,0,0,0,0,0,0,0,0,0,0,0,0,0,0,0,0,0,0,0,0,0,0,0,0,0],"split_type":[0,0,0,0,0,0,0,0,0,0,0,0,0,0,0,0,0,0,0,0,0,0,0,0,0,0,0,0,0,0,0,0,0,0,0,0,0,0,0,0,0,0,0,0,0,0,0,0,0,0,0,0,0,0,0,0,0,0,0,0,0,0,0,0,0,0,0,0,0,0,0,0,0,0,0,0,0,0,0,0,0,0,0,0,0,0,0,0,0,0,0,0,0,0,0,0,0],"sum_hessian":[5.97E2,2.36E2,3.61E2,8.3E1,1.53E2,2.06E2,1.55E2,7.7E1,6E0,1.19E2,3.4E1,1.86E2,2E1,1.48E2,7E0,5.1E1,2.6E1,5E0,1E0,1.4E1,1.05E2,2E1,1.4E1,6.8E1,1.18E2,1.3E1,7E0,5.4E1,9.4E1,5E0,2E0,8E0,4.3E1,5E0,2.1E1,1.2E1,2E0,8.1E1,2.4E1,9E0,1.1E1,1.2E1,2E0,4.2E1,2.6E1,1.14E2,4E0,1E1,3E0,3E0,4E0,2E0,5.2E1,9.2E1,2E0,4E0,1E0,6E0,2E0,3.9E1,4E0,2E0,1.9E1,1E1,2E0,1E0,1E0,1E0,8E1,1.8E1,6E0,4E0,5E0,1E1,1E0,5E0,7E0,3E0,3.9E1,1.6E1,1E1,2.4E1,9E1,2E0,2E0,9E0,1E0,1E0,2E0,2E0,2E0,1.2E1,4E1,4.8E1,4.4E1,3E0,1E0],"tree_param":{"num_deleted":"0","num_feature":"791","num_nodes":"97","size_leaf_vector":"1"}},{"base_weights":[-3.4416776E-2,-1.7586123E0,1.1166933E0,-5.465809E-1,-3.692109E0,9.7375944E-2,2.4393015E0,4.6291623E-1,-1.8842956E0,-6.13644E-1,-3.8206828E0,-1.6816986E-1,6.8234286E0,5.66525E-1,2.0816958E0,1.7530991E0,-8.088829E-1,1.0881962E-1,-2.3266375E0,-5.3274717E-2,2.9843926E-2,-1.9977437E-1,-2.33693E0,3.9967462E-1,-2.8914905E-1,4.1473666E-1,1.6063429E0,2.9401832E0,-1.0124352E-1,4.7996573E0,8.325653E-1,3.977893E-1,-1.7059814E0,-6.3439846E-1,-2.9809089E0,-6.93595E-2,-3.0554717E0,9.5152247E-1,-1.1172916E0,9.855123E-2,2.1924496E-2,2.3617923E0,8.036155E0,-2.4516757E0,1.8771693E0,3.2494986E-1,3.12949E-2,2.0897312E-2,3.7324035E-1,7.517177E-2,-1.609918E-1,-1.3033025E-1,-2.190184E-2,-8.762233E-2,9.468861E-2,-2.0083014E-2,-1.7356361E-1,-1.6970994E-1,-3.4045912E-2,-2.3052463E-2,9.4171375E-2,-6.727587E-2,2.9473457E-1,-6.019121E-2,1.4713646E-1,2.0834835E-1,5.2829915E-1,5.1584613E-2,-1.6659898E-1,3.037794E-2,2.5275442E-1],"categories":[],"categories_nodes":[],"categories_segments":[],"categories_sizes":[],"default_left":[0,0,0,0,0,0,0,0,0,0,0,0,0,0,0,0,0,0,0,0,0,0,0,0,0,0,0,0,0,0,0,0,0,0,0,0,0,0,0,0,0,0,0,0,0,0,0,0,0,0,0,0,0,0,0,0,0,0,0,0,0,0,0,0,0,0,0,0,0,0,0],"id":20,"left_children":[1,3,5,7,9,11,13,15,17,19,21,23,25,-1,27,29,31,-1,33,-1,-1,-1,35,-1,37,-1,39,41,43,45,47,49,51,53,55,-1,57,59,61,-1,-1,63,65,67,69,-1,-1,-1,-1,-1,-1,-1,-1,-1,-1,-1,-1,-1,-1,-1,-1,-1,-1,-1,-1,-1,-1,-1,-1,-1,-1],"loss_changes":[1.2245629E3,5.768163E2,4.9858075E2,2.0748639E2,3.5257446E1,3.7622324E2,4.883197E2,1.4581314E2,1.2361372E2,3.3708453E0,1.4265259E1,2.0275172E2,4.808319E1,0E0,2.9264563E2,1.1940019E2,4.939129E1,0E0,6.453992E1,0E0,0E0,0E0,3.9506073E0,0E0,2.0758113E2,0E0,4.1340876E-1,3.1113617E2,2.1385783E2,6.685864E1,9.3125E1,8.483708E1,2.8548676E1,5.4197826E1,5.2990784E1,0E0,2.514782E0,1.07495346E2,2.0156953E2,0E0,0E0,2.1482526E2,6.3644104E1,6.783244E1,9.7796715E1,0E0,0E0,0E0,0E0,0E0,0E0,0E0,0E0,0E0,0E0,0E0,0E0,0E0,0E0,0E0,0E0,0E0,0E0,0E0,0E0,0E0,0E0,0E0,0E0,0E0,0E0],"parents":[2147483647,0,0,1,1,2,2,3,3,4,4,5,5,6,6,7,7,8,8,9,9,10,10,11,11,12,12,14,14,15,15,16,16,18,18,22,22,24,24,26,26,27,27,28,28,29,29,30,30,31,31,32,32,33,33,34,34,36,36,37,37,38,38,41,41,42,42,43,43,44,44],"right_children":[2,4,6,8,10,12,14,16,18,20,22,24,26,-1,28,30,32,-1,34,-1,-1,-1,36,-1,38,-1,40,42,44,46,48,50,52,54,56,-1,58,60,62,-1,-1,64,66,68,70,-1,-1,-1,-1,-1,-1,-1,-1,-1,-1,-1,-1,-1,-1,-1,-1,-1,-1,-1,-1,-1,-1,-1,-1,-1,-1],"split_conditions":[-1.0547369E0,-1.2700353E0,8.665E1,-2.526704E-3,-1.152548E0,6.7942053E-1,5.5328304E-1,-7.402604E-1,6.458676E-1,7.4507946E-1,1.51E0,1.2730665E0,1.3002695E0,5.66525E-1,1.85E-1,-6.1306226E-1,9.851626E-1,1.0881962E-1,-2.1703419E-1,-5.3274717E-2,2.9843926E-2,-1.9977437E-1,8.19325E-1,3.9967462E-1,-5.556525E-2,4.1473666E-1,6.355E1,-9.507669E-1,-2.2060609E-1,-7.125495E-1,9.8E1,5.3E0,-9.794735E-2,-1.0565829E0,1.4533105E0,-6.93595E-2,8.9548E1,1.4879829E0,1.01E0,9.855123E-2,2.1924496E-2,1.3725144E0,-1.2448199E0,-1.1158009E0,8.630863E-1,3.2494986E-1,3.12949E-2,2.0897312E-2,3.7324035E-1,7.517177E-2,-1.609918E-1,-1.3033025E-1,-2.190184E-2,-8.762233E-2,9.468861E-2,-2.0083014E-2,-1.7356361E-1,-1.6970994E-1,-3.4045912E-2,-2.3052463E-2,9.4171375E-2,-6.727587E-2,2.9473457E-1,-6.019121E-2,1.4713646E-1,2.0834835E-1,5.2829915E-1,5.1584613E-2,-1.6659898E-1,3.037794E-2,2.5275442E-1],"split_indices":[664,766,0,320,28,546,427,153,561,26,4,228,27,0,9,771,235,0,580,0,0,0,25,0,37,0,0,152,709,23,0,5,650,664,652,0,0,430,10,0,0,397,68,405,412,0,0,0,0,0,0,0,0,0,0,0,0,0,0,0,0,0,0,0,0,0,0,0,0,0,0],"split_type":[0,0,0,0,0,0,0,0,0,0,0,0,0,0,0,0,0,0,0,0,0,0,0,0,0,0,0,0,0,0,0,0,0,0,0,0,0,0,0,0,0,0,0,0,0,0,0,0,0,0,0,0,0,0,0,0,0,0,0,0,0,0,0,0,0,0,0,0,0,0,0],"sum_hessian":[6.15E2,