{"learner":{"attributes":{"best_iteration":"178","best_score":"185.8680730420296"},"feature_names":[],"feature_types":[],"gradient_booster":{"model":{"gbtree_model_param":{"num_parallel_tree":"1","num_trees":"200"},"iteration_indptr":[0,1,2,3,4,5,6,7,8,9,10,11,12,13,14,15,16,17,18,19,20,21,22,23,24,25,26,27,28,29,30,31,32,33,34,35,36,37,38,39,40,41,42,43,44,45,46,47,48,49,50,51,52,53,54,55,56,57,58,59,60,61,62,63,64,65,66,67,68,69,70,71,72,73,74,75,76,77,78,79,80,81,82,83,84,85,86,87,88,89,90,91,92,93,94,95,96,97,98,99,100,101,102,103,104,105,106,107,108,109,110,111,112,113,114,115,116,117,118,119,120,121,122,123,124,125,126,127,128,129,130,131,132,133,134,135,136,137,138,139,140,141,142,143,144,145,146,147,148,149,150,151,152,153,154,155,156,157,158,159,160,161,162,163,164,165,166,167,168,169,170,171,172,173,174,175,176,177,178,179,180,181,182,183,184,185,186,187,188,189,190,191,192,193,194,195,196,197,198,199,200],"tree_info":[0,0,0,0,0,0,0,0,0,0,0,0,0,0,0,0,0,0,0,0,0,0,0,0,0,0,0,0,0,0,0,0,0,0,0,0,0,0,0,0,0,0,0,0,0,0,0,0,0,0,0,0,0,0,0,0,0,0,0,0,0,0,0,0,0,0,0,0,0,0,0,0,0,0,0,0,0,0,0,0,0,0,0,0,0,0,0,0,0,0,0,0,0,0,0,0,0,0,0,0,0,0,0,0,0,0,0,0,0,0,0,0,0,0,0,0,0,0,0,0,0,0,0,0,0,0,0,0,0,0,0,0,0,0,0,0,0,0,0,0,0,0,0,0,0,0,0,0,0,0,0,0,0,0,0,0,0,0,0,0,0,0,0,0,0,0,0,0,0,0,0,0,0,0,0,0,0,0,0,0,0,0,0,0,0,0,0,0,0,0,0,0,0,0,0,0,0,0,0,0],"trees":[{"base_weights":[7.728352E0,-1.7687585E2,6.429675E1,-8.3543427E2,-1.3098186E2,1.3644254E1,2.4650931E2,-7.877838E0,-4.502372E1,-3.1342426E2,-4.333345E1,2.5327814E1,-4.1164543E1,2.8714584E2,-7.542072E1,-1.6560538E2,-3.948871E2,-9.086804E1,1.8516418E2,-7.7262115E1,7.694741E1,2.1526279E2,4.5304468E2,3.4617836E1,-4.1707568E2,-9.892682E0,-1.1335144E1,-2.0153536E1,-4.5528383E0,-2.0564543E1,-6.73544E1,1.9877054E1,2.584877E2,-4.8921204E2,-4.346916E1,-5.0170128E1,1.1188412E2,2.3856828E2,1.0548213E2,2.6073568E1,2.3390067E2,1.334292E2,-5.349461E1,-5.5528383E0,-2.5727839E1,1.5721619E0,-1.8037843E0,-4.8223886E0,5.1374755E0,2.2457428E0,-1.0066183E0,5.5128827E0,1.3958844E1,-3.1564543E1,-1.2464541E1,-1.351929E0,-2.4016758E1,-1.1712414E1,8.597809E-1,-5.4060977E-2,8.009145E0,1.2271607E1,2.2323833E0,6.614385E0,-1.3982849E0,4.696216E0,1.324527E1,1.6671631E0,7.5057435E0,4.5621544E-1,-4.354257E0],"categories":[],"categories_nodes":[],"categories_segments":[],"categories_sizes":[],"default_left":[0,0,0,0,0,0,0,0,0,0,0,0,0,0,0,0,0,0,0,0,0,0,0,0,0,0,0,0,0,0,0,0,0,0,0,0,0,0,0,0,0,0,0,0,0,0,0,0,0,0,0,0,0,0,0,0,0,0,0,0,0,0,0,0,0,0,0,0,0,0,0],"id":0,"left_children":[1,3,5,7,9,11,13,-1,-1,15,17,19,-1,21,23,25,27,29,31,33,35,37,39,41,43,-1,45,-1,-1,-1,47,49,51,53,55,57,59,61,63,-1,65,67,69,-1,-1,-1,-1,-1,-1,-1,-1,-1,-1,-1,-1,-1,-1,-1,-1,-1,-1,-1,-1,-1,-1,-1,-1,-1,-1,-1,-1],"loss_changes":[6.2770315E6,4.1521395E6,4.2422165E6,2.54927E5,2.1131925E6,3.5508478E6,1.3298685E6,0E0,0E0,4.524E5,1.00522575E6,1.8964924E6,0E0,9.6383E5,4.6558088E5,8.233141E4,3.04305E4,5.449049E5,1.8877294E5,1.6492549E6,1.0625876E6,1.3857875E5,2.67905E5,9.420285E4,3.2348125E4,0E0,5.3677773E3,0E0,0E0,0E0,3.662304E5,6.9147295E3,2.9529375E3,1.494145E5,7.9094406E5,6.4885725E5,1.02046175E6,5.82565E4,5.0202406E4,0E0,9.838406E3,3.3446875E3,1.341501E4,0E0,0E0,0E0,0E0,0E0,0E0,0E0,0E0,0E0,0E0,0E0,0E0,0E0,0E0,0E0,0E0,0E0,0E0,0E0,0E0,0E0,0E0,0E0,0E0,0E0,0E0,0E0,0E0],"parents":[2147483647,0,0,1,1,2,2,3,3,4,4,5,5,6,6,9,9,10,10,11,11,13,13,14,14,15,15,16,16,17,17,18,18,19,19,20,20,21,21,22,22,23,23,24,24,26,26,30,30,31,31,32,32,33,33,34,34,35,35,36,36,37,37,38,38,40,40,41,41,42,42],"right_children":[2,4,6,8,10,12,14,-1,-1,16,18,20,-1,22,24,26,28,30,32,34,36,38,40,42,44,-1,46,-1,-1,-1,48,50,52,54,56,58,60,62,64,-1,66,68,70,-1,-1,-1,-1,-1,-1,-1,-1,-1,-1,-1,-1,-1,-1,-1,-1,-1,-1,-1,-1,-1,-1,-1,-1,-1,-1,-1,-1],"split_conditions":[-8.9099415E-2,-1.0169426E-1,1.1E0,6.728E1,-3.731285E-3,8.430704E-2,5.2248985E-2,-7.877838E0,-4.502372E1,5.951537E-2,3.681152E-2,-2.862326E-2,-4.1164543E1,-7.920801E-3,5.08E0,-2.4809852E-2,8.747E1,-4.963935E-3,-2.216033E-2,-6.71187E-2,3.0741353E-2,3.5244264E-2,6.320252E-2,-6.5578945E-2,8.2E1,-9.892682E0,7.65E1,-2.0153536E1,-4.5528383E0,-2.0564543E1,3.9248785E-4,8.4E1,2.3022015E-2,-3.685707E-2,5.1611464E-2,-5.4914605E-2,-3.464665E-2,6.353299E-2,-2.9682135E-2,2.6073568E1,3.3114366E-2,5.0172437E-2,2.5E0,-5.5528383E0,-2.5727839E1,1.5721619E0,-1.8037843E0,-4.8223886E0,5.1374755E0,2.2457428E0,-1.0066183E0,5.5128827E0,1.3958844E1,-3.1564543E1,-1.2464541E1,-1.351929E0,-2.4016758E1,-1.1712414E1,8.597809E-1,-5.4060977E-2,8.009145E0,1.2271607E1,2.2323833E0,6.614385E0,-1.3982849E0,4.696216E0,1.324527E1,1.6671631E0,7.5057435E0,4.5621544E-1,-4.354257E0],"split_indices":[28,100,6,0,324,300,356,0,0,243,377,162,0,337,1,241,0,339,75,305,353,391,312,27,0,0,0,0,0,0,369,0,38,27,352,249,127,186,40,0,26,26,6,0,0,0,0,0,0,0,0,0,0,0,0,0,0,0,0,0,0,0,0,0,0,0,0,0,0,0,0],"split_type":[0,0,0,0,0,0,0,0,0,0,0,0,0,0,0,0,0,0,0,0,0,0,0,0,0,0,0,0,0,0,0,0,0,0,0,0,0,0,0,0,0,0,0,0,0,0,0,0,0,0,0,0,0,0,0,0,0,0,0,0,0,0,0,0,0,0,0,0,0,0,0],"sum_hessian":[5.99E2,1.4E2,4.59E2,8E0,1.32E2,3.6E2,9.9E1,1E0,7E0,4.2E1,9E1,3.56E2,4E0,8.8E1,1.1E1,1.6E1,2.6E1,7.5E1,1.5E1,1.19E2,2.37E2,6.3E1,2.5E1,9E0,2E0,1.3E1,3E0,2.5E1,1E0,4E0,7.1E1,5E0,1E1,8E0,1.11E2,5.1E1,1.86E2,5.1E1,1.2E1,1.8E1,7E0,4E0,5E0,1E0,1E0,1E0,2E0,6.1E1,1E1,3E0,2E0,2E0,8E0,4E0,4E0,1.08E2,3E0,1.3E1,3.8E1,5.6E1,1.3E2,4.9E1,2E0,1E1,2E0,2E0,5E0,1E0,3E0,2E0,3E0],"tree_param":{"num_deleted":"0","num_feature":"407","num_nodes":"71","size_leaf_vector":"1"}},{"base_weights":[-1.0327524E0,2.7489609E1,-3.698095E2,8.491839E1,-2.035079E2,-2.8529112E1,-7.259828E2,1.6664433E2,1.0163922E1,-4.7909706E1,-3.1702673E2,-7.108103E1,1.0388151E2,-4.6331593E1,-6.992169E1,5.0501604E0,2.0397795E2,-4.359711E0,4.2100153E2,6.0724E1,-1.3465163E2,-1.947243E1,-9.3892914E1,-8.594933E1,2.445343E0,6.6772157E-1,5.965802E0,5.449826E1,-1.0625387E1,1.5152261E2,-1.16168396E2,2.7992624E2,1.238916E2,1.7445032E1,-2.5850616E2,4.79305E2,3.21933E-1,1.1348369E2,-2.8093737E1,-1.5504962E2,-3.741701E1,-8.718353E0,-1.11521866E2,-2.335425E0,-4.7986255E0,-4.7075602E-1,9.5066833E-1,-7.2806704E-1,4.1185956E0,5.3566194E0,1.1492303E1,-3.792017E0,-2.5084642E1,1.18910475E1,2.2726812E1,1.4283098E-2,8.067181E0,-7.216378E-1,5.9871306E0,-1.6277304E1,2.8760002E0,2.6018814E1,5.8219333E0,3.017526E0,7.2894874E0,8.93573E-1,-3.4220092E0,-8.063811E0,-6.0727847E-1,-2.5239975E0,-3.7637126E-1,-9.70459E-3,-8.5727847E-1,-2.25872E0,-5.9407625E0],"categories":[],"categories_nodes":[],"categories_segments":[],"categories_sizes":[],"default_left":[0,0,0,0,0,0,0,0,0,0,0,0,0,0,0,0,0,0,0,0,0,0,0,0,0,0,0,0,0,0,0,0,0,0,0,0,0,0,0,0,0,0,0,0,0,0,0,0,0,0,0,0,0,0,0,0,0,0,0,0,0,0,0,0,0,0,0,0,0,0,0,0,0,0,0],"id":1,"left_children":[1,3,5,7,9,11,13,15,17,19,21,23,25,-1,27,29,31,33,35,37,39,-1,41,43,45,-1,-1,47,-1,49,51,53,55,57,59,61,-1,63,65,67,69,71,73,-1,-1,-1,-1,-1,-1,-1,-1,-1,-1,-1,-1,-1,-1,-1,-1,-1,-1,-1,-1,-1,-1,-1,-1,-1,-1,-1,-1,-1,-1,-1,-1],"loss_changes":[6.3001595E6,7.3931245E6,5.206152E6,2.723089E6,1.9454405E6,1.3697352E5,2.699606E6,1.283977E6,1.3980795E6,4.604852E5,9.976585E5,1.9888E4,6.7900586E3,0E0,1.18024586E5,7.4556444E5,1.017578E6,1.2624525E6,1.902775E5,1.0628009E5,4.7750094E4,0E0,2.455386E4,1.4170234E3,9.650309E2,0E0,0E0,8.899216E3,0E0,4.1435156E4,3.1954284E5,5.38878E5,3.9807312E5,6.865425E5,4.0008E5,4.373175E4,0E0,1.5232844E4,1.7913918E4,1.7616875E4,1.9626904E3,2.8401535E2,1.4071406E3,0E0,0E0,0E0,0E0,0E0,0E0,0E0,0E0,0E0,0E0,0E0,0E0,0E0,0E0,0E0,0E0,0E0,0E0,0E0,0E0,0E0,0E0,0E0,0E0,0E0,0E0,0E0,0E0,0E0,0E0,0E0,0E0],"parents":[2147483647,0,0,1,1,2,2,3,3,4,4,5,5,6,6,7,7,8,8,9,9,10,10,11,11,12,12,14,14,15,15,16,16,17,17,18,18,19,19,20,20,22,22,23,23,24,24,27,27,29,29,30,30,31,31,32,32,33,33,34,34,35,35,37,37,38,38,39,39,40,40,41,41,42,42],"right_children":[2,4,6,8,10,12,14,16,18,20,22,24,26,-1,28,30,32,34,36,38,40,-1,42,44,46,-1,-1,48,-1,50,52,54,56,58,60,62,-1,64,66,68,70,72,74,-1,-1,-1,-1,-1,-1,-1,-1,-1,-1,-1,-1,-1,-1,-1,-1,-1,-1,-1,-1,-1,-1,-1,-1,-1,-1,-1,-1,-1,-1,-1,-1],"split_conditions":[1.005E3,3.02E0,2.73E0,-1.670257E-2,2.4234995E-2,-2.789521E-8,7.604879E-2,4.661191E-2,5.3013522E-2,-6.572185E-3,7.515E1,-6.7849964E-2,2.2559002E-2,-4.6331593E1,-4.405067E-2,-1.9402916E-2,1.480131E-2,4.0087525E-2,1.3E0,-1.1544447E-2,1.5230519E-2,-1.947243E1,-5.335763E-2,-3.9454427E-2,8.9863E1,6.6772157E-1,5.965802E0,-2.3950782E-2,-1.0625387E1,1.85275E-2,6.62E0,4.6731234E-2,1.4683936E-2,-1.9169414E-2,-6.26672E-3,-4.898065E-2,3.21933E-1,2.2548728E-3,6.44E1,5.9772816E-2,6.396E1,-3.903577E-2,5.1E-1,-2.335425E0,-4.7986255E0,-4.7075602E-1,9.5066833E-1,-7.2806704E-1,4.1185956E0,5.3566194E0,1.1492303E1,-3.792017E0,-2.5084642E1,1.18910475E1,2.2726812E1,1.4283098E-2,8.067181E0,-7.216378E-1,5.9871306E0,-1.6277304E1,2.8760002E0,2.6018814E1,5.8219333E0,3.017526E0,7.2894874E0,8.93573E-1,-3.4220092E0,-8.063811E0,-6.0727847E-1,-2.5239975E0,-3.7637126E-1,-9.70459E-3,-8.5727847E-1,-2.25872E0,-5.9407625E0],"split_indices":[22,7,1,49,108,342,26,312,73,318,0,157,29,0,25,249,158,291,3,47,91,0,31,81,0,0,0,27,0,29,1,206,264,105,61,25,0,357,0,66,0,25,1,0,0,0,0,0,0,0,0,0,0,0,0,0,0,0,0,0,0,0,0,0,0,0,0,0,0,0,0,0,0,0,0],"split_type":[0,0,0,0,0,0,0,0,0,0,0,0,0,0,0,0,0,0,0,0,0,0,0,0,0,0,0,0,0,0,0,0,0,0,0,0,0,0,0,0,0,0,0,0,0,0,0,0,0,0,0,0,0,0,0,0,0,0,0,0,0,0,0,0,0,0,0,0,0,0,0,0,0,0,0],"sum_hessian":[5.97E2,5.55E2,4.2E1,4.45E2,1.1E2,2.2E1,2E1,2.12E2,2.33E2,4.7E1,6.3E1,1.7E1,5E0,1.5E1,5E0,4E1,1.72E2,2.26E2,7E0,2.1E1,2.6E1,4.7E1,1.6E1,1.4E1,3E0,1E0,4E0,3E0,2E0,1.8E1,2.2E1,8.7E1,8.5E1,2.09E2,1.7E1,6E0,1E0,1.3E1,8E0,2.1E1,5E0,3E0,1.3E1,4E0,1E1,2E0,1E0,1E0,2E0,1.3E1,5E0,2.1E1,1E0,7.2E1,1.5E1,2E1,6.5E1,1.6E2,4.9E1,1.4E1,3E0,5E0,1E0,6E0,7E0,4E0,4E0,2E1,1E0,3E0,2E0,2E0,1E0,2E0,1.1E1],"tree_param":{"num_deleted":"0","num_feature":"407","num_nodes":"75","size_leaf_vector":"1"}},{"base_weights":[-8.684136E0,3.2498314E1,-2.667219E2,6.3937225E1,-3.5205093E2,-2.9300463E1,-3.7643005E2,1.4785823E2,-1.7472081E0,-5.08847E1,-6.6638983E2,8.297184E1,-1.11673416E2,-3.5237175E1,-3.376224E2,-1.0467303E1,1.9136505E2,3.2800247E2,-1.7137281E1,7.112405E1,-8.377641E1,-6.763145E1,-4.3770065E1,6.1755495E0,3.6370884E1,-1.4849532E2,-2.5554361E1,6.2927704E0,-1.7458899E1,-3.4765536E2,2.1142454E1,4.4440695E2,1.6846432E2,-7.723389E-2,3.5810175E2,2.1660175E2,-3.7776024E1,4.875051E0,1.0519532E0,-2.242007E0,-4.6153784E0,-1.0271208E1,5.262094E1,3.133138E-2,2.545022E0,-7.998739E0,-8.425171E-1,1.6176331E0,-4.36063E1,-6.872007E0,-2.4457525E1,-2.3947783E0,7.6603236E0,2.3063084E1,6.053763E0,1.598351E1,7.2883744E0,1.9632818E1,3.138855E-1,4.842241E0,1.6932493E1,-5.143022E0,8.2923454E-1,-7.0986634E-1,3.9813068E0,-3.238251E-1,3.2617494E-1,-2.4293458E0,-5.92096E-1],"categories":[],"categories_nodes":[],"categories_segments":[],"categories_sizes":[],"default_left":[0,0,0,0,0,0,0,0,0,0,0,0,0,0,0,0,0,0,0,0,0,0,0,0,0,0,0,0,0,0,0,0,0,0,0,0,0,0,0,0,0,0,0,0,0,0,0,0,0,0,0,0,0,0,0,0,0,0,0,0,0,0,0,0,0,0,0,0,0],"id":2,"left_children":[1,3,5,7,9,11,13,15,17,19,21,23,25,-1,27,29,31,33,35,37,39,41,-1,-1,43,45,47,-1,-1,49,51,53,55,-1,57,59,61,-1,-1,-1,-1,-1,63,65,-1,-1,-1,-1,67,-1,-1,-1,-1,-1,-1,-1,-1,-1,-1,-1,-1,-1,-1,-1,-1,-1,-1,-1,-1],"loss_changes":[6.331511E6,6.236671E6,2.12483E6,2.6241148E6,3.658153E6,2.5896716E5,4.755625E5,1.441645E6,1.3656868E6,9.0233125E4,2.318596E6,1.817775E4,4.6942375E4,0E0,3.22445E5,4.976382E5,8.75488E5,1.1958275E5,1.2479709E6,4.554119E3,1.5078203E3,1.1022903E5,0E0,0E0,3.6943877E3,1.3927719E4,7.682784E3,0E0,0E0,5.1748812E4,3.9938772E5,1.4998E4,4.750505E5,0E0,1.3126362E5,2.741418E5,8.402204E5,0E0,0E0,0E0,0E0,0E0,8.348242E3,1.6899927E2,0E0,0E0,0E0,0E0,2.1566797E2,0E0,0E0,0E0,0E0,0E0,0E0,0E0,0E0,0E0,0E0,0E0,0E0,0E0,0E0,0E0,0E0,0E0,0E0,0E0,0E0],"parents":[2147483647,0,0,1,1,2,2,3,3,4,4,5,5,6,6,7,7,8,8,9,9,10,10,11,11,12,12,14,14,15,15,16,16,17,17,18,18,19,19,20,20,21,21,24,24,25,25,26,26,29,29,30,30,31,31,32,32,34,34,35,35,36,36,42,42,43,43,48,48],"right_children":[2,4,6,8,10,12,14,16,18,20,22,24,26,-1,28,30,32,34,36,38,40,42,-1,-1,44,46,48,-1,-1,50,52,54,56,-1,58,60,62,-1,-1,-1,-1,-1,64,66,-1,-1,-1,-1,68,-1,-1,-1,-1,-1,-1,-1,-1,-1,-1,-1,-1,-1,-1,-1,-1,-1,-1,-1,-1],"split_conditions":[9.7E0,1.005E3,2.1610392E-2,-1.670257E-2,2.73E0,2.0165918E-2,-2.9281652E-2,4.588898E-2,-9.307327E-2,5.3433172E-2,-6.521603E-2,-6.178852E-2,2.8779184E-2,-3.5237175E1,-9.085635E-2,5.7E0,-9.924159E-2,2.2E-1,-4.1111004E-2,8.58E1,-3.9454427E-2,3.1008383E-2,-4.3770065E1,6.1755495E0,2.9388351E-2,-4.406115E-2,6.1E1,6.2927704E0,-1.7458899E1,5.26E0,1.8495811E-2,8.2E2,-9.575639E-3,-7.723389E-2,4.07E0,-5.6268226E-2,-1.9427853E-2,4.875051E0,1.0519532E0,-2.242007E0,-4.6153784E0,-1.0271208E1,-2.3950782E-2,-1.3859353E-2,2.545022E0,-7.998739E0,-8.425171E-1,1.6176331E0,6.396E1,-6.872007E0,-2.4457525E1,-2.3947783E0,7.6603236E0,2.3063084E1,6.053763E0,1.598351E1,7.2883744E0,1.9632818E1,3.138855E-1,4.842241E0,1.6932493E1,-5.143022E0,8.2923454E-1,-7.0986634E-1,3.9813068E0,-3.238251E-1,3.2617494E-1,-2.4293458E0,-5.92096E-1],"split_indices":[7,22,108,49,1,67,324,312,388,54,23,42,345,0,25,2,221,4,381,0,81,24,0,0,24,23,0,0,0,1,350,22,339,0,3,124,122,0,0,0,0,0,27,23,0,0,0,0,0,0,0,0,0,0,0,0,0,0,0,0,0,0,0,0,0,0,0,0,0],"split_type":[0,0,0,0,0,0,0,0,0,0,0,0,0,0,0,0,0,0,0,0,0,0,0,0,0,0,0,0,0,0,0,0,0,0,0,0,0,0,0,0,0,0,0,0,0,0,0,0,0,0,0,0,0,0,0,0,0,0,0,0,0,0,0,0,0,0,0,0,0],"sum_hessian":[5.94E2,5.13E2,8.1E1,4.75E2,3.8E1,2.6E1,5.5E1,2.08E2,2.67E2,2E1,1.8E1,1.1E1,1.5E1,4E0,5.1E1,4.5E1,1.63E2,1.1E1,2.56E2,4E0,1.6E1,5E0,1.3E1,5E0,6E0,1E1,5E0,1E0,5E1,3E0,4.2E1,1.2E1,1.51E2,1E0,1E1,2E1,2.36E2,2E0,2E0,4E0,1.2E1,2E0,3E0,2E0,4E0,9E0,1E0,1E0,4E0,2E0,1E0,2.8E1,1.4E1,1.1E1,1E0,1.8E1,1.33E2,9E0,1E0,1.1E1,9E0,1.07E2,1.29E2,1E0,2E0,1E0,1E0,3E0,1E0],"tree_param":{"num_deleted":"0","num_feature":"407","num_nodes":"69","size_leaf_vector":"1"}},{"base_weights":[2.1708229E0,-1.0839374E2,8.62693E1,-3.5220926E2,-4.2015167E1,1.0179633E2,-4.029111E2,-2.7587106E2,-3.926485E1,-1.1895688E1,-2.3063066E2,-5.4678564E2,1.1111714E2,-6.4554333E2,1.7356201E1,-3.185597E2,3.1867641E1,2.4861342E2,-3.0001581E1,-1.1202426E2,-1.5999843E1,-3.535648E1,2.3647523E0,7.0660805E1,2.3606477E2,-9.454135E0,-3.4505318E1,-1.05786255E2,1.2748151E1,-1.8114363E1,-1.0969676E1,-3.3703346E1,6.526504E0,-9.199521E0,3.0466745E2,-1.8867662E1,-3.9810092E2,-7.5114794E0,-1.3208765E1,2.0182283E2,3.704575E1,3.7534216E2,1.8810266E2,-3.1572875E-1,-6.8419313E0,6.247284E-1,-2.4188232E0,1.9716051E1,8.211798E0,6.8265414E-1,-5.270757E0,-2.377883E0,-3.0797194E1,1.5771927E0,-1.6141442E0,1.7586184E1,7.4029746E0,5.3558955E0,-1.1047788E0,1.0035877E1,2.1008461E1,-5.7387195E0,9.99573E0],"categories":[],"categories_nodes":[],"categories_segments":[],"categories_sizes":[],"default_left":[0,0,0,0,0,0,0,0,0,0,0,0,0,0,0,0,0,0,0,0,0,0,0,0,0,0,0,0,0,0,0,0,0,0,0,0,0,0,0,0,0,0,0,0,0,0,0,0,0,0,0,0,0,0,0,0,0,0,0,0,0,0,0],"id":3,"left_children":[1,3,5,7,9,11,13,15,-1,17,19,21,23,25,27,29,31,33,35,37,-1,-1,-1,39,41,-1,-1,43,-1,-1,-1,45,-1,-1,47,49,51,-1,53,55,57,59,61,-1,-1,-1,-1,-1,-1,-1,-1,-1,-1,-1,-1,-1,-1,-1,-1,-1,-1,-1,-1],"loss_changes":[5.7464095E6,4.306364E6,2.707041E6,1.6678445E6,1.1959478E6,2.122208E6,1.1328786E6,6.66999E5,0E0,8.70624E5,2.7153525E5,5.0972988E5,1.6868285E6,1.190125E4,1.7326902E5,1.113135E5,4.968505E4,3.470462E5,6.974115E5,5.0869547E4,0E0,0E0,0E0,1.1212322E6,4.771605E5,0E0,0E0,1.1491246E4,0E0,0E0,0E0,3.9937812E3,0E0,0E0,7.3730375E4,4.742901E5,3.525242E5,0E0,5.28641E3,3.6700075E5,8.519196E5,7.222275E4,2.483315E5,0E0,0E0,0E0,0E0,0E0,0E0,0E0,0E0,0E0,0E0,0E0,0E0,0E0,0E0,0E0,0E0,0E0,0E0,0E0,0E0],"parents":[2147483647,0,0,1,1,2,2,3,3,4,4,5,5,6,6,7,7,9,9,10,10,11,11,12,12,13,13,14,14,15,15,16,16,17,17,18,18,19,19,23,23,24,24,27,27,31,31,34,34,35,35,36,36,38,38,39,39,40,40,41,41,42,42],"right_children":[2,4,6,8,10,12,14,16,-1,18,20,22,24,26,28,30,32,34,36,38,-1,-1,-1,40,42,-1,-1,44,-1,-1,-1,46,-1,-1,48,50,52,-1,54,56,58,60,62,-1,-1,-1,-1,-1,-1,-1,-1,-1,-1,-1,-1,-1,-1,-1,-1,-1,-1,-1,-1],"split_conditions":[3.389512E-2,-6.496133E-2,3.1787563E-2,6.08E0,7E0,-1.1854639E-1,-1.1736509E-2,1E0,-3.926485E1,-3.5219677E-2,2.1610392E-2,6.555E1,1.5E0,6.3E1,2E-2,1.3424791E-2,8.829E1,1E0,7.078057E-2,2.8779184E-2,-1.5999843E1,-3.535648E1,2.3647523E0,-3.758721E-2,-2.6564801E-2,-9.454135E0,-3.4505318E1,6.44E1,1.2748151E1,-1.8114363E1,-1.0969676E1,8.72E1,6.526504E0,-9.199521E0,8.72E1,5.358681E-2,-1.0793113E-1,-7.5114794E0,6.1E1,1.8057544E-2,8.674E1,-3.7307746E-3,-9.658195E-3,-3.1572875E-1,-6.8419313E0,6.247284E-1,-2.4188232E0,1.9716051E1,8.211798E0,6.8265414E-1,-5.270757E0,-2.377883E0,-3.0797194E1,1.5771927E0,-1.6141442E0,1.7586184E1,7.4029746E0,5.3558955E0,-1.1047788E0,1.0035877E1,2.1008461E1,-5.7387195E0,9.99573E0],"split_indices":[353,134,91,2,7,163,27,2,0,192,108,0,6,0,9,126,0,2,26,345,0,0,0,148,108,0,0,0,0,0,0,0,0,0,0,64,23,0,0,152,0,32,175,0,0,0,0,0,0,0,0,0,0,0,0,0,0,0,0,0,0,0,0],"split_type":[0,0,0,0,0,0,0,0,0,0,0,0,0,0,0,0,0,0,0,0,0,0,0,0,0,0,0,0,0,0,0,0,0,0,0,0,0,0,0,0,0,0,0,0,0,0,0,0,0,0,0,0,0,0,0,0,0,0,0,0,0,0,0],"sum_hessian":[6.16E2,2.66E2,3.5E2,5.6E1,2.1E2,3.4E2,1E1,4.9E1,7E0,1.82E2,2.8E1,4E0,3.36E2,6E0,4E0,4.3E1,6E0,1.1E1,1.71E2,1.3E1,1.5E1,3E0,1E0,2.55E2,8.1E1,1E0,5E0,3E0,1E0,2.8E1,1.5E1,4E0,2E0,1E0,1E1,1.67E2,4E0,9E0,4E0,5.1E1,2.04E2,1.9E1,6.2E1,1E0,2E0,1E0,3E0,5E0,5E0,1.22E2,4.5E1,2E0,2E0,1E0,3E0,1.2E1,3.9E1,9.3E1,1.11E2,5E0,1.4E1,2E0,6E1],"tree_param":{"num_deleted":"0","num_feature":"407","num_nodes":"63","size_leaf_vector":"1"}},{"base_weights":[-1.8043942E0,3.3570244E1,-2.2912914E2,6.8735214E1,-2.1742905E2,-4.542513E0,-3.5193045E2,1.2875612E2,1.2746909E0,-7.0332825E2,-1.6375563E1,-9.877944E1,8.408852E1,-3.260699E1,-3.141146E2,1.9468027E2,2.788336E1,6.955031E1,-8.531475E1,-5.03051E0,-4.0502487E1,-5.2305035E1,1.1893001E1,-1.3395073E2,-2.3697397E1,3.4543537E1,6.465778E0,-7.9022646E0,-1.6042862E1,3.654144E2,1.5700735E2,-8.366623E1,1.2032499E2,2.2795256E2,2.0463829E1,-1.1107465E2,4.244213E1,-1.6146677E2,-2.18709E1,-7.229407E0,-9.5534974E-1,1.5377625E0,-4.0738976E1,2.553233E0,1.1259766E0,2.9038818E0,2.0932697E1,9.096448E0,3.297723E0,-2.2914911E1,-1.7969382E0,1.7556784E1,4.2079163E0,6.175504E0,1.734982E1,-4.203602E0,4.9009247E0,-6.103896E0,6.562889E0,5.712065E0,-3.8224149E0,-4.835005E0,-9.697005E0,-4.642569E-2,-3.9970512E0,-2.2777162E0,-5.3694004E-1,-3.0783692E-1,2.8028974E-1],"categories":[],"categories_nodes":[],"categories_segments":[],"categories_sizes":[],"default_left":[0,0,0,0,0,0,0,0,0,0,0,0,0,0,0,0,0,0,0,0,0,0,0,0,0,0,0,0,0,0,0,0,0,0,0,0,0,0,0,0,0,0,0,0,0,0,0,0,0,0,0,0,0,0,0,0,0,0,0,0,0,0,0,0,0,0,0,0,0],"id":4,"left_children":[1,3,5,7,9,11,13,15,17,19,21,23,25,-1,27,29,31,33,35,-1,-1,37,-1,39,41,43,-1,-1,-1,45,47,49,51,53,55,57,59,61,63,-1,-1,-1,65,-1,67,-1,-1,-1,-1,-1,-1,-1,-1,-1,-1,-1,-1,-1,-1,-1,-1,-1,-1,-1,-1,-1,-1,-1,-1],"loss_changes":[4.8969425E6,4.6664495E6,2.259923E6,1.874542E6,6.3384445E6,2.5887572E5,3.968455E5,1.6238092E6,1.3006501E6,1.140637E6,4.4176512E5,3.6436688E4,3.1385352E4,0E0,8.54E2,8.94571E5,1.02062606E6,9.5171056E5,3.239417E5,0E0,0E0,1.360028E5,0E0,9.45375E3,6.8206914E3,4.9113613E3,0E0,0E0,0E0,4.011095E5,2.6711075E5,7.8813994E5,4.212223E5,3.17706E5,7.7842875E5,2.3200606E5,1.5384952E5,1.7465625E2,4.1274094E4,0E0,0E0,0E0,2.3310742E2,0E0,1.6501434E2,0E0,0E0,0E0,0E0,0E0,0E0,0E0,0E0,0E0,0E0,0E0,0E0,0E0,0E0,0E0,0E0,0E0,0E0,0E0,0E0,0E0,0E0,0E0,0E0],"parents":[2147483647,0,0,1,1,2,2,3,3,4,4,5,5,6,6,7,7,8,8,9,9,10,10,11,11,12,12,14,14,15,15,16,16,17,17,18,18,21,21,23,23,24,24,25,25,29,29,30,30,31,31,32,32,33,33,34,34,35,35,36,36,37,37,38,38,42,42,44,44],"right_children":[2,4,6,8,10,12,14,16,18,20,22,24,26,-1,28,30,32,34,36,-1,-1,38,-1,40,42,44,-1,-1,-1,46,48,50,52,54,56,58,60,62,64,-1,-1,-1,66,-1,68,-1,-1,-1,-1,-1,-1,-1,-1,-1,-1,-1,-1,-1,-1,-1,-1,-1,-1,-1,-1,-1,-1,-1,-1],"split_conditions":[9.7E0,3E-1,1.3679182E-2,8.73E1,-5.5503384E-3,5.082118E-2,-2.9281652E-2,-5.874097E-2,2.3900693E-2,8.663E1,-3.986213E-3,2.8779184E-2,2.094912E-2,-3.260699E1,-9.882871E-2,-5.9961826E-2,-2.3202743E-2,-5.40963E-2,2.1E-1,-5.03051E0,-4.0502487E1,-7.339812E-3,1.1893001E1,-4.406115E-2,6.1E1,-7.36187E-2,6.465778E0,-7.9022646E0,-1.6042862E1,-7.126289E-2,6.1395522E-2,-4.8569046E-2,-3.169357E-3,-5.161078E-2,7.8E-2,1.4932822E-2,2.2648765E-2,8.663E1,1.4120083E-2,-7.229407E0,-9.5534974E-1,1.5377625E0,6.396E1,2.553233E0,-1.3859353E-2,2.9038818E0,2.0932697E1,9.096448E0,3.297723E0,-2.2914911E1,-1.7969382E0,1.7556784E1,4.2079163E0,6.175504E0,1.734982E1,-4.203602E0,4.9009247E0,-6.103896E0,6.562889E0,5.712065E0,-3.8224149E0,-4.835005E0,-9.697005E0,-4.642569E-2,-3.9970512E0,-2.2777162E0,-5.3694004E-1,-3.0783692E-1,2.8028974E-1],"split_indices":[7,11,108,0,406,400,324,179,86,0,280,345,30,0,115,71,305,53,9,0,0,135,0,23,0,31,0,0,0,33,302,53,26,34,12,53,45,0,30,0,0,0,0,0,23,0,0,0,0,0,0,0,0,0,0,0,0,0,0,0,0,0,0,0,0,0,0,0,0],"split_type":[0,0,0,0,0,0,0,0,0,0,0,0,0,0,0,0,0,0,0,0,0,0,0,0,0,0,0,0,0,0,0,0,0,0,0,0,0,0,0,0,0,0,0,0,0,0,0,0,0,0,0,0,0,0,0,0,0,0,0,0,0,0,0,0,0,0,0,0,0],"sum_hessian":[6.07E2,5.26E2,8.1E1,4.62E2,6.4E1,2.9E1,5.2E1,2.44E2,2.18E2,1.8E1,4.6E1,1.4E1,1.5E1,4E0,4.8E1,1.47E2,9.7E1,1.22E2,9.6E1,3E0,1.5E1,4.1E1,5E0,9E0,5E0,8E0,7E0,3E0,4.5E1,2.5E1,1.22E2,4.4E1,5.3E1,2.8E1,9.4E1,8E1,1.6E1,8E0,3.3E1,8E0,1E0,1E0,4E0,5E0,3E0,4E0,2.1E1,9.5E1,2.7E1,4E0,4E1,6E0,4.7E1,1.6E1,1.2E1,4E1,5.4E1,7.7E1,3E0,1E1,6E0,4E0,4E0,2.5E1,8E0,3E0,1E0,1E0,2E0],"tree_param":{"num_deleted":"0","num_feature":"407","num_nodes":"69","size_leaf_vector":"1"}},{"base_weights":[-4.007939E0,2.9970339E1,-2.1970125E2,5.6617928E1,-2.567131E2,-1.28966E1,-3.2474915E2,1.2788352E2,-2.9845324E0,-1.6734892E1,-5.842236E2,-1.07736404E2,8.280298E1,-3.1302713E1,-2.888418E2,-1.7398573E1,1.6852852E2,-1.49018545E1,1.6816435E1,-6.3918472E1,1.0331592E2,-6.2571796E1,-3.8302917E1,-7.076464E0,-1.1844812E1,3.577974E1,1.19475845E2,6.4026246E0,-2.9974072E2,-2.9572974E2,1.3913748E1,2.2937111E2,9.734276E1,-7.0111475E0,-2.0480658E1,-7.655918E1,5.784149E0,6.5403444E-1,5.7169E0,-9.568774E0,4.967392E1,1.499318E0,-1.4899597E0,2.7094728E-1,2.2498424E0,6.381437E0,1.560141E0,-3.1095596E2,-8.283482E0,-7.231466E0,-2.2503286E1,-2.2900932E0,6.819921E0,9.782466E0,1.8866074E1,6.7234163E0,-4.166722E-1,-2.8472838E0,2.5088377E0,-1.9556055E0,-4.253637E0,-1.0048828E-1,7.291474E-1,-5.645752E-1,3.687978E0,-7.655159E0,-1.5929293E1],"categories":[],"categories_nodes":[],"categories_segments":[],"categories_sizes":[],"default_left":[0,0,0,0,0,0,0,0,0,0,0,0,0,0,0,0,0,0,0,0,0,0,0,0,0,0,0,0,0,0,0,0,0,0,0,0,0,0,0,0,0,0,0,0,0,0,0,0,0,0,0,0,0,0,0,0,0,0,0,0,0,0,0,0,0,0,0],"id":5,"left_children":[1,3,5,7,9,11,13,15,17,19,21,23,25,-1,27,29,31,33,-1,35,37,39,-1,-1,41,43,45,-1,47,49,51,53,55,57,-1,59,61,-1,-1,-1,63,-1,-1,-1,-1,-1,-1,65,-1,-1,-1,-1,-1,-1,-1,-1,-1,-1,-1,-1,-1,-1,-1,-1,-1,-1,-1],"loss_changes":[4.469877E6,4.04051E6,1.7989365E6,2.051975E6,3.5270148E6,2.7212866E5,4.14218E5,1.3020302E6,1.07255E6,1.5954331E5,1.754301E6,4.693039E4,2.1592336E4,0E0,2.701115E5,4.3115925E5,7.226255E5,7.944533E5,0E0,1.806464E4,6.4610234E3,9.6252336E4,0E0,0E0,4.6488335E3,1.994874E3,1.7750625E3,0E0,2.3666E4,5.1508438E4,3.3538844E5,3.85179E5,3.18907E5,7.224814E5,0E0,2.0923594E3,3.036166E2,0E0,0E0,0E0,6.706423E3,0E0,0E0,0E0,0E0,0E0,0E0,5.4215E3,0E0,0E0,0E0,0E0,0E0,0E0,0E0,0E0,0E0,0E0,0E0,0E0,0E0,0E0,0E0,0E0,0E0,0E0,0E0],"parents":[2147483647,0,0,1,1,2,2,3,3,4,4,5,5,6,6,7,7,8,8,9,9,10,10,11,11,12,12,14,14,15,15,16,16,17,17,19,19,20,20,21,21,24,24,25,25,26,26,28,28,29,29,30,30,31,31,32,32,33,33,35,35,36,36,40,40,47,47],"right_children":[2,4,6,8,10,12,14,16,18,20,22,24,26,-1,28,30,32,34,-1,36,38,40,-1,-1,42,44,46,-1,48,50,52,54,56,58,-1,60,62,-1,-1,-1,64,-1,-1,-1,-1,-1,-1,66,-1,-1,-1,-1,-1,-1,-1,-1,-1,-1,-1,-1,-1,-1,-1,-1,-1,-1,-1],"split_conditions":[9.7E0,1.0025E3,2.1610392E-2,-1.670257E-2,2.73E0,-4.406115E-2,-2.9281652E-2,4.661191E-2,5.3013522E-2,-2.789521E-8,-6.521603E-2,2.8779184E-2,6.405735E-3,-3.1302713E1,-9.085635E-2,5.7E0,1.480131E-2,9.9778E1,1.6816435E1,-6.7849964E-2,2.2559002E-2,3.1008383E-2,-3.8302917E1,-7.076464E0,6.1E1,-4.7663306E-3,6.75E1,6.4026246E0,5.966721E-2,5.26E0,1.8495811E-2,4.6731234E-2,-1.393762E-2,-3.5229474E-2,-2.0480658E1,-3.9454427E-2,8.9863E1,6.5403444E-1,5.7169E0,-9.568774E0,-2.3950782E-2,1.499318E0,-1.4899597E0,2.7094728E-1,2.2498424E0,6.381437E0,1.560141E0,1.02E1,-8.283482E0,-7.231466E0,-2.2503286E1,-2.2900932E0,6.819921E0,9.782466E0,1.8866074E1,6.7234163E0,-4.166722E-1,-2.8472838E0,2.5088377E0,-1.9556055E0,-4.253637E0,-1.0048828E-1,7.291474E-1,-5.645752E-1,3.687978E0,-7.655159E0,-1.5929293E1],"split_indices":[7,22,108,49,1,23,324,312,73,342,23,345,280,0,25,2,158,0,0,157,29,24,0,0,0,27,0,0,66,1,350,206,139,32,0,81,0,0,0,0,27,0,0,0,0,0,0,7,0,0,0,0,0,0,0,0,0,0,0,0,0,0,0,0,0,0,0],"split_type":[0,0,0,0,0,0,0,0,0,0,0,0,0,0,0,0,0,0,0,0,0,0,0,0,0,0,0,0,0,0,0,0,0,0,0,0,0,0,0,0,0,0,0,0,0,0,0,0,0,0,0,0,0,0,0,0,0,0,0,0,0,0,0,0,0,0,0],"sum_hessian":[6.08E2,5.26E2,8.2E1,4.82E2,4.4E1,2.8E1,5.4E1,2.19E2,2.63E2,2.6E1,1.8E1,1.4E1,1.4E1,4E0,5E1,4.8E1,1.71E2,2.55E2,8E0,1.9E1,7E0,5E0,1.3E1,1E1,4E0,7E0,7E0,1E0,4.9E1,4E0,4.4E1,9.1E1,8E1,2.51E2,4E0,1.6E1,3E0,1E0,6E0,2E0,3E0,1E0,3E0,2E0,5E0,6E0,1E0,4.4E1,5E0,3E0,1E0,3E1,1.4E1,7.6E1,1.5E1,5.9E1,2.1E1,1.34E2,1.17E2,4E0,1.2E1,2E0,1E0,1E0,2E0,3E0,4.1E1],"tree_param":{"num_deleted":"0","num_feature":"407","num_nodes":"67","size_leaf_vector":"1"}},{"base_weights":[-7.0914664E0,-9.9162766E1,6.3028416E1,-3.0464148E2,-4.22105E1,8.453812E1,-4.258587E2,-2.3947688E2,-3.4099277E1,-9.052424E1,6.072169E1,-4.908628E2,9.2898796E1,1.5017603E2,-5.2603143E2,-2.8378616E2,3.41588E1,1.9005666E2,-1.1063746E2,9.940067E1,-9.55687E1,-3.1633993E1,1.910138E0,5.823784E1,2.0404192E2,-3.0691528E-1,1.1570117E1,-1.5100296E1,-3.374548E1,-3.1124664E2,-9.231052E0,-3.159441E1,5.3905306E0,8.301162E1,2.0607893E1,-9.4532524E1,-3.2560294E2,4.760257E1,2.123845E2,-2.5309448E1,-5.621473E0,2.867522E1,1.9621643E2,1.7125237E2,3.5733868E2,-1.621217E1,-8.680813E0,6.376831E-1,-2.293492E0,-4.8144846E0,1.0492517E1,-3.171409E0,-1.0112165E1,-6.556485E0,-2.6795603E1,4.3623405E0,-4.71195E0,1.1649936E1,-2.9360688E0,6.862946E-2,-1.7330496E0,4.4682055E0,-9.298812E-1,1.6408213E1,5.965186E0,9.221602E0,-4.121784E0,1.964359E1,5.3968873E0],"categories":[],"categories_nodes":[],"categories_segments":[],"categories_sizes":[],"default_left":[0,0,0,0,0,0,0,0,0,0,0,0,0,0,0,0,0,0,0,0,0,0,0,0,0,0,0,0,0,0,0,0,0,0,0,0,0,0,0,0,0,0,0,0,0,0,0,0,0,0,0,0,0,0,0,0,0,0,0,0,0,0,0,0,0,0,0,0,0],"id":6,"left_children":[1,3,5,7,9,11,13,15,-1,17,19,21,23,25,27,29,31,33,35,37,39,-1,-1,41,43,-1,-1,-1,-1,45,-1,47,-1,49,-1,51,53,55,57,59,-1,61,63,65,67,-1,-1,-1,-1,-1,-1,-1,-1,-1,-1,-1,-1,-1,-1,-1,-1,-1,-1,-1,-1,-1,-1,-1,-1],"loss_changes":[4.0025318E6,3.123405E6,3.7375685E6,1.262869E6,1.0548079E6,1.6716312E6,9.4454175E5,6.280485E5,0E0,8.33675E5,4.2056997E5,3.9932275E5,1.2747942E6,3.951093E4,2.2975575E5,6.23545E4,4.2148953E4,2.0353444E5,4.3659062E5,3.1176912E5,1.3739211E4,0E0,0E0,1.0385997E6,3.35901E5,0E0,0E0,0E0,0E0,2.73475E3,0E0,3.7504478E3,0E0,2.021452E5,0E0,4.1265675E5,2.9782156E5,2.2752688E5,1.0868869E5,1.045648E3,0E0,6.098763E5,4.1752962E5,2.3922012E5,7.280025E4,0E0,0E0,0E0,0E0,0E0,0E0,0E0,0E0,0E0,0E0,0E0,0E0,0E0,0E0,0E0,0E0,0E0,0E0,0E0,0E0,0E0,0E0,0E0,0E0],"parents":[2147483647,0,0,1,1,2,2,3,3,4,4,5,5,6,6,7,7,9,9,10,10,11,11,12,12,13,13,14,14,15,15,16,16,17,17,18,18,19,19,20,20,23,23,24,24,29,29,31,31,33,33,35,35,36,36,37,37,38,38,39,39,41,41,42,42,43,43,44,44],"right_children":[2,4,6,8,10,12,14,16,-1,18,20,22,24,26,28,30,32,34,36,38,40,-1,-1,42,44,-1,-1,-1,-1,46,-1,48,-1,50,-1,52,54,56,58,60,-1,62,64,66,68,-1,-1,-1,-1,-1,-1,-1,-1,-1,-1,-1,-1,-1,-1,-1,-1,-1,-1,-1,-1,-1,-1,-1,-1],"split_conditions":[3.389512E-2,-6.496133E-2,3.1787563E-2,6.08E0,3E0,-1.1854639E-1,-2.7373388E-2,1E0,-3.4099277E1,-7.699439E-2,8.65E2,6.555E1,1.5E0,6.44E1,1E0,-9.197777E-3,2.3217384E-2,1.22E-1,2.036925E-3,7.073461E-2,-6.3951306E-2,-3.1633993E1,1.910138E0,-2.0448076E-2,1.9489648E-2,-3.0691528E-1,1.1570117E1,-1.5100296E1,-3.374548E1,4.9E0,-9.231052E0,8.72E1,5.3905306E0,2.638173E-2,2.0607893E1,7E0,-3.071832E-2,-3.1316571E-3,8.984E1,9.388597E-5,-5.621473E0,8.674E1,-1.0442681E-3,1.9823289E-2,-2.8379492E-2,-1.621217E1,-8.680813E0,6.376831E-1,-2.293492E0,-4.8144846E0,1.0492517E1,-3.171409E0,-1.0112165E1,-6.556485E0,-2.6795603E1,4.3623405E0,-4.71195E0,1.1649936E1,-2.9360688E0,6.862946E-2,-1.7330496E0,4.4682055E0,-9.298812E-1,1.6408213E1,5.965186E0,9.221602E0,-4.121784E0,1.964359E1,5.3968873E0],"split_indices":[353,134,91,2,4,163,57,2,0,116,22,0,6,0,2,195,24,12,343,268,42,0,0,372,61,0,0,0,0,1,0,0,0,29,0,7,59,45,0,24,0,0,216,364,25,0,0,0,0,0,0,0,0,0,0,0,0,0,0,0,0,0,0,0,0,0,0,0,0],"split_type":[0,0,0,0,0,0,0,0,0,0,0,0,0,0,0,0,0,0,0,0,0,0,0,0,0,0,0,0,0,0,0,0,0,0,0,0,0,0,0,0,0,0,0,0,0,0,0,0,0,0,0,0,0,0,0,0,0,0,0,0,0,0,0,0,0,0,0,0,0],"sum_hessian":[6.18E2,2.67E2,3.51E2,5.7E1,2.1E2,3.37E2,1.4E1,5E1,7E0,1.43E2,6.7E1,4E0,3.33E2,2E0,1.2E1,4.3E1,7E0,9E0,1.34E2,5.4E1,1.3E1,3E0,1E0,2.55E2,7.8E1,1E0,1E0,6E0,6E0,3.2E1,1.1E1,4E0,3E0,7E0,2E0,1.26E2,8E0,3.8E1,1.6E1,3E0,1E1,2.11E2,4.4E1,6.6E1,1.2E1,2.8E1,4E0,1E0,3E0,3E0,4E0,9.9E1,2.7E1,5E0,3E0,3E1,8E0,1.5E1,1E0,1E0,2E0,9.2E1,1.19E2,1.5E1,2.9E1,6.3E1,3E0,1E1,2E0],"tree_param":{"num_deleted":"0","num_feature":"407","num_nodes":"69","size_leaf_vector":"1"}},{"base_weights":[-3.5381562E-1,2.1953701E1,-2.6898575E2,6.562068E1,-1.6172916E2,-1.934352E1,-6.050356E2,1.3164294E2,9.183913E0,-9.461313E1,-3.525072E2,-6.1847454E1,9.464725E1,-3.61629E1,4.8668518E1,1.2591665E0,1.5936101E2,-5.70799E0,2.7882278E2,6.941518E1,-1.3858076E2,-1.4868769E1,-3.0447721E1,-8.09256E0,-7.8140076E1,1.4715475E0,5.574043E0,-5.2721256E-1,3.596043E0,1.09207985E2,-1.0135516E2,2.2145876E2,9.17356E1,2.6886707E2,-2.0326624E1,2.083352E2,2.2216814E1,2.397765E1,6.1607437E0,-7.401604E1,-1.825079E2,6.909897E0,-1.2699158E0,-4.3688736E0,-2.4090745E0,-5.1092224E0,6.331446E0,-3.0954494E0,-2.1270813E1,7.633761E0,1.3794826E1,9.57854E-1,6.5487785E0,1.7029293E1,5.0171804E0,-5.1228037E0,5.7706815E-1,-9.32843E-1,1.3042543E1,-4.12218E-1,2.1783998E0,1.3462937E0,-5.4472766E0,-4.4621572E0,-1.2687915E1,7.9020387E-1,-6.614278E-2],"categories":[],"categories_nodes":[],"categories_segments":[],"categories_sizes":[],"default_left":[0,0,0,0,0,0,0,0,0,0,0,0,0,0,0,0,0,0,0,0,0,0,0,0,0,0,0,0,0,0,0,0,0,0,0,0,0,0,0,0,0,0,0,0,0,0,0,0,0,0,0,0,0,0,0,0,0,0,0,0,0,0,0,0,0,0,0],"id":7,"left_children":[1,3,5,7,9,11,13,15,17,19,21,23,25,-1,27,29,31,33,35,37,39,-1,-1,41,43,-1,-1,-1,-1,45,47,49,51,53,55,57,-1,59,-1,61,63,65,-1,-1,-1,-1,-1,-1,-1,-1,-1,-1,-1,-1,-1,-1,-1,-1,-1,-1,-1,-1,-1,-1,-1,-1,-1],"loss_changes":[3.6733225E6,4.550429E6,3.9312312E6,1.705337E6,1.3623132E6,1.4151525E5,1.580849E6,7.6235025E5,9.974195E5,6.009984E5,2.1478725E5,1.775961E4,5.5016094E3,0E0,6.2656924E3,4.3199844E5,7.10377E5,9.527485E5,5.90955E4,4.1047047E4,1.7084088E5,0E0,0E0,1.7332728E3,2.1785938E2,0E0,0E0,0E0,0E0,8.290989E4,2.2932234E5,2.94875E5,2.3956919E5,1.1085994E5,5.9007506E5,1.3599375E5,0E0,7.3028325E3,0E0,1.0165722E5,2.2986962E5,3.1380087E2,0E0,0E0,0E0,0E0,0E0,0E0,0E0,0E0,0E0,0E0,0E0,0E0,0E0,0E0,0E0,0E0,0E0,0E0,0E0,0E0,0E0,0E0,0E0,0E0,0E0],"parents":[2147483647,0,0,1,1,2,2,3,3,4,4,5,5,6,6,7,7,8,8,9,9,10,10,11,11,12,12,14,14,15,15,16,16,17,17,18,18,19,19,20,20,23,23,24,24,29,29,30,30,31,31,32,32,33,33,34,34,35,35,37,37,39,39,40,40,41,41],"right_children":[2,4,6,8,10,12,14,16,18,20,22,24,26,-1,28,30,32,34,36,38,40,-1,-1,42,44,-1,-1,-1,-1,46,48,50,52,54,56,58,-1,60,-1,62,64,66,-1,-1,-1,-1,-1,-1,-1,-1,-1,-1,-1,-1,-1,-1,-1,-1,-1,-1,-1,-1,-1,-1,-1,-1,-1],"split_conditions":[1.0025E3,3.02E0,2.73E0,-1.670257E-2,3.5967078E-2,-2.789521E-8,4.8203524E-2,4.661191E-2,2.9194871E-2,-1.6598238E-2,9.3E0,-5.4083142E-2,1.3E-1,-3.61629E1,-2.3950782E-2,-1.9402916E-2,1.480131E-2,-9.307327E-2,1.84E0,6.405735E-3,4.5777854E-2,-1.4868769E1,-3.0447721E1,-1.5828386E-2,1.0686687E-2,1.4715475E0,5.574043E0,-5.2721256E-1,3.596043E0,5.7E0,6.62E0,5.671554E-4,-3.819929E-2,1.3E0,-2.2526553E-2,-4.2877365E-2,2.2216814E1,5.9441812E-3,6.1607437E0,6.4038076E-3,2.1610392E-2,1.3E-1,-1.2699158E0,-4.3688736E0,-2.4090745E0,-5.1092224E0,6.331446E0,-3.0954494E0,-2.1270813E1,7.633761E0,1.3794826E1,9.57854E-1,6.5487785E0,1.7029293E1,5.0171804E0,-5.1228037E0,5.7706815E-1,-9.32843E-1,1.3042543E1,-4.12218E-1,2.1783998E0,1.3462937E0,-5.4472766E0,-4.4621572E0,-1.2687915E1,7.9020387E-1,-6.614278E-2],"split_indices":[22,7,1,49,58,342,52,312,37,384,5,145,1,0,27,249,158,388,14,280,67,0,0,23,225,0,0,0,0,2,1,335,278,3,379,38,0,30,0,198,108,1,0,0,0,0,0,0,0,0,0,0,0,0,0,0,0,0,0,0,0,0,0,0,0,0,0],"split_type":[0,0,0,0,0,0,0,0,0,0,0,0,0,0,0,0,0,0,0,0,0,0,0,0,0,0,0,0,0,0,0,0,0,0,0,0,0,0,0,0,0,0,0,0,0,0,0,0,0,0,0,0,0,0,0,0,0,0,0,0,0,0,0,0,0,0,0],"sum_hessian":[6.11E2,5.65E2,4.6E1,4.57E2,1.08E2,2.7E1,1.9E1,2.1E2,2.47E2,8.1E1,2.7E1,2E1,7E0,1.6E1,3E0,3.7E1,1.73E2,2.35E2,1.2E1,1.7E1,6.4E1,2.4E1,3E0,5E0,1.5E1,2E0,5E0,1E0,2E0,1.8E1,1.9E1,8.9E1,8.4E1,1.1E1,2.24E2,1E1,2E0,1E1,7E0,2.7E1,3.7E1,3E0,2E0,1E1,5E0,1E0,1.7E1,1.8E1,1E0,4.1E1,4.8E1,3E1,5.4E1,7E0,4E0,6.2E1,1.62E2,2E0,8E0,4E0,6E0,7E0,2E1,1.7E1,2E1,1E0,2E0],"tree_param":{"num_deleted":"0","num_feature":"407","num_nodes":"67","size_leaf_vector":"1"}},{"base_weights":[-1.0902457E0,3.7724773E1,-1.5506877E2,6.547277E1,-1.1209963E2,-9.729681E1,-4.834569E2,1.3190335E2,8.364843E0,6.132115E-1,-2.0335797E2,-2.756607E1,-2.628616E2,-3.321015E1,-1.126418E1,2.062084E2,7.426521E1,-2.665923E1,1.8263159E1,8.2325935E1,-5.778222E1,-1.744513E2,-2.6049717E1,-6.1759037E1,1.4025876E2,-1.4922348E1,-4.9109664E0,4.0999026E0,-4.6316235E1,1.0698591E2,2.6139474E2,-4.9340122E1,1.12090195E2,-1.5887843E0,2.3892857E2,3.6536926E1,5.89121E0,-1.1549044E1,-1.1814323E2,-7.1027084E1,-2.1623927E2,-1.0516167E2,1.829605E1,1.0122045E1,9.012882E1,-2.9247055E0,5.9881594E-2,6.832611E0,-3.7304707E0,1.4358197E1,4.1884346E0,-1.5159171E1,-1.5241182E-1,6.78708E0,-2.0894614E-1,4.0455595E-1,-1.9132961E1,3.9415157E0,1.6682144E1,1.2112732E-1,2.0532167E0,6.32993E-1,-1.7054043E0,-1.2190857E-1,-6.6150794E0,1.6601791E0,-4.1239967E0,-1.1168597E1,-5.9143525E-1,-2.3530364E0,-6.2448325E0,-1.720958E0,7.185249E0,4.904841E0,6.596222E-1],"categories":[],"categories_nodes":[],"categories_segments":[],"categories_sizes":[],"default_left":[0,0,0,0,0,0,0,0,0,0,0,0,0,0,0,0,0,0,0,0,0,0,0,0,0,0,0,0,0,0,0,0,0,0,0,0,0,0,0,0,0,0,0,0,0,0,0,0,0,0,0,0,0,0,0,0,0,0,0,0,0,0,0,0,0,0,0,0,0,0,0,0,0,0,0],"id":8,"left_children":[1,3,5,7,9,11,13,15,17,19,21,23,25,-1,27,29,31,-1,33,35,37,39,-1,41,43,-1,-1,-1,45,47,49,51,53,55,57,59,-1,61,63,65,67,69,71,-1,73,-1,-1,-1,-1,-1,-1,-1,-1,-1,-1,-1,-1,-1,-1,-1,-1,-1,-1,-1,-1,-1,-1,-1,-1,-1,-1,-1,-1,-1,-1],"loss_changes":[3.621741E6,2.0194858E6,2.2674998E6,1.5505252E6,7.8185956E5,1.204974E6,1.528765E6,7.94136E5,1.194392E6,1.7176472E5,2.9474812E5,4.3904438E5,1.5231125E5,0E0,2.3412037E4,4.2104375E5,5.1047044E5,0E0,9.5535856E5,2.0076531E4,5.7239867E4,1.5751675E5,0E0,2.2082398E5,2.2277672E4,0E0,0E0,0E0,2.9631445E3,1.7720078E5,2.1396325E5,3.0459884E5,2.2881131E5,7.445298E5,2.4664356E5,1.1361162E3,0E0,7.5314893E3,1.4421172E4,1.8257227E4,3.81815E4,4.1133688E4,1.5699823E5,0E0,4.223117E3,0E0,0E0,0E0,0E0,0E0,0E0,0E0,0E0,0E0,0E0,0E0,0E0,0E0,0E0,0E0,0E0,0E0,0E0,0E0,0E0,0E0,0E0,0E0,0E0,0E0,0E0,0E0,0E0,0E0,0E0],"parents":[2147483647,0,0,1,1,2,2,3,3,4,4,5,5,6,6,7,7,8,8,9,9,10,10,11,11,12,12,14,14,15,15,16,16,18,18,19,19,20,20,21,21,23,23,24,24,28,28,29,29,30,30,31,31,32,32,33,33,34,34,35,35,37,37,38,38,39,39,40,40,41,41,42,42,44,44],"right_children":[2,4,6,8,10,12,14,16,18,20,22,24,26,-1,28,30,32,-1,34,36,38,40,-1,42,44,-1,-1,-1,46,48,50,52,54,56,58,60,-1,62,64,66,68,70,72,-1,74,-1,-1,-1,-1,-1,-1,-1,-1,-1,-1,-1,-1,-1,-1,-1,-1,-1,-1,-1,-1,-1,-1,-1,-1,-1,-1,-1,-1,-1,-1],"split_conditions":[6.295078E-2,3.02E0,1.005E3,-1.670257E-2,-2.310723E-2,6.3794464E-2,9.841865E-3,2.9974941E-2,-1.10335514E-1,-2.1753917E-2,4.8965488E-2,1.61E0,6.4E2,-3.321015E1,8.821E1,-6.264228E-2,4.925376E-2,-2.665923E1,6.3739054E-2,6.405735E-3,6.693342E-2,-2.1459498E-3,-2.6049717E1,3.72044E-2,-3.4292073E-3,-1.4922348E1,-4.9109664E0,4.0999026E0,6.2224068E-2,-4.3372836E-2,5.1520832E-2,5.7E0,6.098635E-3,9.9778E1,7.1914042E-3,-6.654649E-3,5.89121E0,4.2227637E-2,2.0425588E-2,-1.0258062E-1,7.404E1,-3.036111E-2,-1.21010905E-2,1.0122045E1,7.9925E1,-2.9247055E0,5.9881594E-2,6.832611E0,-3.7304707E0,1.4358197E1,4.1884346E0,-1.5159171E1,-1.5241182E-1,6.78708E0,-2.0894614E-1,4.0455595E-1,-1.9132961E1,3.9415157E0,1.6682144E1,1.2112732E-1,2.0532167E0,6.32993E-1,-1.7054043E0,-1.2190857E-1,-6.6150794E0,1.6601791E0,-4.1239967E0,-1.1168597E1,-5.9143525E-1,-2.3530364E0,-6.2448325E0,-1.720958E0,7.185249E0,4.904841E0,6.596222E-1],"split_indices":[302,7,22,49,42,227,30,152,100,213,82,6,22,0,0,343,312,0,111,280,393,292,0,387,47,0,0,0,24,41,105,2,210,0,143,27,0,199,26,41,0,62,308,0,0,0,0,0,0,0,0,0,0,0,0,0,0,0,0,0,0,0,0,0,0,0,0,0,0,0,0,0,0,0,0],"split_type":[0,0,0,0,0,0,0,0,0,0,0,0,0,0,0,0,0,0,0,0,0,0,0,0,0,0,0,0,0,0,0,0,0,0,0,0,0,0,0,0,0,0,0,0,0,0,0,0,0,0,0,0,0,0,0,0,0,0,0,0,0,0,0,0,0,0,0,0,0,0,0,0,0,0,0],"sum_hessian":[6.04E2,4.83E2,1.21E2,4.08E2,7.5E1,1.04E2,1.7E1,1.88E2,2.2E2,3.4E1,4.1E1,7.4E1,3E1,1.2E1,5E0,8.1E1,1.07E2,3E0,2.17E2,1.4E1,2E1,3.9E1,2E0,6.2E1,1.2E1,2.4E1,6E0,1E0,4E0,3E1,5.1E1,2.5E1,8.2E1,2E2,1.7E1,7E0,7E0,1.2E1,8E0,1.2E1,2.7E1,4E1,2.2E1,4E0,8E0,3E0,1E0,2.6E1,4E0,4.4E1,7E0,3E0,2.2E1,6.8E1,1.4E1,1.96E2,4E0,7E0,1E1,1E0,6E0,6E0,6E0,1E0,7E0,1E0,1.1E1,2.6E1,1E0,1.1E1,2.9E1,1.6E1,6E0,7E0,1E0],"tree_param":{"num_deleted":"0","num_feature":"407","num_nodes":"75","size_leaf_vector":"1"}},{"base_weights":[9.6737903E-1,3.6649532E1,-1.2831924E2,6.280882E1,-1.06832726E2,-2.818144E2,-2.886211E1,1.6015338E2,3.5550716E1,6.532712E1,-1.5630438E2,-1.7022154E2,-3.1515303E1,6.052908E1,-9.624971E1,2.2938309E2,2.7693836E1,1.2993796E2,-6.8046465E0,2.0920599E1,1.1266937E2,-1.9675562E2,-4.955115E1,8.486649E1,-2.0908745E2,1.3631929E2,-1.8623863E1,-6.773211E1,-1.3753917E1,3.0170016E2,1.2474921E2,6.8218056E1,-1.966757E2,1.9198507E1,1.8673802E2,1.1094785E2,-5.147772E1,-7.8508787E0,2.0705032E0,5.9625244E0,1.6650391E0,-6.1488186E1,-2.5060806E2,1.5091907E1,-3.530112E0,6.334621E0,4.0488686E-2,-6.312799E0,-1.3244913E1,7.0857315E1,1.7153534E2,5.7936463E0,-4.267802E1,-9.445925E1,-9.439819E0,1.58810215E1,1.8312113E0,3.615673E0,9.808574E0,-6.049215E-1,4.3510866E0,-3.969745E0,-1.2419898E1,-4.487716E0,4.135353E0,-1.5390313E0,9.897014E0,7.979091E0,-1.1990774E-1,2.643925E-1,-5.7992883E0,-7.683858E-1,1.1414591E-1,8.2739156E-1,-3.859045E0,-1.9930233E1,-1.1244111E1,1.2315689E0,-5.766495E-1,5.3024596E-1,3.8974907E0,9.247683E0,3.7051008E0,-2.9726174E0,-2.4060415E-1,-1.8622767E0,-5.2638826E0,-1.3158005E0,3.0605774E0],"categories":[],"categories_nodes":[],"categories_segments":[],"categories_sizes":[],"default_left":[0,0,0,0,0,0,0,0,0,0,0,0,0,0,0,0,0,0,0,0,0,0,0,0,0,0,0,0,0,0,0,0,0,0,0,0,0,0,0,0,0,0,0,0,0,0,0,0,0,0,0,0,0,0,0,0,0,0,0,0,0,0,0,0,0,0,0,0,0,0,0,0,0,0,0,0,0,0,0,0,0,0,0,0,0,0,0,0,0],"id":9,"left_children":[1,3,5,7,9,11,13,15,17,19,21,23,-1,25,27,29,31,33,35,37,39,41,43,45,47,49,51,53,-1,55,57,59,61,63,65,67,69,71,-1,-1,-1,73,75,77,-1,-1,-1,-1,-1,79,81,-1,83,85,87,-1,-1,-1,-1,-1,-1,-1,-1,-1,-1,-1,-1,-1,-1,-1,-1,-1,-1,-1,-1,-1,-1,-1,-1,-1,-1,-1,-1,-1,-1,-1,-1,-1,-1],"loss_changes":[2.7726382E6,1.7745582E6,1.9764705E6,1.0530244E6,6.3195425E5,1.8760562E6,4.8773453E5,7.9144925E5,1.2521975E6,3.338207E4,2.3639375E5,4.143135E5,0E0,2.1250447E5,2.1595738E5,3.9367175E5,2.9528125E5,6.065456E5,1.1472109E6,6.2202275E3,2.0753125E2,2.8325425E5,2.4199234E4,2.0991906E4,1.2835625E5,2.9341062E4,6.317895E4,6.298578E4,0E0,1.2763E5,7.944116E4,4.1829438E4,1.0608609E4,2.4268416E5,1.62041E5,3.3113062E5,5.791834E5,4.1595383E2,0E0,0E0,0E0,1.719693E4,2.0773625E4,1.5540106E3,0E0,0E0,0E0,0E0,0E0,2.5920664E3,6.758125E2,0E0,9.876721E3,1.3409797E4,1.8303406E4,0E0,0E0,0E0,0E0,0E0,0E0,0E0,0E0,0E0,0E0,0E0,0E0,0E0,0E0,0E0,0E0,0E0,0E0,0E0,0E0,0E0,0E0,0E0,0E0,0E0,0E0,0E0,0E0,0E0,0E0,0E0,0E0,0E0,0E0],"parents":[2147483647,0,0,1,1,2,2,3,3,4,4,5,5,6,6,7,7,8,8,9,9,10,10,11,11,13,13,14,14,15,15,16,16,17,17,18,18,19,19,20,20,21,21,22,22,23,23,24,24,25,25,26,26,27,27,29,29,30,30,31,31,32,32,33,33,34,34,35,35,36,36,37,37,41,41,42,42,43,43,49,49,50,50,52,52,53,53,54,54],"right_children":[2,4,6,8,10,12,14,16,18,20,22,24,-1,26,28,30,32,34,36,38,40,42,44,46,48,50,52,54,-1,56,58,60,62,64,66,68,70,72,-1,-1,-1,74,76,78,-1,-1,-1,-1,-1,80,82,-1,84,86,88,-1,-1,-1,-1,-1,-1,-1,-1,-1,-1,-1,-1,-1,-1,-1,-1,-1,-1,-1,-1,-1,-1,-1,-1,-1,-1,-1,-1,-1,-1,-1,-1,-1,-1],"split_conditions":[6.295078E-2,3.02E0,9.841865E-3,-5.40963E-2,-1.6598238E-2,1.005E3,-3.5790537E-2,1.832546E-2,8.283E1,6.405735E-3,7.404E1,3.6692396E-2,-3.1515303E1,8.283E1,-7.360485E-3,1.3029694E-2,2.4448253E-2,5.350432E-2,4.1702394E-3,5.9441812E-3,1.8060913E-2,2.1610392E-2,-1.1270604E-1,3.01E0,3.1418856E-2,6.69049E-2,-2.1716608E-2,2.5464373E-2,-1.3753917E1,2.04E0,-3.798516E-2,1.9628545E-2,8.2E0,2.3560341E-2,-5.507125E-2,5.560842E-2,8.366893E-3,-1.3859353E-2,2.0705032E0,5.9625244E0,1.6650391E0,4.614746E-3,-2.9281652E-2,4.8555657E-2,-3.530112E0,6.334621E0,4.0488686E-2,-6.312799E0,-1.3244913E1,-7.9902045E-2,-8.4049925E-3,5.7936463E0,6.658819E-2,-5.9941474E-2,6.898799E-2,1.58810215E1,1.8312113E0,3.615673E0,9.808574E0,-6.049215E-1,4.3510866E0,-3.969745E0,-1.2419898E1,-4.487716E0,4.135353E0,-1.5390313E0,9.897014E0,7.979091E0,-1.1990774E-1,2.643925E-1,-5.7992883E0,-7.683858E-1,1.1414591E-1,8.2739156E-1,-3.859045E0,-1.9930233E1,-1.1244111E1,1.2315689E0,-5.766495E-1,5.3024596E-1,3.8974907E0,9.247683E0,3.7051008E0,-2.9726174E0,-2.4060415E-1,-1.8622767E0,-5.2638826E0,-1.3158005E0,3.0605774E0],"split_indices":[302,7,30,53,384,22,116,101,0,280,0,244,0,0,121,128,132,365,86,30,23,108,28,2,24,302,27,311,0,3,341,82,1,95,156,39,173,23,0,0,0,36,324,26,0,0,0,0,0,23,62,0,97,117,26,0,0,0,0,0,0,0,0,0,0,0,0,0,0,0,0,0,0,0,0,0,0,0,0,0,0,0,0,0,0,0,0,0,0],"split_type":[0,0,0,0,0,0,0,0,0,0,0,0,0,0,0,0,0,0,0,0,0,0,0,0,0,0,0,0,0,0,0,0,0,0,0,0,0,0,0,0,0,0,0,0,0,0,0,0,0,0,0,0,0,0,0,0,0,0,0,0,0,0,0,0,0,0,0,0,0,0,0,0,0,0,0,0,0,0,0,0,0,0,0,0,0,0,0,0,0],"sum_hessian":[5.99E2,4.7E2,1.29E2,3.98E2,7.2E1,5E1,7.9E1,8.6E1,3.12E2,1.6E1,5.6E1,3.9E1,1.1E1,3.4E1,4.5E1,5.6E1,3E1,9.6E1,2.16E2,9E0,7E0,4E1,1.6E1,5E0,3.4E1,1.7E1,1.7E1,4E1,5E0,3.2E1,2.4E1,2.6E1,4E0,3.3E1,6.3E1,5.9E1,1.57E2,4E0,5E0,6E0,1E0,1.2E1,2.8E1,4E0,1.2E1,3E0,2E0,1.5E1,1.9E1,7E0,1E1,2E0,1.5E1,2.7E1,1.3E1,3E1,2E0,1.5E1,9E0,5E0,2.1E1,2E0,2E0,1.2E1,2.1E1,3E0,6E1,4.1E1,1.8E1,8.4E1,7.3E1,2E0,2E0,2E0,1E1,2E0,2.6E1,3E0,1E0,1E0,6E0,8E0,2E0,1E1,5E0,5E0,2.2E1,1.1E1,2E0],"tree_param":{"num_deleted":"0","num_feature":"407","num_nodes":"89","size_leaf_vector":"1"}},{"base_weights":[-3.0750573E0,-1.21637344E2,3.450587E1,-4.839794E2,-9.187358E1,-5.4132754E-1,1.6647482E2,-4.1434937E0,-2.9507462E1,-2.1305779E2,-2.4874695E1,2.0172216E1,-2.6442715E2,-2.645203E2,1.8286963E2,-5.906462E0,5.5957003E0,-2.5533965E2,-1.1844842E2,1.0709818E1,-5.081085E1,1.4744279E0,1.4762363E2,-2.9419022E1,-6.976274E1,-4.157966E0,-2.021508E1,2.520991E2,9.689683E1,-1.3123286E1,-4.8295026E0,-2.6606796E1,-1.3622827E2,-8.10574E1,4.7006336E1,-2.5264078E1,7.440943E1,-3.704439E-1,2.322049E2,5.679438E1,-1.3777417E2,3.318181E2,1.825779E2,1.1186587E2,-4.037999E0,-1.5240947E0,-3.7453768E-1,-3.5170777E0,-7.3901343E0,-8.548888E0,-2.5938265E0,5.7235575E0,-1.5952796E0,-9.25545E0,-6.36315E-1,-8.1952757E-1,6.1344247E0,4.5362477E0,-2.2943637E0,1.0150554E1,2.0390816E1,3.3929412E0,-2.3980713E-1,-1.7230042E0,-7.2016807E0,1.8592634E1,5.666154E0,7.000872E0,1.3316408E1,3.7270393E0,7.770893E0],"categories":[],"categories_nodes":[],"categories_segments":[],"categories_sizes":[],"default_left":[0,0,0,0,0,0,0,0,0,0,0,0,0,0,0,0,0,0,0,0,0,0,0,0,0,0,0,0,0,0,0,0,0,0,0,0,0,0,0,0,0,0,0,0,0,0,0,0,0,0,0,0,0,0,0,0,0,0,0,0,0,0,0,0,0,0,0,0,0,0,0],"id":10,"left_children":[1,3,5,7,9,11,13,15,-1,17,19,21,23,25,27,-1,-1,29,31,-1,33,35,37,-1,39,-1,-1,41,43,-1,-1,45,47,49,51,53,55,57,59,61,63,65,67,69,-1,-1,-1,-1,-1,-1,-1,-1,-1,-1,-1,-1,-1,-1,-1,-1,-1,-1,-1,-1,-1,-1,-1,-1,-1,-1,-1],"loss_changes":[2.7399852E6,1.5516658E6,2.1600318E6,5.5793975E5,1.1151506E6,2.0277581E6,7.4084825E5,5.290702E4,0E0,1.6576825E5,5.6893606E5,8.195549E5,1.6616316E6,6.778203E4,5.409985E5,0E0,0E0,1.198025E4,2.4135234E4,0E0,2.464181E5,5.88882E5,5.508571E5,0E0,1.6275675E5,0E0,0E0,2.2760975E5,1.2604575E5,0E0,0E0,6.797363E1,2.7973438E2,1.5643938E5,1.10127836E5,4.4055044E5,3.5709375E5,7.465148E4,6.0758375E4,5.095715E3,2.796875E3,1.590495E5,6.9642875E4,5.5063906E4,0E0,0E0,0E0,0E0,0E0,0E0,0E0,0E0,0E0,0E0,0E0,0E0,0E0,0E0,0E0,0E0,0E0,0E0,0E0,0E0,0E0,0E0,0E0,0E0,0E0,0E0,0E0],"parents":[2147483647,0,0,1,1,2,2,3,3,4,4,5,5,6,6,7,7,9,9,10,10,11,11,12,12,13,13,14,14,17,17,18,18,20,20,21,21,22,22,24,24,27,27,28,28,31,31,32,32,33,33,34,34,35,35,36,36,37,37,38,38,39,39,40,40,41,41,42,42,43,43],"right_children":[2,4,6,8,10,12,14,16,-1,18,20,22,24,26,28,-1,-1,30,32,-1,34,36,38,-1,40,-1,-1,42,44,-1,-1,46,48,50,52,54,56,58,60,62,64,66,68,70,-1,-1,-1,-1,-1,-1,-1,-1,-1,-1,-1,-1,-1,-1,-1,-1,-1,-1,-1,-1,-1,-1,-1,-1,-1,-1,-1],"split_conditions":[-8.9099415E-2,-1.0169426E-1,1.1E0,8.133E1,-3.731285E-3,9.745692E-2,-3.230851E-2,6.728E1,-2.9507462E1,-4.3700915E-3,-6.3681975E-3,3.849767E-2,-3.685707E-2,8.2E1,2.8944101E-2,-5.906462E0,5.5957003E0,8.747E1,-1.2211702E-1,1.0709818E1,-3.1266527E-3,1.9439941E-2,4.2051874E-2,-2.9419022E1,-1.4270136E-2,-4.157966E0,-2.021508E1,-4.3097503E-2,7.810833E-3,-1.3123286E1,-4.8295026E0,8.79E1,2.2775464E-2,-3.0731952E-2,1.8364744E-2,-4.286569E-2,-2.86483E-2,-6.9393255E-2,1.84E0,2.73E0,-4.489276E-2,8.73E1,5.06E0,4.3785326E-2,-4.037999E0,-1.5240947E0,-3.7453768E-1,-3.5170777E0,-7.3901343E0,-8.548888E0,-2.5938265E0,5.7235575E0,-1.5952796E0,-9.25545E0,-6.36315E-1,-8.1952757E-1,6.1344247E0,4.5362477E0,-2.2943637E0,1.0150554E1,2.0390816E1,3.3929412E0,-2.3980713E-1,-1.7230042E0,-7.2016807E0,1.8592634E1,5.666154E0,7.000872E0,1.3316408E1,3.7270393E0,7.770893E0],"split_indices":[28,100,6,0,324,380,279,0,0,195,26,159,27,0,319,0,0,0,55,0,369,289,196,0,51,0,0,71,79,0,0,0,24,110,30,122,348,80,14,1,25,0,1,204,0,0,0,0,0,0,0,0,0,0,0,0,0,0,0,0,0,0,0,0,0,0,0,0,0,0,0],"split_type":[0,0,0,0,0,0,0,0,0,0,0,0,0,0,0,0,0,0,0,0,0,0,0,0,0,0,0,0,0,0,0,0,0,0,0,0,0,0,0,0,0,0,0,0,0,0,0,0,0,0,0,0,0,0,0,0,0,0,0,0,0,0,0,0,0,0,0,0,0,0,0],"sum_hessian":[6.13E2,1.47E2,4.66E2,1E1,1.37E2,3.69E2,9.7E1,2E0,8E0,4.8E1,8.9E1,3.43E2,2.6E1,3E0,9.4E1,1E0,1E0,3.2E1,1.6E1,8E0,8.1E1,3E2,4.3E1,9E0,1.7E1,2E0,1E0,5.1E1,4.3E1,3E1,2E0,3E0,1.3E1,6.2E1,1.9E1,2.2E2,8E1,1.6E1,2.7E1,6E0,1.1E1,2.2E1,2.9E1,4E1,3E0,2E0,1E0,3E0,1E1,1.4E1,4.8E1,1E1,9E0,1.5E1,2.05E2,2.8E1,5.2E1,5E0,1.1E1,2.5E1,2E0,5E0,1E0,1E0,1E1,1.8E1,4E0,2.1E1,8E0,2.3E1,1.7E1],"tree_param":{"num_deleted":"0","num_feature":"407","num_nodes":"71","size_leaf_vector":"1"}},{"base_weights":[-1.2629092E-1,-7.825413E1,5.9795135E1,-2.5476451E2,-3.1829903E1,7.8022644E1,-3.3912057E2,-1.993058E2,-2.7436941E1,2.364931E0,-1.4213907E2,4.716033E1,1.7040839E2,1.3499548E2,-4.224458E2,-2.2420006E2,6.217874E0,8.2590454E1,-3.8526985E1,-1.0196968E2,-2.0651234E1,-2.3536419E1,5.3359943E1,1.3784903E2,3.1638177E2,-4.3890992E-1,1.0563571E1,-1.1038547E1,-2.6044813E1,-2.4122601E2,-5.8714995E0,2.2030185E2,2.3975763E1,-5.637999E1,1.06019905E2,-3.978188E1,-1.0415599E1,2.9906479E1,1.5875388E2,-3.3822136E1,1.5500789E2,1.900061E0,1.6743626E1,-1.2285985E1,-1.9863404E0,8.710791E0,1.8096807E1,3.0218346E0,-5.2137923E0,-2.1900356E0,-1.0413112E1,7.0344973E0,1.4671936E0,2.6166923E0,-3.0576618E0,-1.3867568E0,4.064214E0,3.8095548E0,1.2700983E1,-5.4150004E0,2.4555633E0,1.0436656E1,5.2312183E0],"categories":[],"categories_nodes":[],"categories_segments":[],"categories_sizes":[],"default_left":[0,0,0,0,0,0,0,0,0,0,0,0,0,0,0,0,0,0,0,0,0,0,0,0,0,0,0,0,0,0,0,0,0,0,0,0,0,0,0,0,0,0,0,0,0,0,0,0,0,0,0,0,0,0,0,0,0,0,0,0,0,0,0],"id":11,"left_children":[1,3,5,7,9,11,13,15,-1,17,19,21,23,25,27,29,-1,31,33,35,-1,-1,37,39,41,-1,-1,-1,-1,43,-1,45,47,49,51,53,-1,55,57,59,61,-1,-1,-1,-1,-1,-1,-1,-1,-1,-1,-1,-1,-1,-1,-1,-1,-1,-1,-1,-1,-1,-1],"loss_changes":[2.804235E6,2.122424E6,2.4914095E6,7.710185E5,7.811409E5,9.186159E5,6.496154E5,4.0657675E5,0E0,5.2479344E5,4.9106794E5,8.1174175E5,3.413635E5,3.4754E4,1.43116E5,5.165875E4,0E0,4.3060128E5,2.7952062E5,2.826934E5,0E0,0E0,5.9591244E5,2.0554888E5,5.9338875E4,0E0,0E0,0E0,0E0,2.3741E4,0E0,4.138275E4,1.8867283E5,1.7238206E5,2.7771953E4,6.029087E4,0E0,5.945543E5,3.2672388E5,4.8555668E4,1.4598712E5,0E0,0E0,0E0,0E0,0E0,0E0,0E0,0E0,0E0,0E0,0E0,0E0,0E0,0E0,0E0,0E0,0E0,0E0,0E0,0E0,0E0,0E0],"parents":[2147483647,0,0,1,1,2,2,3,3,4,4,5,5,6,6,7,7,9,9,10,10,11,11,12,12,13,13,14,14,15,15,17,17,18,18,19,19,22,22,23,23,24,24,29,29,31,31,32,32,33,33,34,34,35,35,37,37,38,38,39,39,40,40],"right_children":[2,4,6,8,10,12,14,16,-1,18,20,22,24,26,28,30,-1,32,34,36,-1,-1,38,40,42,-1,-1,-1,-1,44,-1,46,48,50,52,54,-1,56,58,60,62,-1,-1,-1,-1,-1,-1,-1,-1,-1,-1,-1,-1,-1,-1,-1,-1,-1,-1,-1,-1,-1,-1],"split_conditions":[3.389512E-2,-6.496133E-2,3.1787563E-2,5.91E0,7.682042E-2,1.5E0,-7.0770316E-2,1.34E-1,-2.7436941E1,2.312359E-2,8.5551225E-2,-1.1854639E-1,1.9489648E-2,6.44E1,-7.502929E-2,8.27767E-3,6.217874E0,-3.4060336E-3,3E-1,5.5510294E-2,-2.0651234E1,-2.3536419E1,-2.0448076E-2,-3.050184E-4,-7.072127E-2,-4.3890992E-1,1.0563571E1,-1.1038547E1,-2.6044813E1,2E-2,-5.8714995E0,1.22E-1,1.2622379E-1,1.5615975E-2,2.0823147E-2,1.5230595E-4,-1.0415599E1,1.2285386E-3,4.6433453E-3,-2.0276817E-2,5E0,1.900061E0,1.6743626E1,-1.2285985E1,-1.9863404E0,8.710791E0,1.8096807E1,3.0218346E0,-5.2137923E0,-2.1900356E0,-1.0413112E1,7.0344973E0,1.4671936E0,2.6166923E0,-3.0576618E0,-1.3867568E0,4.064214E0,3.8095548E0,1.2700983E1,-5.4150004E0,2.4555633E0,1.0436656E1,5.2312183E0],"split_indices":[353,134,91,2,70,6,34,12,0,86,168,163,61,0,25,95,0,333,9,108,0,0,372,175,37,0,0,0,0,9,0,12,312,96,24,309,0,131,308,27,2,0,0,0,0,0,0,0,0,0,0,0,0,0,0,0,0,0,0,0,0,0,0],"split_type":[0,0,0,0,0,0,0,0,0,0,0,0,0,0,0,0,0,0,0,0,0,0,0,0,0,0,0,0,0,0,0,0,0,0,0,0,0,0,0,0,0,0,0,0,0,0,0,0,0,0,0,0,0,0,0,0,0,0,0,0,0,0,0],"sum_hessian":[5.97E2,2.59E2,3.38E2,5.3E1,2.06E2,3.24E2,1.4E1,4.6E1,7E0,1.58E2,4.8E1,2.44E2,8E1,2E0,1.2E1,4.3E1,3E0,5.3E1,1.05E2,4.3E1,5E0,2E0,2.42E2,6.7E1,1.3E1,1E0,1E0,5E0,7E0,3.6E1,7E0,1.5E1,3.8E1,9.4E1,1.1E1,2.8E1,1.5E1,1.99E2,4.3E1,6E0,6.1E1,1E0,1.2E1,3.5E1,1E0,1.3E1,2E0,3E1,8E0,8.8E1,6E0,7E0,4E0,5E0,2.3E1,9.4E1,1.05E2,2.4E1,1.9E1,3E0,3E0,2.8E1,3.3E1],"tree_param":{"num_deleted":"0","num_feature":"407","num_nodes":"63","size_leaf_vector":"1"}},{"base_weights":[-7.254023E-2,-1.7698695E2,2.3961254E1,-2.1214452E2,9.268761E1,4.459486E1,-2.0495984E2,-2.7861185E2,-1.1074069E2,7.5017624E0,1.680244E1,1.9146286E1,1.4804535E2,-2.7566616E1,-4.5966302E2,-1.1989581E1,-2.4343357E1,-1.3369124E2,-8.131917E0,-1.1301677E0,2.5303712E0,-7.71288E0,8.471261E1,1.7612708E2,-4.479387E1,-5.7634098E1,4.3637633E0,-7.244951E1,-2.8256025E1,-1.4541164E2,2.81093E0,1.4379853E0,-2.1262182E1,2.5207095E2,-1.8307339E1,1.4245819E2,2.2360794E1,1.2933539E2,2.8771732E2,-6.934756E1,2.7788818E1,-6.774832E1,4.816986E0,4.2127686E1,-8.143844E0,-5.421571E0,-1.0194095E1,-1.3006257E0,-4.7122294E-1,1.5138102E1,4.383556E0,-3.3208854E0,1.2274039E0,1.3815871E1,5.1201134E0,5.07255E0,-1.5899537E0,1.3045015E1,5.646479E0,1.6049803E1,4.8529444E0,-2.0379634E0,-4.4892E0,3.186035E-2,1.8313477E0,-3.4653308E0,-9.924759E-1,-1.6536662E-1,7.2974855E-1,3.771448E0,-6.1187136E-1],"categories":[],"categories_nodes":[],"categories_segments":[],"categories_sizes":[],"default_left":[0,0,0,0,0,0,0,0,0,0,0,0,0,0,0,0,0,0,0,0,0,0,0,0,0,0,0,0,0,0,0,0,0,0,0,0,0,0,0,0,0,0,0,0,0,0,0,0,0,0,0,0,0,0,0,0,0,0,0,0,0,0,0,0,0,0,0,0,0,0,0],"id":12,"left_children":[1,3,5,7,9,11,13,15,17,-1,19,21,23,25,27,-1,-1,29,31,-1,-1,33,35,37,39,41,-1,43,-1,45,-1,-1,47,49,51,53,55,57,59,61,63,65,67,69,-1,-1,-1,-1,-1,-1,-1,-1,-1,-1,-1,-1,-1,-1,-1,-1,-1,-1,-1,-1,-1,-1,-1,-1,-1,-1,-1],"loss_changes":[2.5596472E6,7.023025E5,2.5125782E6,4.0050925E5,3.6645562E4,1.2792745E6,1.9753639E6,1.90465E5,6.2495875E4,0E0,7.804458E3,6.909876E5,5.2775425E5,9.82612E4,6.9407925E5,0E0,0E0,5.7142875E4,3.5178745E3,0E0,0E0,7.724978E5,4.0727625E5,4.0139375E5,2.5095332E4,1.4222508E4,0E0,5.866619E4,0E0,2.3299906E4,0E0,0E0,3.601172E1,6.5126125E4,5.562519E5,2.8805388E5,2.4310288E5,1.02200625E5,1.21121375E5,2.1829023E3,9.3653955E2,4.246875E1,3.6602826E2,6.354338E3,0E0,0E0,0E0,0E0,0E0,0E0,0E0,0E0,0E0,0E0,0E0,0E0,0E0,0E0,0E0,0E0,0E0,0E0,0E0,0E0,0E0,0E0,0E0,0E0,0E0,0E0,0E0],"parents":[2147483647,0,0,1,1,2,2,3,3,4,4,5,5,6,6,7,7,8,8,10,10,11,11,12,12,13,13,14,14,17,17,18,18,21,21,22,22,23,23,24,24,25,25,27,27,29,29,32,32,33,33,34,34,35,35,36,36,37,37,38,38,39,39,40,40,41,41,42,42,43,43],"right_children":[2,4,6,8,10,12,14,16,18,-1,20,22,24,26,28,-1,-1,30,32,-1,-1,34,36,38,40,42,-1,44,-1,46,-1,-1,48,50,52,54,56,58,60,62,64,66,68,70,-1,-1,-1,-1,-1,-1,-1,-1,-1,-1,-1,-1,-1,-1,-1,-1,-1,-1,-1,-1,-1,-1,-1,-1,-1,-1,-1],"split_conditions":[-5.3380862E-2,5.884617E-2,1.0025E3,-8.47633E-3,8.972E1,2.65E0,2.18E-1,4.604354E-2,-1.2667253E-2,7.5017624E0,9.03E1,1.2E-1,-2.7345119E-3,4.1562676E-2,-6.9246545E-2,-1.1989581E1,-2.4343357E1,5.8E-1,8.72E1,-1.1301677E0,2.5303712E0,-9.425905E-2,-1.3074508E-2,-7.147386E-3,1.2678593E-1,-6.7849964E-2,4.3637633E0,-7.140661E-2,-2.8256025E1,-6.573626E-2,2.81093E0,1.4379853E0,8.79E1,-2.1540286E-2,3.2520797E-2,-6.505593E-2,-1.9071938E-2,-4.979796E-2,8.73E1,-2.6628524E-2,1E0,1.43E0,8.9863E1,-7.677781E-2,-8.143844E0,-5.421571E0,-1.0194095E1,-1.3006257E0,-4.7122294E-1,1.5138102E1,4.383556E0,-3.3208854E0,1.2274039E0,1.3815871E1,5.1201134E0,5.07255E0,-1.5899537E0,1.3045015E1,5.646479E0,1.6049803E1,4.8529444E0,-2.0379634E0,-4.4892E0,3.186035E-2,1.8313477E0,-3.4653308E0,-9.924759E-1,-1.6536662E-1,7.2974855E-1,3.771448E0,-6.1187136E-1],"split_indices":[165,365,22,195,0,6,11,378,116,0,0,9,79,84,23,0,0,10,0,0,0,241,91,337,109,157,0,23,0,165,0,0,0,44,353,229,73,337,0,56,2,4,0,23,0,0,0,0,0,0,0,0,0,0,0,0,0,0,0,0,0,0,0,0,0,0,0,0,0,0,0],"split_type":[0,0,0,0,0,0,0,0,0,0,0,0,0,0,0,0,0,0,0,0,0,0,0,0,0,0,0,0,0,0,0,0,0,0,0,0,0,0,0,0,0,0,0,0,0,0,0,0,0,0,0,0,0,0,0,0,0,0,0,0,0,0,0,0,0,0,0,0,0,0,0],"sum_hessian":[6E2,7.1E1,5.29E2,6.3E1,8E0,4.86E2,4.3E1,3.7E1,2.6E1,4E0,4E0,3.91E2,9.5E1,2.6E1,1.7E1,3.3E1,4E0,2.1E1,5E0,2E0,2E0,2.78E2,1.13E2,8.3E1,1.2E1,2.1E1,5E0,4E0,1.3E1,2E1,1E0,1E0,4E0,1E1,2.68E2,5.8E1,5.5E1,6E1,2.3E1,9E0,3E0,1.8E1,3E0,2E0,2E0,1.4E1,6E0,2E0,2E0,7E0,3E0,1.26E2,1.42E2,1.2E1,4.6E1,2.2E1,3.3E1,5E0,5.5E1,1.9E1,4E0,5E0,4E0,1E0,2E0,1.7E1,1E0,2E0,1E0,1E0,1E0],"tree_param":{"num_deleted":"0","num_feature":"407","num_nodes":"71","size_leaf_vector":"1"}},{"base_weights":[1.4685658E0,3.0110104E1,-1.224064E2,5.3932053E1,-2.142078E2,-2.5449664E2,-8.048773E1,1.0485763E2,1.3139038E1,-1.983231E1,-4.689212E2,-2.0403214E2,-2.4682978E1,5.880428E1,-1.0763493E2,2.3130527E2,8.118272E1,-7.3791916E1,4.143683E1,8.000106E1,-5.3782375E1,-2.8442636E1,4.8035034E1,-1.0810409E1,1.9004135E0,9.134911E0,5.0561557E0,-8.4581154E1,-1.8591856E2,8.014889E1,2.8949884E2,1.1897815E2,1.8298122E1,-1.3551395E2,3.6759075E1,1.2821867E2,4.2129335E0,4.4295607E0,7.115051E-1,-3.0902092E0,-6.244095E0,-5.965759E-1,3.600053E0,-6.682488E-1,1.2653918E0,2.922354E0,-1.0698465E2,-9.691413E0,-1.6818298E0,4.868654E0,-1.8717194E0,1.5718988E1,1.3563212E0,2.5219257E0,7.826898E0,3.5775936E0,-4.83442E0,-1.5376953E1,-4.805565E0,-1.7269804E-1,4.047092E0,8.508433E0,-6.391336E-1,-1.543239E0,6.342225E0,-4.2275086E-1,9.716797E-3,1.8254493E0,-2.1173441E0,-3.7478979E0,-7.7209444E0],"categories":[],"categories_nodes":[],"categories_segments":[],"categories_sizes":[],"default_left":[0,0,0,0,0,0,0,0,0,0,0,0,0,0,0,0,0,0,0,0,0,0,0,0,0,0,0,0,0,0,0,0,0,0,0,0,0,0,0,0,0,0,0,0,0,0,0,0,0,0,0,0,0,0,0,0,0,0,0,0,0,0,0,0,0,0,0,0,0,0,0],"id":13,"left_children":[1,3,5,7,9,11,13,15,17,19,21,23,-1,25,27,29,31,33,35,37,39,-1,41,-1,-1,43,-1,45,47,49,51,53,55,57,59,61,63,-1,-1,-1,65,-1,-1,-1,-1,67,69,-1,-1,-1,-1,-1,-1,-1,-1,-1,-1,-1,-1,-1,-1,-1,-1,-1,-1,-1,-1,-1,-1,-1,-1],"loss_changes":[2.1537552E6,2.8808762E6,6.107394E5,9.334556E5,2.1691425E6,2.2514712E5,3.390915E5,5.7994925E5,6.205062E5,9.242574E4,1.00886875E6,7.894781E4,0E0,3.06055E4,1.1782506E5,2.4948338E5,4.018705E5,4.2803412E5,6.132279E5,2.694211E3,7.2409453E3,0E0,6.6077217E3,0E0,0E0,3.2493506E3,0E0,1.1597531E5,1.27523125E4,2.389786E4,1.3508938E5,2.6498412E5,4.0494338E5,2.4157175E5,4.1144195E4,3.393305E5,5.803342E5,0E0,0E0,0E0,5.858258E1,0E0,0E0,0E0,0E0,2.131178E4,5.9825688E4,0E0,0E0,0E0,0E0,0E0,0E0,0E0,0E0,0E0,0E0,0E0,0E0,0E0,0E0,0E0,0E0,0E0,0E0,0E0,0E0,0E0,0E0,0E0,0E0],"parents":[2147483647,0,0,1,1,2,2,3,3,4,4,5,5,6,6,7,7,8,8,9,9,10,10,11,11,13,13,14,14,15,15,16,16,17,17,18,18,19,19,20,20,22,22,25,25,27,27,28,28,29,29,30,30,31,31,32,32,33,33,34,34,35,35,36,36,40,40,45,45,46,46],"right_children":[2,4,6,8,10,12,14,16,18,20,22,24,-1,26,28,30,32,34,36,38,40,-1,42,-1,-1,44,-1,46,48,50,52,54,56,58,60,62,64,-1,-1,-1,66,-1,-1,-1,-1,68,70,-1,-1,-1,-1,-1,-1,-1,-1,-1,-1,-1,-1,-1,-1,-1,-1,-1,-1,-1,-1,-1,-1,-1,-1],"split_conditions":[2.9E0,1.0025E3,-8.0126174E-2,-2.0157794E-2,2.73E0,3.33E0,-1.6598238E-2,-7.693135E-2,-2.8030735E-2,5.3433172E-2,4.8203524E-2,7.515E1,-2.4682978E1,1.1030756E-1,1.7649358E-2,-5.9350368E-2,2.9937474E-2,1.5409468E-2,1.0458641E-2,8.62E1,1.891878E-2,-2.8442636E1,-2.3950782E-2,-1.0810409E1,1.9004135E0,2.9388351E-2,5.0561557E0,-6.966669E-2,2E-2,2E-2,3.7E-1,-1.3440535E-2,8.665E1,-1.05422765E-1,-1.356212E-2,7.547591E-2,4.48E0,4.4295607E0,7.115051E-1,-3.0902092E0,5.9281774E-2,-5.965759E-1,3.600053E0,-6.682488E-1,1.2653918E0,-2.0529492E-2,-2.9826707E-3,-9.691413E0,-1.6818298E0,4.868654E0,-1.8717194E0,1.5718988E1,1.3563212E0,2.5219257E0,7.826898E0,3.5775936E0,-4.83442E0,-1.5376953E1,-4.805565E0,-1.7269804E-1,4.047092E0,8.508433E0,-6.391336E-1,-1.543239E0,6.342225E0,-4.2275086E-1,9.716797E-3,1.8254493E0,-2.1173441E0,-3.7478979E0,-7.7209444E0],"split_indices":[7,22,85,139,1,5,384,245,279,54,52,0,0,118,313,40,304,106,63,0,72,0,27,0,0,24,0,248,9,9,12,404,0,294,205,87,5,0,0,0,24,0,0,0,0,41,251,0,0,0,0,0,0,0,0,0,0,0,0,0,0,0,0,0,0,0,0,0,0,0,0],"split_type":[0,0,0,0,0,0,0,0,0,0,0,0,0,0,0,0,0,0,0,0,0,0,0,0,0,0,0,0,0,0,0,0,0,0,0,0,0,0,0,0,0,0,0,0,0,0,0,0,0,0,0,0,0,0,0,0,0,0,0,0,0,0,0,0,0,0,0,0,0,0,0],"sum_hessian":[6.05E2,4.92E2,1.13E2,4.49E2,4.3E1,2.6E1,8.7E1,1.99E2,2.5E2,2.5E1,1.8E1,2.3E1,3E0,1.4E1,7.3E1,3E1,1.69E2,6.1E1,1.89E2,6E0,1.9E1,1.5E1,3E0,2.2E1,1E0,7E0,7E0,5.8E1,1.5E1,9E0,2.1E1,1.05E2,6.4E1,3.9E1,2.2E1,5.6E1,1.33E2,5E0,1E0,1.6E1,3E0,1E0,2E0,3E0,4E0,1.2E1,4.6E1,1.4E1,1E0,8E0,1E0,1.9E1,2E0,3.8E1,6.7E1,4.4E1,2E1,6E0,3.3E1,1.2E1,1E1,4.3E1,1.3E1,1.04E2,2.9E1,2E0,1E0,7E0,5E0,2.9E1,1.7E1],"tree_param":{"num_deleted":"0","num_feature":"407","num_nodes":"71","size_leaf_vector":"1"}},{"base_weights":[-4.4886684E0,-1.0795155E2,2.7909472E1,-8.565443E1,-2.3814798E1,-1.9769864E0,1.3690935E2,2.626787E1,-1.2887984E2,1.6107803E1,-2.1827797E2,-3.083657E2,1.492693E2,-3.879454E1,1.5937689E2,-2.004315E2,-7.697308E1,3.7917237E0,1.510094E2,-2.4806334E1,-6.05535E1,-4.4014497E0,-1.8725977E1,2.0938373E2,7.806889E1,-7.254394E1,6.2105803E0,1.1875323E1,1.1218736E2,-9.9195786E1,-2.1495203E2,-2.0047045E1,-5.857174E1,1.8276677E2,-7.2919273E0,1.7877493E2,-6.99808E0,4.078743E1,-1.23068E2,2.636093E2,1.2955107E2,9.410064E1,-3.6105785E0,-1.2147895E1,-2.237231E0,6.2315097E0,2.080536E0,-5.363048E0,-1.2701172E0,-2.8141892E0,-1.0898167E1,2.9811933E0,-3.68231E0,1.5286133E0,9.994016E0,-4.664703E0,9.929355E-1,1.4342987E1,5.7400293E0,2.8828971E0,-3.2746992E-1,-1.426767E0,-6.4533877E0,1.44036045E1,4.1840515E0,1.8907007E0,7.3436966E0,9.069865E0,3.725619E0],"categories":[],"categories_nodes":[],"categories_segments":[],"categories_sizes":[],"default_left":[0,0,0,0,0,0,0,0,0,0,0,0,0,0,0,0,0,0,0,0,0,0,0,0,0,0,0,0,0,0,0,0,0,0,0,0,0,0,0,0,0,0,0,0,0,0,0,0,0,0,0,0,0,0,0,0,0,0,0,0,0,0,0,0,0,0,0,0,0],"id":14,"left_children":[1,3,5,7,-1,9,11,13,15,17,19,21,23,25,27,29,31,33,35,-1,37,-1,-1,39,41,43,-1,-1,45,47,49,-1,51,53,55,57,-1,59,61,63,65,67,-1,-1,-1,-1,-1,-1,-1,-1,-1,-1,-1,-1,-1,-1,-1,-1,-1,-1,-1,-1,-1,-1,-1,-1,-1,-1,-1],"loss_changes":[2.0242719E6,1.1418785E6,1.498776E6,6.661759E5,0E0,1.4195724E6,5.908841E5,3.4393828E5,3.5225962E5,5.560162E5,1.1970168E6,1.0759781E4,3.9883025E5,1.5754752E5,2.1284469E4,3.89475E4,3.282413E5,6.123114E5,2.5123256E5,0E0,1.25389914E5,0E0,0E0,1.909555E5,1.1762103E5,9.808898E4,0E0,0E0,3.5957812E3,1.4414219E3,4.45525E3,0E0,1.0594997E5,4.077175E4,6.813414E5,1.4684938E5,0E0,6.7663955E3,3.1230781E3,1.0794025E5,3.0996531E4,5.830325E4,0E0,0E0,0E0,0E0,0E0,0E0,0E0,0E0,0E0,0E0,0E0,0E0,0E0,0E0,0E0,0E0,0E0,0E0,0E0,0E0,0E0,0E0,0E0,0E0,0E0,0E0,0E0],"parents":[2147483647,0,0,1,1,2,2,3,3,5,5,6,6,7,7,8,8,9,9,10,10,11,11,12,12,13,13,14,14,15,15,16,16,17,17,18,18,20,20,23,23,24,24,25,25,28,28,29,29,30,30,32,32,33,33,34,34,35,35,37,37,38,38,39,39,40,40,41,41],"right_children":[2,4,6,8,-1,10,12,14,16,18,20,22,24,26,28,30,32,34,36,-1,38,-1,-1,40,42,44,-1,-1,46,48,50,-1,52,54,56,58,-1,60,62,64,66,68,-1,-1,-1,-1,-1,-1,-1,-1,-1,-1,-1,-1,-1,-1,-1,-1,-1,-1,-1,-1,-1,-1,-1,-1,-1,-1,-1],"split_conditions":[-8.9099415E-2,5.783069E-2,1.1E0,-8.691963E-3,-2.3814798E1,9.745692E-2,-9.470358E-3,-6.6948935E-2,-4.3700915E-3,2.6E-1,-3.685707E-2,8.2E1,2.8944101E-2,5.8E-1,6.15E1,3.5871938E-2,-1.40921725E-2,-2.6161617E-2,9.8E1,-2.4806334E1,-1.4270136E-2,-4.4014497E0,-1.8725977E1,4.786826E-3,-7.3405076E-3,-2.5287462E-2,6.2105803E0,1.1875323E1,1.178533E-2,9E0,-3.021867E-2,-2.0047045E1,1.0651777E-2,-5.5221677E-2,1E0,-1.8909946E-2,-6.99808E0,2.73E0,-4.489276E-2,8.73E1,-5.9540663E-2,-4.963935E-3,-3.6105785E0,-1.2147895E1,-2.237231E0,6.2315097E0,2.080536E0,-5.363048E0,-1.2701172E0,-2.8141892E0,-1.0898167E1,2.9811933E0,-3.68231E0,1.5286133E0,9.994016E0,-4.664703E0,9.929355E-1,1.4342987E1,5.7400293E0,2.8828971E0,-3.2746992E-1,-1.426767E0,-6.4533877E0,1.44036045E1,4.1840515E0,1.8907007E0,7.3436966E0,9.069865E0,3.725619E0],"split_indices":[28,261,6,73,0,380,262,157,195,12,27,0,319,10,0,24,108,29,0,0,51,0,0,36,79,74,0,0,47,1,39,0,86,81,2,219,0,1,25,0,116,339,0,0,0,0,0,0,0,0,0,0,0,0,0,0,0,0,0,0,0,0,0,0,0,0,0,0,0],"split_type":[0,0,0,0,0,0,0,0,0,0,0,0,0,0,0,0,0,0,0,0,0,0,0,0,0,0,0,0,0,0,0,0,0,0,0,0,0,0,0,0,0,0,0,0,0,0,0,0,0,0,0,0,0,0,0,0,0,0,0,0,0,0,0,0,0,0,0,0,0],"sum_hessian":[6.02E2,1.43E2,4.59E2,1.36E2,7E0,3.61E2,9.8E1,3.8E1,9.8E1,3.34E2,2.7E1,2E0,9.6E1,2.6E1,1.2E1,4E1,5.8E1,3.07E2,2.7E1,9E0,1.8E1,1E0,1E0,5.1E1,4.5E1,2.2E1,4E0,3E0,9E0,6E0,3.4E1,2E0,5.6E1,1.7E1,2.9E2,2.5E1,2E0,7E0,1.1E1,2.9E1,2.2E1,4.1E1,4E0,2E0,2E1,7E0,2E0,5E0,1E0,1E0,3.3E1,6E0,5E1,2E0,1.5E1,6.9E1,2.21E2,8E0,1.7E1,5E0,2E0,1E0,1E1,2.5E1,4E0,4E0,1.8E1,6E0,3.5E1],"tree_param":{"num_deleted":"0","num_feature":"407","num_nodes":"69","size_leaf_vector":"1"}},{"base_weights":[4.668679E0,-1.4342255E2,2.6130476E1,5.6350185E1,-1.880033E2,4.522386E1,-1.7906888E2,8.679615E1,-4.907524E1,-2.4926001E2,-9.482708E1,-5.0532413E0,7.9849724E1,-2.4319546E1,-3.7902704E2,1.05355965E2,-4.001953E0,-3.0057597E0,-3.988846E-1,-2.1698751E1,-2.1476486E2,-1.5388318E1,-1.3369154E2,-2.4241833E1,1.7077504E2,1.002023E2,-2.0660791E1,-5.2167404E1,4.0921264E0,-3.9147625E1,-2.4485518E1,1.11264915E2,1.3043854E0,8.266083E-1,-1.1267548E0,-4.383323E0,-1.0998446E1,-4.5091316E1,3.4474561E0,-1.4717863E2,2.3897202E0,-9.1608284E1,1.5457824E1,2.1229941E2,-6.76481E0,2.4558066E2,8.748056E1,-1.393873E2,2.0499876E1,-6.1224976E1,3.8979187E0,-6.9573913E0,4.5639435E1,6.437786E0,2.860624E0,-2.9881208E0,-7.7398074E-1,-5.7882276E0,-1.1016663E1,-1.2507327E1,-3.4657304E0,3.8499305E0,-1.6165314E0,2.0572514E1,6.3004932E0,1.2961955E1,4.3161316E0,1.2652591E1,3.7647748E0,-9.326694E0,-3.616413E0,3.3830903E0,-2.8162935E0,-3.8476288E0,-2.2818916E0,-1.8606772E-1,6.6889346E-1,-6.06485E-1,3.4469526E0],"categories":[],"categories_nodes":[],"categories_segments":[],"categories_sizes":[],"default_left":[0,0,0,0,0,0,0,0,0,0,0,0,0,0,0,0,0,0,0,0,0,0,0,0,0,0,0,0,0,0,0,0,0,0,0,0,0,0,0,0,0,0,0,0,0,0,0,0,0,0,0,0,0,0,0,0,0,0,0,0,0,0,0,0,0,0,0,0,0,0,0,0,0,0,0,0,0,0,0],"id":15,"left_children":[1,3,5,7,9,11,13,15,17,19,21,23,25,27,29,31,33,-1,-1,-1,35,37,39,41,43,45,47,49,-1,51,-1,53,-1,-1,-1,-1,-1,55,-1,57,-1,59,61,63,-1,65,67,69,71,73,75,-1,77,-1,-1,-1,-1,-1,-1,-1,-1,-1,-1,-1,-1,-1,-1,-1,-1,-1,-1,-1,-1,-1,-1,-1,-1,-1,-1],"loss_changes":[1.9584045E6,7.0526375E5,2.1159555E6,5.2406215E4,3.41654E5,8.586612E5,1.4141782E6,2.0643984E4,1.3352793E3,1.4892475E5,8.130105E4,6.856671E5,5.993996E5,8.409194E4,7.3320875E5,1.7812812E3,1.5142391E3,0E0,0E0,0E0,3.204625E3,2.8159754E4,5.1093188E4,4.9083584E5,2.8291162E5,4.2793675E5,2.4720053E5,1.141059E4,0E0,5.722297E4,0E0,1.1423516E3,0E0,0E0,0E0,0E0,0E0,2.5503906E3,0E0,1.35606875E4,0E0,2.2300038E5,3.436383E5,2.5747662E5,0E0,1.8950875E4,4.34883E5,2.7609172E4,1.4149461E5,1.145875E3,3.387051E2,0E0,6.220203E3,0E0,0E0,0E0,0E0,0E0,0E0,0E0,0E0,0E0,0E0,0E0,0E0,0E0,0E0,0E0,0E0,0E0,0E0,0E0,0E0,0E0,0E0,0E0,0E0,0E0,0E0],"parents":[2147483647,0,0,1,1,2,2,3,3,4,4,5,5,6,6,7,7,8,8,9,9,10,10,11,11,12,12,13,13,14,14,15,15,16,16,20,20,21,21,22,22,23,23,24,24,25,25,26,26,27,27,29,29,31,31,37,37,39,39,41,41,42,42,43,43,45,45,46,46,47,47,48,48,49,49,50,50,52,52],"right_children":[2,4,6,8,10,12,14,16,18,20,22,24,26,28,30,32,34,-1,-1,-1,36,38,40,42,44,46,48,50,-1,52,-1,54,-1,-1,-1,-1,-1,56,-1,58,-1,60,62,64,-1,66,68,70,72,74,76,-1,78,-1,-1,-1,-1,-1,-1,-1,-1,-1,-1,-1,-1,-1,-1,-1,-1,-1,-1,-1,-1,-1,-1,-1,-1,-1,-1],"split_conditions":[-5.3380862E-2,8.945712E-2,1.0025E3,6.33E0,-8.47633E-3,3.315775E-3,2.73E0,9.22E1,8.663E1,-2.9281652E-2,-4.7685333E-2,2.5E-1,4.642644E-2,-2.789521E-8,-6.521603E-2,1.2E-1,9.398E1,-3.0057597E0,-3.988846E-1,-2.1698751E1,-3.070115E-2,-3.5229474E-2,5.8E-1,-6.864063E-2,9.8E1,-5.2714624E-2,-1.3830924E-2,-6.7849964E-2,4.0921264E0,3.1008383E-2,-2.4485518E1,3.91E0,1.3043854E0,8.266083E-1,-1.1267548E0,-4.383323E0,-1.0998446E1,-1.973259E-2,3.4474561E0,-4.7922473E-2,2.3897202E0,-4.2319525E-2,4.667952E-2,-8.737634E-3,-6.76481E0,-3.0270485E-2,-8.885406E-2,-2.0190248E-2,-2.3525576E-3,-2.5623955E-2,8.9863E1,-6.9573913E0,-2.3950782E-2,6.437786E0,2.860624E0,-2.9881208E0,-7.7398074E-1,-5.7882276E0,-1.1016663E1,-1.2507327E1,-3.4657304E0,3.8499305E0,-1.6165314E0,2.0572514E1,6.3004932E0,1.2961955E1,4.3161316E0,1.2652591E1,3.7647748E0,-9.326694E0,-3.616413E0,3.3830903E0,-2.8162935E0,-3.8476288E0,-2.2818916E0,-1.8606772E-1,6.6889346E-1,-6.06485E-1,3.4469526E0],"split_indices":[165,250,22,2,195,194,1,0,0,324,169,12,167,342,23,7,0,0,0,0,44,32,10,104,0,195,324,157,0,24,0,4,0,0,0,0,0,25,0,34,0,167,200,30,0,23,388,123,397,321,0,0,27,0,0,0,0,0,0,0,0,0,0,0,0,0,0,0,0,0,0,0,0,0,0,0,0,0,0],"split_type":[0,0,0,0,0,0,0,0,0,0,0,0,0,0,0,0,0,0,0,0,0,0,0,0,0,0,0,0,0,0,0,0,0,0,0,0,0,0,0,0,0,0,0,0,0,0,0,0,0,0,0,0,0,0,0,0,0,0,0,0,0,0,0,0,0,0,0,0,0,0,0,0,0,0,0,0,0,0,0],"sum_hessian":[6.14E2,7.7E1,5.37E2,1.4E1,6.3E1,4.92E2,4.5E1,1.1E1,3E0,3.7E1,2.6E1,2.01E2,2.91E2,2.6E1,1.9E1,9E0,2E0,2E0,1E0,4E0,3.3E1,9E0,1.7E1,1.82E2,1.9E1,2.42E2,4.9E1,2.1E1,5E0,5E0,1.4E1,8E0,1E0,1E0,1E0,2E0,3.1E1,7E0,2E0,1.6E1,1E0,6.7E1,1.15E2,1.7E1,2E0,1.8E1,2.24E2,1.2E1,3.7E1,1.8E1,3E0,2E0,3E0,5E0,3E0,4E0,3E0,1.3E1,3E0,7E0,6E1,5E1,6.5E1,4E0,1.3E1,1.6E1,2E0,1.4E1,2.1E2,6E0,6E0,2.3E1,1.4E1,7E0,1.1E1,2E0,1E0,1E0,2E0],"tree_param":{"num_deleted":"0","num_feature":"407","num_nodes":"79","size_leaf_vector":"1"}},{"base_weights":[3.143791E-1,2.9195639E1,-1.0822579E2,5.1159252E1,-8.78435E1,-6.688097E1,-3.3319028E2,1.2873225E2,2.7692907E1,-4.06674E0,-1.5517438E2,-1.9553185E2,-2.2625288E1,-4.2641487E1,-2.3200481E1,3.894449E1,1.9839041E2,1.0198606E2,-8.861056E0,-5.344153E1,5.4819992E1,-1.3302821E2,-1.9567488E1,-1.0497967E1,-1.0125366E1,-7.601763E1,3.0016638E1,-2.4838538E0,-1.0699463E-2,-9.713332E0,6.246817E1,2.4368805E2,7.343021E1,1.2482891E1,1.4998804E2,7.735393E1,-5.2537327E1,-2.8874542E1,-6.9174547E0,2.1786366E1,9.417946E1,-1.4248799E1,-1.5007669E2,-6.923065E-1,-6.709595E-2,-8.952846E1,-1.9532722E1,-5.150006E0,1.5562581E2,2.034329E0,8.59278E0,1.2847597E1,3.8566694E-1,4.3903804E0,-6.674276E-1,2.83377E0,-4.6553473E0,2.557852E0,9.196246E0,5.6204767E0,-7.035756E0,-1.6997913E0,-1.3007283E1,9.4568215E-2,-2.9938436E0,2.0289876E0,1.2470754E-1,2.3937073E0,5.846996E0,1.6988281E0,-1.5344592E0,-8.409267E0,-4.05438E0,-4.7464905E0,-2.8360698E-1,-1.692892E0,3.4190676E-1,2.668682E0,-2.5540917E0,8.219525E0,2.1377075E0],"categories":[],"categories_nodes":[],"categories_segments":[],"categories_sizes":[],"default_left":[0,0,0,0,0,0,0,0,0,0,0,0,0,0,0,0,0,0,0,0,0,0,0,0,0,0,0,0,0,0,0,0,0,0,0,0,0,0,0,0,0,0,0,0,0,0,0,0,0,0,0,0,0,0,0,0,0,0,0,0,0,0,0,0,0,0,0,0,0,0,0,0,0,0,0,0,0,0,0,0,0],"id":16,"left_children":[1,3,5,7,9,11,13,15,17,19,21,23,25,27,-1,29,31,33,35,37,39,41,-1,-1,43,45,47,-1,-1,-1,49,51,53,55,57,59,61,63,-1,65,67,69,71,-1,-1,73,75,77,79,-1,-1,-1,-1,-1,-1,-1,-1,-1,-1,-1,-1,-1,-1,-1,-1,-1,-1,-1,-1,-1,-1,-1,-1,-1,-1,-1,-1,-1,-1,-1,-1],"loss_changes":[1.849543E6,1.2023948E6,1.1310542E6,7.118345E5,4.1678544E5,5.990904E5,7.023925E5,5.6142875E5,8.237637E5,1.01785336E5,1.62385E5,7.0097875E4,2.2713583E5,2.0788857E3,0E0,2.3706084E5,2.707865E5,4.2776062E5,7.7223594E5,3.563777E4,1.8751156E4,7.683694E4,0E0,0E0,7.946304E1,2.8777594E4,1.8190886E5,0E0,0E0,0E0,8.354781E4,1.13826E5,1.988689E4,1.7326294E5,2.0860188E5,5.432911E5,5.146704E5,1.5374284E4,0E0,3.5244482E3,1.7791055E3,5.7997734E3,2.8838438E4,0E0,0E0,1.3955547E4,3.631415E3,9.1433664E4,1.8751875E3,0E0,0E0,0E0,0E0,0E0,0E0,0E0,0E0,0E0,0E0,0E0,0E0,0E0,0E0,0E0,0E0,0E0,0E0,0E0,0E0,0E0,0E0,0E0,0E0,0E0,0E0,0E0,0E0,0E0,0E0,0E0,0E0],"parents":[2147483647,0,0,1,1,2,2,3,3,4,4,5,5,6,6,7,7,8,8,9,9,10,10,11,11,12,12,13,13,15,15,16,16,17,17,18,18,19,19,20,20,21,21,24,24,25,25,26,26,30,30,31,31,32,32,33,33,34,34,35,35,36,36,37,37,39,39,40,40,41,41,42,42,45,45,46,46,47,47,48,48],"right_children":[2,4,6,8,10,12,14,16,18,20,22,24,26,28,-1,30,32,34,36,38,40,42,-1,-1,44,46,48,-1,-1,-1,50,52,54,56,58,60,62,64,-1,66,68,70,72,-1,-1,74,76,78,80,-1,-1,-1,-1,-1,-1,-1,-1,-1,-1,-1,-1,-1,-1,-1,-1,-1,-1,-1,-1,-1,-1,-1,-1,-1,-1,-1,-1,-1,-1,-1,-1],"split_conditions":[6.295078E-2,3.02E0,1.005E3,-5.40963E-2,-2.310723E-2,6.8335123E-3,1.09E0,4.3527696E-2,8.283E1,4.550875E-2,8.762182E-2,4.318516E-2,2.5069904E-2,6.2224068E-2,-2.3200481E1,-6.361716E-2,-3.3139393E-2,5.350432E-2,6.864849E-3,2.5666097E-2,6.405735E-3,7.517644E-3,-1.9567488E1,-1.0497967E1,8.79E1,4.472611E-2,-1.1456938E-2,-2.4838538E0,-1.0699463E-2,-9.713332E0,2.9844617E-2,2.04E0,-4.8264578E-2,5.1E-2,-6.5846786E-2,9.663E1,4.3005608E-2,1.4634037E-2,-6.9174547E0,3.2727715E-2,2.3554984E-2,9.837751E-3,7E1,-6.923065E-1,-6.709595E-2,-2.8832763E-2,3.5047837E-2,-3.5790537E-2,-8.647873E-3,2.034329E0,8.59278E0,1.2847597E1,3.8566694E-1,4.3903804E0,-6.674276E-1,2.83377E0,-4.6553473E0,2.557852E0,9.196246E0,5.6204767E0,-7.035756E0,-1.6997913E0,-1.3007283E1,9.4568215E-2,-2.9938436E0,2.0289876E0,1.2470754E-1,2.3937073E0,5.846996E0,1.6988281E0,-1.5344592E0,-8.409267E0,-4.05438E0,-4.7464905E0,-2.8360698E-1,-1.692892E0,3.4190676E-1,2.668682E0,-2.5540917E0,8.219525E0,2.1377075E0],"split_indices":[302,7,22,53,42,97,1,227,0,247,92,24,387,24,0,93,187,365,86,271,280,198,0,0,0,271,308,0,0,0,255,3,388,12,372,0,106,139,0,35,48,38,0,0,0,23,26,116,27,0,0,0,0,0,0,0,0,0,0,0,0,0,0,0,0,0,0,0,0,0,0,0,0,0,0,0,0,0,0,0,0],"split_type":[0,0,0,0,0,0,0,0,0,0,0,0,0,0,0,0,0,0,0,0,0,0,0,0,0,0,0,0,0,0,0,0,0,0,0,0,0,0,0,0,0,0,0,0,0,0,0,0,0,0,0,0,0,0,0,0,0,0,0,0,0,0,0,0,0,0,0,0,0,0,0,0,0,0,0,0,0,0,0,0,0],"sum_hessian":[5.88E2,4.65E2,1.23E2,3.92E2,7.3E1,1.05E2,1.8E1,9E1,3.02E2,3.3E1,4E1,2.6E1,7.9E1,6E0,1.2E1,4E1,5E1,9.9E1,2.03E2,1.8E1,1.5E1,3.8E1,2E0,2.4E1,2E0,3.9E1,4E1,5E0,1E0,3E0,3.7E1,3.6E1,1.4E1,3.5E1,6.4E1,6.8E1,1.35E2,1.5E1,3E0,9E0,6E0,5E0,3.3E1,1E0,1E0,3.1E1,8E0,3.2E1,8E0,3.2E1,5E0,3.4E1,2E0,1.2E1,2E0,2.5E1,1E1,1.7E1,4.7E1,5.9E1,9E0,1.25E2,1E1,8E0,7E0,4E0,5E0,3E0,3E0,1E0,4E0,2.5E1,8E0,2.9E1,2E0,5E0,3E0,1.4E1,1.8E1,7E0,1E0],"tree_param":{"num_deleted":"0","num_feature":"407","num_nodes":"81","size_leaf_vector":"1"}},{"base_weights":[-3.8212943E0,-1.3359236E2,1.5764709E1,-1.8672556E2,-2.01442E1,3.3049946E1,-1.7554347E2,-1.7031357E1,-1.4750417E2,5.7352977E0,-5.771357E1,1.1647431E1,1.2323586E2,-2.1535202E1,-3.689468E2,-1.7881046E2,-5.909605E1,3.0527975E1,-8.719705E1,-1.6698261E1,6.869072E1,1.9603134E2,5.393925E1,-4.9791435E1,3.8120716E0,-4.744407E1,-2.2575897E1,-3.598189E0,-9.176739E0,1.8233887E0,-8.6373955E1,2.4730859E0,-4.8930054E0,-6.2137913E1,-8.753699E0,-5.9897007E1,2.4990667E1,1.351392E2,1.3441388E1,1.15515884E2,2.4732991E2,7.6568344E1,-5.2627766E1,-5.6178722E1,5.129435E0,4.6764606E1,-6.2919025E0,1.6563568E0,-7.1421665E-1,-1.2735016E0,-4.5401597E0,-1.0324051E0,6.654297E-1,-3.962387E0,1.3507019E0,-1.9543383E0,-9.612615E0,7.9925113E0,2.5056663E-1,8.924318E0,3.0707939E0,1.4185631E0,-1.2186341E1,2.8961732E0,6.882067E0,1.3989616E1,4.6244884E0,4.171459E0,-1.79292E0,-4.1117716E0,-1.2059016E0,-2.8877046E0,-7.34935E-1,-2.1660462E-1,6.013123E-1,4.056174E0,-5.488281E-1],"categories":[],"categories_nodes":[],"categories_segments":[],"categories_sizes":[],"default_left":[0,0,0,0,0,0,0,0,0,0,0,0,0,0,0,0,0,0,0,0,0,0,0,0,0,0,0,0,0,0,0,0,0,0,0,0,0,0,0,0,0,0,0,0,0,0,0,0,0,0,0,0,0,0,0,0,0,0,0,0,0,0,0,0,0,0,0,0,0,0,0,0,0,0,0,0,0],"id":17,"left_children":[1,3,5,7,9,11,13,-1,15,-1,17,19,21,23,25,27,29,31,33,35,37,39,41,43,-1,45,-1,-1,-1,47,49,-1,51,53,-1,55,57,59,61,63,65,67,69,71,73,75,-1,-1,-1,-1,-1,-1,-1,-1,-1,-1,-1,-1,-1,-1,-1,-1,-1,-1,-1,-1,-1,-1,-1,-1,-1,-1,-1,-1,-1,-1,-1],"loss_changes":[1.5118739E6,4.6641175E5,1.715421E6,2.6967662E5,1.383422E5,9.154121E5,1.27284E6,0E0,1.1121319E5,0E0,5.729697E4,6.236657E5,4.48474E5,7.286616E4,4.829685E5,2.945E3,2.1760305E4,4.2659263E3,2.4355188E4,4.661315E5,4.6810156E5,1.5316388E5,1.1978236E5,7.3040703E3,0E0,4.2811734E4,0E0,0E0,0E0,2.9943591E3,1.150625E2,0E0,1.1351011E3,2.3496043E4,0E0,3.422874E5,3.5486025E5,1.7438838E5,2.7951856E5,1.623825E4,1.04810625E5,3.3845312E4,5.6136016E3,3.2732812E2,2.4786188E2,6.84222E3,0E0,0E0,0E0,0E0,0E0,0E0,0E0,0E0,0E0,0E0,0E0,0E0,0E0,0E0,0E0,0E0,0E0,0E0,0E0,0E0,0E0,0E0,0E0,0E0,0E0,0E0,0E0,0E0,0E0,0E0,0E0],"parents":[2147483647,0,0,1,1,2,2,3,3,4,4,5,5,6,6,8,8,10,10,11,11,12,12,13,13,14,14,15,15,16,16,17,17,18,18,19,19,20,20,21,21,22,22,23,23,25,25,29,29,30,30,32,32,33,33,35,35,36,36,37,37,38,38,39,39,40,40,41,41,42,42,43,43,44,44,45,45],"right_children":[2,4,6,8,10,12,14,-1,16,-1,18,20,22,24,26,28,30,32,34,36,38,40,42,44,-1,46,-1,-1,-1,48,50,-1,52,54,-1,56,58,60,62,64,66,68,70,72,74,76,-1,-1,-1,-1,-1,-1,-1,-1,-1,-1,-1,-1,-1,-1,-1,-1,-1,-1,-1,-1,-1,-1,-1,-1,-1,-1,-1,-1,-1,-1,-1],"split_conditions":[-5.3380862E-2,3.9731514E-2,1.0025E3,-2.0958733E-2,-9.028547E-3,2.65E0,2.73E0,-1.7031357E1,1.1347003E-2,5.7352977E0,-6.6319615E-2,2E-2,2.8944101E-2,-2.789521E-8,-6.9246545E-2,8.300699E-2,-3.2431856E-2,8.9342E1,1E1,3.389512E-2,3.5446115E-2,-4.511851E-2,1.6040151E-3,4.7958184E-2,3.8120716E0,-7.140661E-2,-2.2575897E1,-3.598189E0,-9.176739E0,6.1E1,4.825085E-3,2.4730859E0,9.03E1,-3.7933473E-2,-8.753699E0,3.71E0,3.3462808E-2,-2.6797373E-2,9.663E1,-6.910265E-2,8.73E1,5E-1,-2.0276817E-2,1.43E0,8.9863E1,-7.677781E-2,-6.2919025E0,1.6563568E0,-7.1421665E-1,-1.2735016E0,-4.5401597E0,-1.0324051E0,6.654297E-1,-3.962387E0,1.3507019E0,-1.9543383E0,-9.612615E0,7.9925113E0,2.5056663E-1,8.924318E0,3.0707939E0,1.4185631E0,-1.2186341E1,2.8961732E0,6.882067E0,1.3989616E1,4.6244884E0,4.171459E0,-1.79292E0,-4.1117716E0,-1.2059016E0,-2.8877046E0,-7.34935E-1,-2.1660462E-1,6.013123E-1,4.056174E0,-5.488281E-1],"split_indices":[165,365,22,261,26,6,1,0,81,0,235,9,319,342,23,393,122,0,1,353,87,123,79,130,0,23,0,0,0,0,26,0,0,23,0,1,297,61,0,359,0,9,27,4,0,23,0,0,0,0,0,0,0,0,0,0,0,0,0,0,0,0,0,0,0,0,0,0,0,0,0,0,0,0,0,0,0],"split_type":[0,0,0,0,0,0,0,0,0,0,0,0,0,0,0,0,0,0,0,0,0,0,0,0,0,0,0,0,0,0,0,0,0,0,0,0,0,0,0,0,0,0,0,0,0,0,0,0,0,0,0,0,0,0,0,0,0,0,0,0,0,0,0,0,0,0,0,0,0,0,0,0,0,0,0,0,0],"sum_hessian":[5.93E2,7.7E1,5.16E2,5.2E1,2.5E1,4.74E2,4.2E1,9E0,4.3E1,5E0,2E1,3.84E2,9E1,2.4E1,1.8E1,3.1E1,1.2E1,5E0,1.5E1,2.57E2,1.27E2,4.3E1,4.7E1,1.9E1,5E0,4E0,1.4E1,2E0,2.9E1,4E0,8E0,3E0,2E0,1.3E1,2E0,1.26E2,1.31E2,5.7E1,7E1,1.8E1,2.5E1,3.9E1,8E0,1.7E1,2E0,2E0,2E0,1E0,3E0,1E0,7E0,1E0,1E0,1.1E1,2E0,1.1E2,1.6E1,1.6E1,1.15E2,3.5E1,2.2E1,6.7E1,3E0,6E0,1.2E1,2E1,5E0,3.7E1,2E0,3E0,5E0,1.6E1,1E0,1E0,1E0,1E0,1E0],"tree_param":{"num_deleted":"0","num_feature":"407","num_nodes":"77","size_leaf_vector":"1"}},{"base_weights":[-1.0966357E0,1.8047579E1,-1.2910986E2,3.364791E1,-1.4852222E2,3.850612E1,-1.7495078E2,-1.4583187E1,6.3462425E1,-1.6683002E1,-3.526786E2,6.505959E0,3.8846536E0,-2.0640966E1,-1.5617702E2,-4.1794804E1,7.814889E1,8.907185E1,-1.4200886E1,-4.68335E1,3.4158123E0,-2.1596546E1,-6.02364E1,1.3251424E0,-1.4575256E1,7.1233864E1,-1.6524695E2,-6.8837776E1,5.6696953E1,6.0115707E1,1.4927637E1,1.0283422E2,-1.2864107E2,3.0185135E1,-8.3265625E1,-5.514795E1,4.3684998E0,-6.082172E0,2.124943E1,-1.1409134E0,1.2738444E0,3.477936E-2,5.3077607E0,-8.812642E1,-1.758237E2,-1.4131116E1,-2.929384E0,6.1430154E0,-8.5725844E-1,-7.2561507E0,4.00689E0,7.318813E0,1.6593411E0,-1.21993475E1,3.2908962E0,4.2177634E0,-8.406051E-1,-1.4510809E0,-6.7787433E0,-3.463452E0,-2.0569112E0,-9.961955E-2,5.8627933E-1,-5.3510743E-1,2.1288147E0,3.0110475E-1,-2.055664E-1,-5.067455E0,-2.3130403E0,-9.061467E0,-3.4175751E0],"categories":[],"categories_nodes":[],"categories_segments":[],"categories_sizes":[],"default_left":[0,0,0,0,0,0,0,0,0,0,0,0,0,0,0,0,0,0,0,0,0,0,0,0,0,0,0,0,0,0,0,0,0,0,0,0,0,0,0,0,0,0,0,0,0,0,0,0,0,0,0,0,0,0,0,0,0,0,0,0,0,0,0,0,0,0,0,0,0,0,0],"id":18,"left_children":[1,3,5,7,9,11,13,15,17,19,21,23,-1,-1,25,27,29,31,33,35,-1,-1,37,-1,39,41,43,45,47,49,-1,51,53,55,57,59,61,-1,63,-1,65,-1,-1,67,69,-1,-1,-1,-1,-1,-1,-1,-1,-1,-1,-1,-1,-1,-1,-1,-1,-1,-1,-1,-1,-1,-1,-1,-1,-1,-1],"loss_changes":[1.5070676E6,1.3952188E6,6.2143025E5,7.055391E5,1.2322438E6,2.2066326E4,2.1686538E5,4.7766347E5,6.039054E5,7.751981E4,3.91163E5,5.0234316E3,0E0,0E0,1.3552712E5,3.927753E5,1.5295938E5,6.963725E5,2.3549206E5,9.60668E3,0E0,0E0,2.7603867E4,0E0,8.1293274E2,7.316032E3,3.1815E4,2.3544262E5,1.5844703E5,1.8011142E5,0E0,6.47149E5,3.3007928E5,1.21072984E5,8.1189266E4,9.0921094E2,2.1055244E2,0E0,2.499939E3,0E0,1.01469246E2,0E0,0E0,2.936875E2,1.66605E4,0E0,0E0,0E0,0E0,0E0,0E0,0E0,0E0,0E0,0E0,0E0,0E0,0E0,0E0,0E0,0E0,0E0,0E0,0E0,0E0,0E0,0E0,0E0,0E0,0E0,0E0],"parents":[2147483647,0,0,1,1,2,2,3,3,4,4,5,5,6,6,7,7,8,8,9,9,10,10,11,11,14,14,15,15,16,16,17,17,18,18,19,19,22,22,24,24,25,25,26,26,27,27,28,28,29,29,31,31,32,32,33,33,34,34,35,35,36,36,38,38,40,40,43,43,44,44],"right_children":[2,4,6,8,10,12,14,16,18,20,22,24,-1,-1,26,28,30,32,34,36,-1,-1,38,-1,40,42,44,46,48,50,-1,52,54,56,58,60,62,-1,64,-1,66,-1,-1,68,70,-1,-1,-1,-1,-1,-1,-1,-1,-1,-1,-1,-1,-1,-1,-1,-1,-1,-1,-1,-1,-1,-1,-1,-1,-1,-1],"split_conditions":[9.7E0,1.0025E3,6.07833E-3,3.2520797E-2,2.73E0,-1.1898554E-2,-9.58545E-2,4.48E0,-2.9209254E-3,-2.789521E-8,7.604879E-2,-6.983105E-2,3.8846536E0,-2.0640966E1,-8.352664E-2,2E-1,1.3E-1,9.8E1,1.14234306E-1,-6.7849964E-2,3.4158123E0,-2.1596546E1,3.1008383E-2,1.3251424E0,-7.18216E-3,6.4603E1,2.1610392E-2,-3.0292286E-2,5.2213624E-2,-4.265894E-2,1.4927637E1,4.1631624E-2,1.592306E-2,6.794005E-2,1.3E-1,-2.5623955E-2,8.9863E1,-6.082172E0,4.4038408E-2,-1.1409134E0,6.396E1,3.477936E-2,5.3077607E0,8.08E0,7.296E1,-1.4131116E1,-2.929384E0,6.1430154E0,-8.5725844E-1,-7.2561507E0,4.00689E0,7.318813E0,1.6593411E0,-1.21993475E1,3.2908962E0,4.2177634E0,-8.406051E-1,-1.4510809E0,-6.7787433E0,-3.463452E0,-2.0569112E0,-9.961955E-2,5.8627933E-1,-5.3510743E-1,2.1288147E0,3.0110475E-1,-2.055664E-1,-5.067455E0,-2.3130403E0,-9.061467E0,-3.4175751E0],"split_indices":[7,22,341,353,1,25,88,5,139,342,26,60,0,0,88,9,12,0,238,157,0,0,24,0,27,0,108,384,65,41,0,200,30,87,1,321,0,0,24,0,0,0,0,3,0,0,0,0,0,0,0,0,0,0,0,0,0,0,0,0,0,0,0,0,0,0,0,0,0,0,0],"split_type":[0,0,0,0,0,0,0,0,0,0,0,0,0,0,0,0,0,0,0,0,0,0,0,0,0,0,0,0,0,0,0,0,0,0,0,0,0,0,0,0,0,0,0,0,0,0,0,0,0,0,0,0,0,0,0,0,0,0,0,0,0,0,0,0,0,0,0,0,0,0,0],"sum_hessian":[6.13E2,5.34E2,7.9E1,4.89E2,4.5E1,1.7E1,6.2E1,1.87E2,3.02E2,2.8E1,1.7E1,1E1,7E0,3E0,5.9E1,1.45E2,4.2E1,2.27E2,7.5E1,2.1E1,7E0,1.3E1,4E0,5E0,5E0,2E0,5.7E1,1.14E2,3.1E1,4E1,2E0,2.14E2,1.3E1,4.6E1,2.9E1,1.8E1,3E0,2E0,2E0,3E0,2E0,1E0,1E0,8E0,4.9E1,4E0,1.1E2,1.6E1,1.5E1,3E0,3.7E1,1.31E2,8.3E1,8E0,5E0,2.1E1,2.5E1,1.5E1,1.4E1,7E0,1.1E1,2E0,1E0,1E0,1E0,1E0,1E0,5E0,3E0,4.6E1,3E0],"tree_param":{"num_deleted":"0","num_feature":"407","num_nodes":"71","size_leaf_vector":"1"}},{"base_weights":[-1.0318513E0,2.20581E1,-1.0032995E2,3.847637E1,-1.5242259E2,-3.053242E1,-1.5329161E2,-1.1259744E1,6.897153E1,-1.6663591E1,-3.3250885E2,2.8486193E1,-9.0690475E1,-1.3264206E2,-1.852139E1,-4.2831722E1,7.739201E1,7.393679E1,-1.4357532E1,3.472182E0,-4.1662582E1,-5.8122265E1,-2.0337671E1,6.70302E1,-1.521398E1,-1.2988649E2,-5.59007E1,-5.7175476E1,-1.6621986E2,-1.0750771E2,5.597531E0,-2.8504032E1,1.2130303E2,1.0643345E2,1.09226E1,-4.79841E1,-4.380493E0,-5.879433E0,2.0718222E1,2.586806E1,9.466829E1,1.1780263E1,-3.3557915E1,-1.3833512E0,-6.867087E0,-8.668663E-1,-3.2048383E0,-7.299039E1,4.867334E0,-4.843295E0,-1.753415E2,-7.9959655E0,-2.8405426E0,-1.2389183E0,3.2455194E0,1.0450478E0,-4.044744E0,8.746847E0,3.1844294E0,4.8111362E0,1.5696802E1,-3.6659093E0,2.3885999E0,-2.4660127E0,-6.651398E-1,-3.3486736E-1,6.425171E-2,-5.217285E-1,2.0755951E0,1.5314405E0,4.6553954E-1,5.012365E0,1.3903809E0,-6.373393E-2,9.313202E-1,-3.9952698E-1,-1.8034445E0,3.3909608E-2,-3.897342E0,1.3568075E0,-9.511963E-1,-4.8545804E0,-9.257339E0],"categories":[],"categories_nodes":[],"categories_segments":[],"categories_sizes":[],"default_left":[0,0,0,0,0,0,0,0,0,0,0,0,0,0,0,0,0,0,0,0,0,0,0,0,0,0,0,0,0,0,0,0,0,0,0,0,0,0,0,0,0,0,0,0,0,0,0,0,0,0,0,0,0,0,0,0,0,0,0,0,0,0,0,0,0,0,0,0,0,0,0,0,0,0,0,0,0,0,0,0,0,0,0],"id":19,"left_children":[1,3,5,7,9,11,13,15,17,19,21,23,25,27,-1,29,31,33,-1,-1,35,37,-1,39,41,43,45,47,49,51,53,55,57,59,61,63,65,-1,67,69,71,73,75,-1,-1,-1,-1,77,79,-1,81,-1,-1,-1,-1,-1,-1,-1,-1,-1,-1,-1,-1,-1,-1,-1,-1,-1,-1,-1,-1,-1,-1,-1,-1,-1,-1,-1,-1,-1,-1,-1,-1],"loss_changes":[1.3733002E6,1.3980952E6,4.1303462E5,6.757127E5,1.0212891E6,1.8010569E5,2.378265E5,4.7912975E5,5.092655E5,5.6708047E4,3.4304925E5,4.481367E4,2.6829766E4,1.425365E5,0E0,3.9526028E5,2.1270775E5,5.5787325E5,0E0,0E0,4.5033906E3,2.5878027E4,0E0,1.3478113E4,6.8326694E3,4.5829375E3,3.629754E3,1.99793E4,8.952875E3,1.3439831E5,1.331311E5,3.7927945E4,8.774134E4,3.511675E5,2.9529944E5,1.3167969E2,6.1111115E1,0E0,2.3765024E3,2.6659668E2,1.9648438E2,5.599985E2,2.2538281E2,0E0,0E0,0E0,0E0,5.8950156E3,3.1763865E3,0E0,8.877875E3,0E0,0E0,0E0,0E0,0E0,0E0,0E0,0E0,0E0,0E0,0E0,0E0,0E0,0E0,0E0,0E0,0E0,0E0,0E0,0E0,0E0,0E0,0E0,0E0,0E0,0E0,0E0,0E0,0E0,0E0,0E0,0E0],"parents":[2147483647,0,0,1,1,2,2,3,3,4,4,5,5,6,6,7,7,8,8,9,9,10,10,11,11,12,12,13,13,15,15,16,16,17,17,20,20,21,21,23,23,24,24,25,25,26,26,27,27,28,28,29,29,30,30,31,31,32,32,33,33,34,34,35,35,36,36,38,38,39,39,40,40,41,41,42,42,47,47,48,48,50,50],"right_children":[2,4,6,8,10,12,14,16,18,20,22,24,26,28,-1,30,32,34,-1,-1,36,38,-1,40,42,44,46,48,50,52,54,56,58,60,62,64,66,-1,68,70,72,74,76,-1,-1,-1,-1,78,80,-1,82,-1,-1,-1,-1,-1,-1,-1,-1,-1,-1,-1,-1,-1,-1,-1,-1,-1,-1,-1,-1,-1,-1,-1,-1,-1,-1,-1,-1,-1,-1,-1,-1],"split_conditions":[3.02E0,1.0025E3,4.5777854E-2,-3.7637025E-2,2.73E0,1.8692204E-3,5.551802E-2,8E-2,9.9778E1,-3.584523E-2,-6.521603E-2,-7.397278E-2,-3.9742764E-2,2.532324E-2,-1.852139E1,1.8E-2,7.8009805E-3,-2.9209254E-3,-1.4357532E1,3.472182E0,1.0483116E-2,3.1008383E-2,-2.0337671E1,2.2548728E-3,9.444682E-3,6.3E1,-5.6048114E-2,6.885232E-2,1.52E1,-3.9269317E-2,2.1E0,4.375544E-2,1.4099827E-2,6.665981E-2,-4.8568092E-2,1.43E0,5.9281774E-2,-5.879433E0,-7.140661E-2,3.2727715E-2,-5.30053E-2,3.2462843E-2,6.44E1,-1.3833512E0,-6.867087E0,-8.668663E-1,-3.2048383E0,8.724451E-3,1.1061595E-1,-4.843295E0,-7.464203E-2,-7.9959655E0,-2.8405426E0,-1.2389183E0,3.2455194E0,1.0450478E0,-4.044744E0,8.746847E0,3.1844294E0,4.8111362E0,1.5696802E1,-3.6659093E0,2.3885999E0,-2.4660127E0,-6.651398E-1,-3.3486736E-1,6.425171E-2,-5.217285E-1,2.0755951E0,1.5314405E0,4.6553954E-1,5.012365E0,1.3903809E0,-6.373393E-2,9.313202E-1,-3.9952698E-1,-1.8034445E0,3.3909608E-2,-3.897342E0,1.3568075E0,-9.511963E-1,-4.8545804E0,-9.257339E0],"split_indices":[7,22,67,32,1,318,371,9,0,38,23,60,278,108,0,5,30,139,0,0,90,24,0,357,205,0,23,266,7,37,1,129,349,253,215,4,24,0,23,35,28,24,0,0,0,0,0,24,26,0,41,0,0,0,0,0,0,0,0,0,0,0,0,0,0,0,0,0,0,0,0,0,0,0,0,0,0,0,0,0,0,0,0],"split_type":[0,0,0,0,0,0,0,0,0,0,0,0,0,0,0,0,0,0,0,0,0,0,0,0,0,0,0,0,0,0,0,0,0,0,0,0,0,0,0,0,0,0,0,0,0,0,0,0,0,0,0,0,0,0,0,0,0,0,0,0,0,0,0,0,0,0,0,0,0,0,0,0,0,0,0,0,0,0,0,0,0,0,0],"sum_hessian":[5.97E2,4.85E2,1.12E2,4.44E2,4.1E1,4.9E1,6.3E1,1.69E2,2.75E2,2.4E1,1.7E1,2.5E1,2.4E1,5.9E1,4E0,1.25E2,4.4E1,2.72E2,3E0,5E0,1.9E1,4E0,1.3E1,1.3E1,1.2E1,1E1,1.4E1,1.9E1,4E1,5.3E1,7.2E1,1.3E1,3.1E1,1.79E2,9.3E1,1.6E1,3E0,2E0,2E0,6E0,7E0,5E0,7E0,1E0,9E0,3E0,1.1E1,1.5E1,4E0,6E0,3.4E1,2.5E1,2.8E1,4.8E1,2.4E1,7E0,6E0,1.5E1,1.6E1,1.72E2,7E0,2.8E1,6.5E1,1.5E1,1E0,2E0,1E0,1E0,1E0,4E0,2E0,6E0,1E0,2E0,3E0,1E0,6E0,1E0,1.4E1,2E0,2E0,5E0,2.9E1],"tree_param":{"num_deleted":"0","num_feature":"407","num_nodes":"83","size_leaf_vector":"1"}},{"base_weights":[8.012585E-1,2.192905E1,-9.045585E1,3.715078E1,-1.3701372E2,-1.9269005E2,-5.8780525E1,1.394927E2,2.4266985E1,-1.6762299E1,-2.9435706E2,-7.643419E0,-1.9172377E1,4.6554256E1,-8.218472E1,4.524766E1,1.9883635E2,9.975899E1,5.5501585E0,6.066171E1,-4.3022587E1,-1.954152E1,-2.0193106E1,1.3052465E1,8.261221E1,-1.623959E2,-6.404069E1,-2.409886E1,1.1048076E2,9.8719955E1,1.1765289E1,1.2472779E2,-8.99923E1,1.5973657E1,-1.401573E2,6.332733E-1,3.3275087E0,-2.450149E0,-1.528081E1,-9.033862E1,4.0032644E0,3.0146814E1,-3.3682353E0,2.0381775E0,4.978435E0,-9.932961E0,-5.146659E0,-8.537991E1,-1.8312683E1,-2.6838214E0,2.0540497E0,6.9747324E0,1.2416397E0,5.6610184E0,-7.945938E-1,3.5828283E0,8.269669E0,-2.424966E0,-1.1585729E1,6.477937E-1,1.5872853E1,2.0672913E0,-9.798634E0,-9.496948E-1,-3.2370606E-1,-5.6834517E0,-5.086853E-1,1.6905388E0,3.8727418E-1,-3.1719667E-1,2.8775635E-1,-5.970928E0,-3.3891919E0,1.5249616E-1,-4.3641505E0],"categories":[],"categories_nodes":[],"categories_segments":[],"categories_sizes":[],"default_left":[0,0,0,0,0,0,0,0,0,0,0,0,0,0,0,0,0,0,0,0,0,0,0,0,0,0,0,0,0,0,0,0,0,0,0,0,0,0,0,0,0,0,0,0,0,0,0,0,0,0,0,0,0,0,0,0,0,0,0,0,0,0,0,0,0,0,0,0,0,0,0,0,0,0,0],"id":20,"left_children":[1,3,5,7,9,11,13,15,17,19,21,-1,-1,23,25,27,29,31,33,35,37,-1,39,41,43,45,47,49,51,53,-1,55,57,59,61,-1,-1,-1,63,65,-1,67,69,-1,-1,-1,-1,71,73,-1,-1,-1,-1,-1,-1,-1,-1,-1,-1,-1,-1,-1,-1,-1,-1,-1,-1,-1,-1,-1,-1,-1,-1,-1,-1],"loss_changes":[1.1896692E6,1.2172016E6,3.643165E5,6.0051194E5,8.2757944E5,1.4648262E5,2.2570088E5,2.7623812E5,5.759384E5,5.5472418E4,4.946485E5,0E0,0E0,1.9457809E4,9.729631E4,9.765993E4,8.99575E4,3.949913E5,5.0039912E5,1.1354805E3,2.5693281E3,0E0,4.9429047E4,2.9085532E3,1.6180781E3,7.5835E3,5.893608E4,2.341156E4,2.3870734E4,1.8418469E4,0E0,1.43537E5,4.7566797E4,2.7519922E5,2.3097731E5,0E0,0E0,0E0,4.053125E1,6.3246816E3,0E0,1.4850732E2,1.9940038E2,0E0,0E0,0E0,0E0,1.7061094E4,3.1207309E4,0E0,0E0,0E0,0E0,0E0,0E0,0E0,0E0,0E0,0E0,0E0,0E0,0E0,0E0,0E0,0E0,0E0,0E0,0E0,0E0,0E0,0E0,0E0,0E0,0E0,0E0],"parents":[2147483647,0,0,1,1,2,2,3,3,4,4,5,5,6,6,7,7,8,8,9,9,10,10,13,13,14,14,15,15,16,16,17,17,18,18,19,19,20,20,22,22,23,23,24,24,25,25,26,26,27,27,28,28,29,29,31,31,32,32,33,33,34,34,38,38,39,39,41,41,42,42,47,47,48,48],"right_children":[2,4,6,8,10,12,14,16,18,20,22,-1,-1,24,26,28,30,32,34,36,38,-1,40,42,44,46,48,50,52,54,-1,56,58,60,62,-1,-1,-1,64,66,-1,68,70,-1,-1,-1,-1,72,74,-1,-1,-1,-1,-1,-1,-1,-1,-1,-1,-1,-1,-1,-1,-1,-1,-1,-1,-1,-1,-1,-1,-1,-1,-1,-1],"split_conditions":[2.9E0,1.0025E3,-8.0126174E-2,-6.885165E-2,2.73E0,3.33E0,-1.6598238E-2,-5.2545507E-2,-4.3131083E-2,5.3433172E-2,7.604879E-2,-7.643419E0,-1.9172377E1,6.405735E-3,-2.6331734E-2,-9.5520794E-2,-2.276181E-2,1.0231659E-1,4.0087525E-2,1.3E-1,-5.453059E-3,-1.954152E1,-2.3950782E-2,-9.952042E-3,2.3554984E-2,4.9E0,2.2985741E-2,1.184E1,-5.0586935E-2,6.08E0,1.1765289E1,-7.833046E-2,1.205E1,1.84E0,-4.4288456E-2,6.332733E-1,3.3275087E0,-2.450149E0,9.806089E-3,3.1008383E-2,4.0032644E0,1.2418848E-1,-1.0954214E-2,2.0381775E0,4.978435E0,-9.932961E0,-5.146659E0,-3.732133E-2,-7.120074E-4,-2.6838214E0,2.0540497E0,6.9747324E0,1.2416397E0,5.6610184E0,-7.945938E-1,3.5828283E0,8.269669E0,-2.424966E0,-1.1585729E1,6.477937E-1,1.5872853E1,2.0672913E0,-9.798634E0,-9.496948E-1,-3.2370606E-1,-5.6834517E0,-5.086853E-1,1.6905388E0,3.8727418E-1,-3.1719667E-1,2.8775635E-1,-5.970928E0,-3.3891919E0,1.5249616E-1,-4.3641505E0],"split_indices":[7,22,85,71,1,5,384,100,93,54,26,0,0,280,254,358,51,262,291,1,59,0,27,45,48,1,384,6,28,2,0,28,1,14,233,0,0,0,39,24,0,26,25,0,0,0,0,224,80,0,0,0,0,0,0,0,0,0,0,0,0,0,0,0,0,0,0,0,0,0,0,0,0,0,0],"split_type":[0,0,0,0,0,0,0,0,0,0,0,0,0,0,0,0,0,0,0,0,0,0,0,0,0,0,0,0,0,0,0,0,0,0,0,0,0,0,0,0,0,0,0,0,0,0,0,0,0,0,0,0,0,0,0,0,0,0,0,0,0,0,0,0,0,0,0,0,0,0,0,0,0,0,0],"sum_hessian":[6.15E2,5E2,1.15E2,4.57E2,4.3E1,2.6E1,8.9E1,5E1,4.07E2,2.5E1,1.8E1,2.3E1,3E0,1.6E1,7.3E1,2E1,3E1,8E1,3.27E2,6E0,1.9E1,1.3E1,5E0,9E0,7E0,1.2E1,6.1E1,1E1,1E1,9E0,2.1E1,7.1E1,9E0,3.06E2,2.1E1,1E0,5E0,1.5E1,4E0,3E0,2E0,4E0,5E0,3E0,4E0,6E0,6E0,4.1E1,2E1,7E0,3E0,7E0,3E0,8E0,1E0,3.2E1,3.9E1,8E0,1E0,3.04E2,2E0,5E0,1.6E1,2E0,2E0,2E0,1E0,3E0,1E0,4E0,1E0,1.2E1,2.9E1,1.6E1,4E0],"tree_param":{"num_deleted":"0","num_feature":"407","num_nodes":"75","size_leaf_vector":"1"}},{"base_weights":[-1.7925E0,-5.0574604E1,3.4764442E1,-1.8771373E2,-2.6579048E1,4.6513134E1,-2.3150717E2,-1.934085E1,-1.15088844E2,-9.5301895E1,9.819338E0,2.5661358E1,1.08030624E2,1.1031763E2,-2.9258157E2,-7.5483637E0,-2.8235249E1,-1.1607839E1,-1.1843618E2,-1.9316824E1,7.484554E1,-1.6403036E1,2.9786875E1,8.441732E1,2.4464342E2,-3.8161013E-1,8.655433E0,-1.5283569E1,-3.3875885E0,-3.957836E1,1.8463196E0,2.0176886E1,-4.563444E1,-1.3007628E2,3.7948143E1,-3.0148222E1,6.6767473E0,9.298404E1,-6.1575134E1,-2.707134E1,5.2364677E1,-5.167918E0,9.106885E1,2.6300067E2,1.0678406E0,-2.2897384E0,-5.9403175E-1,-9.375893E-1,5.8630524E0,-2.5373971E0,-9.2457277E-1,-2.085102E0,-7.399601E0,3.3372438E0,-1.7489828E-1,-8.237444E-1,-5.501739E0,1.4903129E0,6.824652E0,-2.8724214E-1,-5.774524E0,-5.168427E-1,-1.0471394E1,6.075916E0,1.5546306E0,3.5528E0,8.119029E0,1.4081908E1,1.9156494E0],"categories":[],"categories_nodes":[],"categories_segments":[],"categories_sizes":[],"default_left":[0,0,0,0,0,0,0,0,0,0,0,0,0,0,0,0,0,0,0,0,0,0,0,0,0,0,0,0,0,0,0,0,0,0,0,0,0,0,0,0,0,0,0,0,0,0,0,0,0,0,0,0,0,0,0,0,0,0,0,0,0,0,0,0,0,0,0,0,0],"id":21,"left_children":[1,3,5,7,9,11,13,-1,15,17,19,21,23,25,27,-1,29,31,33,35,37,-1,39,41,43,-1,-1,-1,-1,45,-1,47,49,51,53,55,-1,57,59,61,63,-1,65,67,-1,-1,-1,-1,-1,-1,-1,-1,-1,-1,-1,-1,-1,-1,-1,-1,-1,-1,-1,-1,-1,-1,-1,-1,-1],"loss_changes":[1.0949361E6,8.6047256E5,1.1088168E6,5.19416E5,5.63751E5,4.295142E5,3.4542794E5,0E0,8.922253E4,1.4964894E5,2.8184866E5,3.7897138E5,2.535475E5,2.3539766E4,1.7549125E4,0E0,8.852845E3,2.038823E4,1.1597625E5,1.7455245E5,1.1955092E5,0E0,3.236347E5,1.01838375E5,4.3570375E4,0E0,0E0,0E0,0E0,1.00555176E3,0E0,3.999243E4,3.107578E2,8.407594E4,6.201032E3,1.0414179E5,0E0,1.0863256E5,1.7397182E4,2.1755348E5,2.6100903E5,0E0,9.121675E4,3.527325E4,0E0,0E0,0E0,0E0,0E0,0E0,0E0,0E0,0E0,0E0,0E0,0E0,0E0,0E0,0E0,0E0,0E0,0E0,0E0,0E0,0E0,0E0,0E0,0E0,0E0],"parents":[2147483647,0,0,1,1,2,2,3,3,4,4,5,5,6,6,8,8,9,9,10,10,11,11,12,12,13,13,14,14,16,16,17,17,18,18,19,19,20,20,22,22,23,23,24,24,29,29,31,31,32,32,33,33,34,34,35,35,37,37,38,38,39,39,40,40,42,42,43,43],"right_children":[2,4,6,8,10,12,14,-1,16,18,20,22,24,26,28,-1,30,32,34,36,38,-1,40,42,44,-1,-1,-1,-1,46,-1,48,50,52,54,56,-1,58,60,62,64,-1,66,68,-1,-1,-1,-1,-1,-1,-1,-1,-1,-1,-1,-1,-1,-1,-1,-1,-1,-1,-1,-1,-1,-1,-1,-1,-1],"split_conditions":[3.389512E-2,-7.6272614E-2,3.1787563E-2,-2.5551243E-2,1E0,1.1E0,-2.7373388E-2,-1.934085E1,1.0808135E-2,-2.0170976E-4,-1.861424E-2,-1.1854639E-1,2.0343E-2,6.44E1,1.57E0,-7.5483637E0,3.2E0,-1.2887587E-3,6.929372E-2,4.95E0,9E1,-1.6403036E1,3.6838684E-2,-7.179879E-2,-2.8379492E-2,-3.8161013E-1,8.655433E0,-1.5283569E1,-3.3875885E0,-3.738247E-2,1.8463196E0,1.2E-1,6.770761E-2,-3.2615897E-4,-4.26214E-2,8.9E1,6.6767473E0,-3.8408026E-2,5E-3,9.839E1,7.766595E-2,-5.167918E0,4.96E0,8.73E1,1.0678406E0,-2.2897384E0,-5.9403175E-1,-9.375893E-1,5.8630524E0,-2.5373971E0,-9.2457277E-1,-2.085102E0,-7.399601E0,3.3372438E0,-1.7489828E-1,-8.237444E-1,-5.501739E0,1.4903129E0,6.824652E0,-2.8724214E-1,-5.774524E0,-5.168427E-1,-1.0471394E1,6.075916E0,1.5546306E0,3.5528E0,8.119029E0,1.4081908E1,1.9156494E0],"split_indices":[353,359,91,136,2,6,57,0,52,328,40,163,61,0,5,0,7,129,354,4,0,0,287,61,25,0,0,0,0,32,0,7,26,292,32,0,0,121,13,0,193,0,4,0,0,0,0,0,0,0,0,0,0,0,0,0,0,0,0,0,0,0,0,0,0,0,0,0,0],"split_type":[0,0,0,0,0,0,0,0,0,0,0,0,0,0,0,0,0,0,0,0,0,0,0,0,0,0,0,0,0,0,0,0,0,0,0,0,0,0,0,0,0,0,0,0,0,0,0,0,0,0,0,0,0,0,0,0,0,0,0,0,0,0,0,0,0,0,0,0,0],"sum_hessian":[6.12E2,2.62E2,3.5E2,3.8E1,2.24E2,3.36E2,1.4E1,9E0,2.9E1,7.7E1,1.47E2,2.52E2,8.4E1,2E0,1.2E1,2E1,9E0,1.7E1,6E1,1.02E2,4.5E1,2E0,2.5E2,7.3E1,1.1E1,1E0,1E0,1.1E1,1E0,8E0,1E0,9E0,8E0,5.6E1,4E0,9.6E1,6E0,4E1,5E0,7.1E1,1.79E2,2E0,7.1E1,1E1,1E0,6E0,2E0,7E0,2E0,6E0,2E0,1E1,4.6E1,2E0,2E0,8.3E1,1.3E1,1.7E1,2.3E1,3E0,2E0,6.6E1,5E0,4.1E1,1.38E2,5.7E1,1.4E1,9E0,1E0],"tree_param":{"num_deleted":"0","num_feature":"407","num_nodes":"69","size_leaf_vector":"1"}},{"base_weights":[6.022529E-1,2.2574999E1,-7.47831E1,-2.5918547E1,5.645649E1,-1.5968939E2,-2.5691076E1,-5.412014E1,5.4217693E1,-2.4014984E2,6.0580463E1,-9.723421E1,-1.7468065E1,1.22852745E1,-8.354913E1,-6.073336E1,1.3847285E1,-3.5336132E1,9.251334E1,-1.5856267E1,-2.3058473E-1,2.4162717E2,5.3519905E1,-1.2605491E2,5.25254E1,8.9943E1,-2.5826193E1,-9.295386E0,-5.596088E1,-2.61923E2,-4.8361137E1,7.7725586E1,-6.740619E1,4.9635567E1,1.3751584E2,2.6291882E2,1.250058E0,7.3255554E1,-1.8178953E1,-7.6819634E0,-4.357204E0,4.9990754E0,-8.0620575E0,6.1164753E1,7.6266747E0,4.0711856E0,-3.7684235E1,-6.829895E1,-7.427098E0,-1.6221453E1,-2.4801636E0,-4.44295E0,-4.1681194E-1,4.8004985E0,5.718109E-1,1.0474938E0,-4.8004E0,4.062034E0,-3.9635926E-1,1.844867E0,7.423591E0,1.4198923E1,2.3610444E0,6.3406043E0,2.4286005E0,-3.2555394E0,2.803498E0,4.7333375E-1,-1.5162064E0,3.7127244E0,4.9384004E-1,-1.4385949E-1,-2.330086E0,-3.7633493E0,1.6217856E-1,4.999369E-1,-8.19859E-1],"categories":[],"categories_nodes":[],"categories_segments":[],"categories_sizes":[],"default_left":[0,0,0,0,0,0,0,0,0,0,0,0,0,0,0,0,0,0,0,0,0,0,0,0,0,0,0,0,0,0,0,0,0,0,0,0,0,0,0,0,0,0,0,0,0,0,0,0,0,0,0,0,0,0,0,0,0,0,0,0,0,0,0,0,0,0,0,0,0,0,0,0,0,0,0,0,0],"id":22,"left_children":[1,3,5,7,9,11,13,15,17,19,21,23,-1,25,27,29,-1,31,33,-1,-1,35,37,39,41,43,45,-1,47,49,51,53,55,57,59,61,-1,63,65,-1,-1,-1,67,69,-1,-1,71,73,75,-1,-1,-1,-1,-1,-1,-1,-1,-1,-1,-1,-1,-1,-1,-1,-1,-1,-1,-1,-1,-1,-1,-1,-1,-1,-1,-1,-1],"loss_changes":[1.0054807E6,7.73689E5,5.6694375E5,4.4136844E5,3.5337394E5,5.583296E5,1.9438334E5,3.3209512E5,1.7817469E5,7.106016E4,3.373198E5,1.74952E5,0E0,1.6214398E5,8.843275E4,3.407944E5,0E0,6.3253523E4,6.2640156E4,0E0,0E0,3.955E4,3.763128E5,2.2031125E4,2.0932771E4,2.3092734E4,5.0124023E4,0E0,1.685832E4,9.0077375E4,2.1808381E5,3.75025E3,3.486421E4,3.7029547E4,1.3262156E4,2.7473E4,0E0,2.6880912E5,2.0575975E5,0E0,0E0,0E0,1.8479722E3,8.6654375E3,0E0,0E0,1.0419223E4,1.1709867E4,1.2581295E3,0E0,0E0,0E0,0E0,0E0,0E0,0E0,0E0,0E0,0E0,0E0,0E0,0E0,0E0,0E0,0E0,0E0,0E0,0E0,0E0,0E0,0E0,0E0,0E0,0E0,0E0,0E0,0E0],"parents":[2147483647,0,0,1,1,2,2,3,3,4,4,5,5,6,6,7,7,8,8,9,9,10,10,11,11,13,13,14,14,15,15,17,17,18,18,21,21,22,22,23,23,24,24,25,25,26,26,28,28,29,29,30,30,31,31,32,32,33,33,34,34,35,35,37,37,38,38,42,42,43,43,46,46,47,47,48,48],"right_children":[2,4,6,8,10,12,14,16,18,20,22,24,-1,26,28,30,-1,32,34,-1,-1,36,38,40,42,44,46,-1,48,50,52,54,56,58,60,62,-1,64,66,-1,-1,-1,68,70,-1,-1,72,74,76,-1,-1,-1,-1,-1,-1,-1,-1,-1,-1,-1,-1,-1,-1,-1,-1,-1,-1,-1,-1,-1,-1,-1,-1,-1,-1,-1,-1],"split_conditions":[6.1395522E-2,3.2520797E-2,1.0751397E-2,3E0,-1.1854639E-1,1.005E3,2.6955882E-2,3.4E-1,3.9054707E-2,6.555E1,-9.9196054E-2,-1.9402916E-2,-1.7468065E1,8.283E1,-4.0650565E-2,-1.0285901E-1,1.3847285E1,-4.3736145E-2,-7.6895714E-2,-1.5856267E1,-2.3058473E-1,6.44E0,6.794005E-2,7.0312E1,3.01E0,-1.8799312E-2,-4.0044103E-2,-9.295386E0,1.2136498E-2,-4.09378E-2,1E0,-1.0864481E-1,-3.2220315E-2,5.91E0,-8.135663E-2,2.04E0,1.250058E0,2.216487E-2,7.583908E-2,-7.6819634E0,-4.357204E0,4.9990754E0,-5.6048114E-2,4.931142E-2,7.6266747E0,4.0711856E0,-6.2057516E-3,1.61E0,2.7722668E-2,-1.6221453E1,-2.4801636E0,-4.44295E0,-4.1681194E-1,4.8004985E0,5.718109E-1,1.0474938E0,-4.8004E0,4.062034E0,-3.9635926E-1,1.844867E0,7.423591E0,1.4198923E1,2.3610444E0,6.3406043E0,2.4286005E0,-3.2555394E0,2.803498E0,4.7333375E-1,-1.5162064E0,3.7127244E0,4.9384004E-1,-1.4385949E-1,-2.330086E0,-3.7633493E0,1.6217856E-1,4.999369E-1,-8.19859E-1],"split_indices":[302,353,30,4,163,22,108,12,198,0,388,249,0,0,53,230,0,41,248,0,0,2,87,0,2,61,49,0,212,23,2,23,237,2,23,3,0,24,317,0,0,0,23,48,0,0,364,6,30,0,0,0,0,0,0,0,0,0,0,0,0,0,0,0,0,0,0,0,0,0,0,0,0,0,0,0,0],"split_type":[0,0,0,0,0,0,0,0,0,0,0,0,0,0,0,0,0,0,0,0,0,0,0,0,0,0,0,0,0,0,0,0,0,0,0,0,0,0,0,0,0,0,0,0,0,0,0,0,0,0,0,0,0,0,0,0,0,0,0,0,0,0,0,0,0,0,0,0,0,0,0,0,0,0,0,0,0],"sum_hessian":[6.05E2,4.69E2,1.36E2,1.93E2,2.76E2,4.9E1,8.7E1,1.43E2,5E1,3E0,2.73E2,3.8E1,1.1E1,5.3E1,3.4E1,1.41E2,2E0,1.5E1,3.5E1,2E0,1E0,9E0,2.64E2,3.2E1,6E0,1.7E1,3.6E1,6E0,2.8E1,7E0,1.34E2,3E0,1.2E1,1.9E1,1.6E1,8E0,1E0,2.07E2,5.7E1,1.7E1,1.5E1,3E0,3E0,1.3E1,4E0,3E0,3.3E1,2.2E1,6E0,5E0,2E0,6.6E1,6.8E1,2E0,1E0,3E0,9E0,1.2E1,7E0,2E0,1.4E1,7E0,1E0,6.4E1,1.43E2,3.5E1,2.2E1,2E0,1E0,1E1,3E0,7E0,2.6E1,2E1,2E0,2E0,4E0],"tree_param":{"num_deleted":"0","num_feature":"407","num_nodes":"77","size_leaf_vector":"1"}},{"base_weights":[4.4767383E-1,2.2045475E1,-7.264378E1,3.594103E1,-7.853555E1,-2.884266E1,-1.6252515E2,6.789257E1,-4.238443E0,-5.5193176E0,-1.440662E2,-1.9876265E1,-1.4709897E1,-1.0993126E2,-1.5754715E1,7.3319244E1,-2.5568779E2,4.21713E0,-2.543807E2,3.8269665E1,-3.1972622E1,-1.5567723E2,4.816345E0,3.44966E1,-5.3868317E1,-1.24980125E2,4.6125E0,1.6592668E2,5.774613E1,-1.8215197E1,1.7540162E0,3.9382412E1,-5.0600483E1,-1.4771477E1,-1.2284149E0,2.623884E0,5.362256E-1,-4.813385E1,8.372142E0,-1.4751208E1,-1.2825165E2,1.8673386E1,7.8206987E0,-9.074013E1,-2.6256794E1,-2.543386E0,-6.9782777E0,-1.5811197E0,1.0636559E1,2.0278053E0,6.385041E0,-1.4803188E-1,6.092986E0,-4.030557E0,4.3592787E0,-9.1034806E-1,-3.2281144E0,1.1871529E0,-7.456564E-1,-7.125287E0,-3.4602025E0,-1.4815437E0,2.5776348E0,-3.0633245E0,-6.2938285E0,3.95504E0,-1.9502165E0],"categories":[],"categories_nodes":[],"categories_segments":[],"categories_sizes":[],"default_left":[0,0,0,0,0,0,0,0,0,0,0,0,0,0,0,0,0,0,0,0,0,0,0,0,0,0,0,0,0,0,0,0,0,0,0,0,0,0,0,0,0,0,0,0,0,0,0,0,0,0,0,0,0,0,0,0,0,0,0,0,0,0,0,0,0,0,0],"id":23,"left_children":[1,3,5,7,9,11,13,15,17,19,21,23,-1,25,-1,27,29,31,33,35,37,39,-1,41,43,45,-1,47,49,-1,-1,51,53,-1,-1,-1,-1,55,57,-1,59,61,-1,63,65,-1,-1,-1,-1,-1,-1,-1,-1,-1,-1,-1,-1,-1,-1,-1,-1,-1,-1,-1,-1,-1,-1],"loss_changes":[9.5508475E5,6.555155E5,5.386052E5,5.27928E5,2.7193847E5,2.1780481E5,3.264505E5,4.20863E5,3.8813534E5,3.3657754E4,9.873231E4,1.7189684E5,0E0,1.1802041E5,0E0,3.1635238E5,1.3910836E5,3.4511925E5,4.9343E4,3.7421836E3,1.2139361E4,7.299106E4,0E0,6.652771E4,5.564839E4,2.8572344E4,0E0,3.0260506E5,2.2931294E5,0E0,0E0,3.810259E5,2.9648166E5,0E0,0E0,0E0,0E0,5.215994E3,2.5015786E3,0E0,1.20214375E4,5.3938508E4,0E0,1.7142344E4,4.874896E4,0E0,0E0,0E0,0E0,0E0,0E0,0E0,0E0,0E0,0E0,0E0,0E0,0E0,0E0,0E0,0E0,0E0,0E0,0E0,0E0,0E0,0E0],"parents":[2147483647,0,0,1,1,2,2,3,3,4,4,5,5,6,6,7,7,8,8,9,9,10,10,11,11,13,13,15,15,16,16,17,17,18,18,19,19,20,20,21,21,23,23,24,24,25,25,27,27,28,28,31,31,32,32,37,37,38,38,40,40,41,41,43,43,44,44],"right_children":[2,4,6,8,10,12,14,16,18,20,22,24,-1,26,-1,28,30,32,34,36,38,40,-1,42,44,46,-1,48,50,-1,-1,52,54,-1,-1,-1,-1,56,58,-1,60,62,-1,64,66,-1,-1,-1,-1,-1,-1,-1,-1,-1,-1,-1,-1,-1,-1,-1,-1,-1,-1,-1,-1,-1,-1],"split_conditions":[6.1395522E-2,9.7E0,-3.433248E-2,8.737E1,2.1610392E-2,5.5587843E-2,6.625325E-2,4.5627143E-2,9.9778E1,2.5181381E-2,2E-1,-3.5790537E-2,-1.4709897E1,2E-2,-1.5754715E1,-5.9961826E-2,8.32E1,5.442977E-3,-7.386148E-2,7.871168E-2,2.8779184E-2,-2.9281652E-2,4.816345E0,6.35062E-2,-7.828906E-6,2.8746689E-2,4.6125E0,-8.066985E-2,1.4106339E-2,-1.8215197E1,1.7540162E0,9.436759E-2,2E-2,-1.4771477E1,-1.2284149E0,2.623884E0,5.362256E-1,-5.4460015E-2,1.1061595E-1,-1.4751208E1,5.6052722E-2,1.027346E-1,7.8206987E0,4.613741E-2,4.939561E-2,-2.543386E0,-6.9782777E0,-1.5811197E0,1.0636559E1,2.0278053E0,6.385041E0,-1.4803188E-1,6.092986E0,-4.030557E0,4.3592787E0,-9.1034806E-1,-3.2281144E0,1.1871529E0,-7.456564E-1,-7.125287E0,-3.4602025E0,-1.4815437E0,2.5776348E0,-3.0633245E0,-6.2938285E0,3.95504E0,-1.9502165E0],"split_indices":[302,7,215,0,108,95,304,141,0,201,8,116,0,9,0,71,0,36,23,33,345,324,0,140,95,202,0,124,404,0,0,250,9,0,0,0,0,303,26,0,66,